%YAML:1.0
---
opencv_ml_svm:
   format: 3
   svmType: C_SVC
   kernel:
      type: POLY
      degree: 2.
      gamma: 5.3830000000000000e+00
      coef0: 1.
   C: 2.6699999999999999e+00
   term_criteria: { epsilon:1.1920928955078125e-07, iterations:1000 }
   var_count: 27
   class_count: 2
   class_labels: !!opencv-matrix
      rows: 2
      cols: 1
      dt: i
      data: [ 0, 255 ]
   sv_total: 8
   support_vectors:
      - [ 8.54444427e+01, 8.52222214e+01, 8.49629593e+01, 8.50740738e+01,
          8.57407379e+01, 8.58148117e+01, 8.57037048e+01, 8.50740738e+01,
          8.50370407e+01, 8.52592621e+01, 8.56296310e+01, 8.57777786e+01,
          8.55185165e+01, 8.48888855e+01, 8.41481476e+01, 8.32222214e+01,
          8.25925903e+01, 8.22592621e+01, 8.21111145e+01, 82.,
          8.20370407e+01, 8.25185165e+01, 8.28148117e+01, 8.33333359e+01,
          8.37037048e+01, 8.42592621e+01, 8.41851883e+01 ]
      - [ 8.10370407e+01, 8.11851883e+01, 8.07037048e+01, 8.11851883e+01,
          8.11111145e+01, 8.08518524e+01, 8.14814835e+01, 8.11111145e+01,
          8.09259262e+01, 8.12222214e+01, 8.15185165e+01, 8.12222214e+01,
          8.15185165e+01, 8.12962952e+01, 8.11481476e+01, 8.05555573e+01,
          8.09629593e+01, 8.09259262e+01, 8.09259262e+01, 81.,
          8.04074097e+01, 8.06666641e+01, 8.06666641e+01, 8.08148117e+01,
          8.10370407e+01, 8.02962952e+01, 8.06296310e+01 ]
      - [ 1.73222229e+02, 1.73222229e+02, 1.73333328e+02, 1.73111115e+02,
          1.73222229e+02, 173., 1.72962967e+02, 1.72740738e+02,
          1.72518524e+02, 1.72370377e+02, 173., 1.72222229e+02,
          1.72777771e+02, 1.72518524e+02, 1.72925919e+02, 1.72814819e+02,
          1.72629623e+02, 173., 1.72851852e+02, 1.72703705e+02,
          1.72851852e+02, 1.72814819e+02, 1.72444443e+02, 1.73333328e+02,
          1.72074081e+02, 1.72777771e+02, 173. ]
      - [ 1.71296295e+02, 1.71259262e+02, 1.70962967e+02, 1.70777771e+02,
          1.70555557e+02, 1.70296295e+02, 1.71629623e+02, 1.70962967e+02,
          1.70703705e+02, 1.70703705e+02, 1.70666672e+02, 1.69296295e+02,
          1.69925919e+02, 1.68777771e+02, 1.68407410e+02, 1.69518524e+02,
          1.05185188e+02, 1.04962959e+02, 1.04666664e+02, 1.06148148e+02,
          1.06370369e+02, 1.06740738e+02, 1.06962959e+02, 1.06629631e+02,
          1.03592590e+02, 1.07592590e+02, 1.08185188e+02 ]
      - [ 1.77222229e+02, 1.77703705e+02, 1.78074081e+02, 1.77962967e+02,
          1.77814819e+02, 1.77851852e+02, 178., 1.77888885e+02,
          1.77481476e+02, 1.77111115e+02, 177., 1.77111115e+02,
          1.77333328e+02, 1.77925919e+02, 1.78333328e+02, 1.78518524e+02,
          1.78185181e+02, 1.77888885e+02, 1.77777771e+02, 1.77814819e+02,
          1.78148148e+02, 1.78185181e+02, 1.78222229e+02, 178.,
          1.77888885e+02, 1.77555557e+02, 1.77222229e+02 ]
      - [ 8.51111145e+01, 8.52222214e+01, 8.52222214e+01, 8.51111145e+01,
          85., 8.50740738e+01, 8.52962952e+01, 8.54814835e+01,
          8.54444427e+01, 8.53703690e+01, 8.53703690e+01, 8.54444427e+01,
          8.54814835e+01, 8.55555573e+01, 8.55925903e+01, 8.56296310e+01,
          8.55555573e+01, 8.54814835e+01, 8.54444427e+01, 8.54814835e+01,
          8.55185165e+01, 8.57407379e+01, 8.59629593e+01, 86.,
          8.56666641e+01, 8.54814835e+01, 8.56296310e+01 ]
      - [ 1.27740738e+02, 1.23148148e+02, 1.38592590e+02, 1.18444443e+02,
          1.28666672e+02, 1.14629631e+02, 1.18888885e+02, 1.15666664e+02,
          1.17111115e+02, 1.16111115e+02, 1.16962959e+02, 1.16814812e+02,
          1.16629631e+02, 1.16888885e+02, 1.16555557e+02, 1.17148148e+02,
          1.16629631e+02, 1.17333336e+02, 1.17074074e+02, 1.17555557e+02,
          1.17148148e+02, 1.17703705e+02, 1.16925926e+02, 1.17592590e+02,
          1.16777779e+02, 1.17444443e+02, 1.16777779e+02 ]
      - [ 1.62333328e+02, 1.62333328e+02, 1.62333328e+02, 1.62333328e+02,
          1.62333328e+02, 1.62333328e+02, 1.62333328e+02, 1.62333328e+02,
          1.62333328e+02, 1.62333328e+02, 1.62333328e+02, 1.62333328e+02,
          1.62333328e+02, 1.62333328e+02, 1.62333328e+02, 1.62333328e+02,
          1.62333328e+02, 1.62333328e+02, 1.62333328e+02, 1.62333328e+02,
          1.62333328e+02, 1.62333328e+02, 1.62333328e+02, 1.62333328e+02,
          1.62333328e+02, 1.62333328e+02, 1.62333328e+02 ]
   decision_functions:
      -
         sv_count: 8
         rho: -1.4781542242780437e+00
         alpha: [ 6.3034176746738813e-13, 1.5742060542527994e-10,
             1.4805471681652066e-10, 2.6166983408788832e-11,
             -6.3034176746738813e-13, -1.7342322521054435e-10,
             -1.5742060542527994e-10, -7.9847501476504225e-13 ]
         index: [ 7, 4, 0, 5, 6, 2, 1, 3 ]
