%YAML:1.0
---
opencv_ml_svm:
   format: 3
   svmType: C_SVC
   kernel:
      type: LINEAR
   C: 2.6699999999999999e+00
   term_criteria: { epsilon:1.1920928955078125e-07, iterations:1000 }
   var_count: 18
   class_count: 19
   class_labels: !!opencv-matrix
      rows: 19
      cols: 1
      dt: i
      data: [ 0, 1, 2, 3, 4, 5, 6, 7, 8, 246, 247, 248, 249, 250, 251,
          252, 253, 254, 255 ]
   sv_total: 171
   support_vectors:
      - [ 4.65584174e-03, 7.88125396e-03, 4.67672758e-03, 2.44474597e-03,
          -1.07150171e-02, 1.11064990e-03, -2.78563285e-03,
          -7.15411548e-03, 5.08596050e-03, 8.52738228e-03,
          -3.28337454e-04, 6.90146699e-04, -5.42996591e-03,
          6.27340516e-03, -9.81079414e-03, -3.20602325e-03,
          2.55760504e-03, 3.71991750e-03 ]
      - [ 4.45639808e-03, 3.79206426e-03, -8.71280953e-03,
          -4.25099116e-03, -8.41987028e-04, 8.74919631e-03,
          -6.02429220e-03, -1.18410250e-03, 1.45561632e-03,
          6.74566627e-03, -5.94546273e-03, -1.71929569e-04,
          -1.73573825e-03, 3.67930532e-03, 5.56850852e-03,
          1.90112402e-03, 1.58217957e-03, 2.13195966e-03 ]
      - [ 5.58787817e-03, 4.06090682e-03, -8.49935785e-03,
          -2.28362298e-03, 3.60124419e-03, 2.99383001e-03,
          -3.99822276e-03, -2.41031055e-03, -5.48821990e-04,
          5.72819728e-03, 7.52144773e-03, 7.65128294e-03,
          -5.74783608e-03, 4.64748591e-03, -4.03249916e-03,
          3.08331172e-03, 7.59178947e-05, 1.12727040e-03 ]
      - [ -7.79412279e-04, 2.39323638e-03, -1.30761485e-03,
          1.92945474e-04, -9.27628204e-03, 6.74540782e-03,
          4.70094848e-03, 1.70221366e-03, -3.20551987e-03,
          4.94948262e-03, 2.64488719e-03, 1.81033229e-03,
          -1.32277387e-03, -1.38197298e-04, -7.69393053e-03,
          4.92039078e-04, 4.81231511e-03, 1.72853714e-03 ]
      - [ -7.60657538e-04, 6.32740417e-03, 4.76542022e-03,
          -7.58727256e-04, 5.38182165e-03, 1.05592730e-02,
          1.48664636e-03, 9.88729444e-05, -3.86747852e-04,
          9.14909132e-03, 4.66515915e-03, 3.08356801e-04,
          -1.40969502e-02, -3.26052378e-03, -3.81449121e-03,
          1.95673713e-03, 3.94677464e-03, 2.44425028e-03 ]
      - [ 1.19105848e-02, -3.10164265e-04, -3.03579704e-03,
          3.57063557e-03, 3.94857815e-03, 2.38700872e-04,
          -3.41280224e-03, 1.13915568e-02, 6.37862319e-03,
          5.24123758e-03, -2.19223811e-03, 4.70684143e-03,
          -1.04939528e-02, -5.53280348e-04, 3.15538468e-03,
          3.00659053e-03, -1.37788977e-03, -1.89383441e-04 ]
      - [ 4.77261189e-03, 3.55827645e-03, 9.67438624e-04, 2.25694897e-03,
          -1.34001137e-04, 2.20945780e-03, -1.63441170e-02,
          4.14876407e-03, 6.02290127e-03, 6.75217574e-03,
          -4.26275190e-03, 5.07719209e-03, 1.27484491e-02,
          1.75963598e-03, -8.92207585e-03, 4.44310438e-03,
          1.33207878e-02, 7.13780243e-03 ]
      - [ -2.20403494e-03, -3.76725430e-03, 2.19979743e-03,
          -1.07053202e-03, -1.10842148e-03, -2.78939563e-03,
          2.29514600e-03, -1.18906889e-02, 5.09137427e-03,
          -1.36670442e-02, 9.47707705e-03, -9.50013194e-03,
          3.90617317e-03, -8.25238321e-03, 9.18873399e-03,
          -8.21384974e-03, 6.27977913e-03, -1.12299016e-02 ]
      - [ -6.69144746e-03, 1.22406392e-03, -3.62680247e-03,
          1.32135488e-03, -9.76169202e-03, -8.50737852e-05,
          -1.87991261e-02, -4.03563771e-03, -1.17937280e-02,
          -6.44448400e-03, -1.01837311e-02, -4.12048679e-03,
          -1.61163770e-02, -7.11399270e-03, -2.02068649e-02,
          -4.60650446e-03, -5.82666416e-03, -8.42746347e-03 ]
      - [ 3.01488768e-03, -5.84050315e-03, -2.17895862e-03,
          -4.79773944e-03, 1.35434465e-03, -3.65761528e-03,
          -1.19881169e-03, -4.06135898e-03, 1.11971854e-03,
          -3.64935584e-03, 7.86772277e-03, -4.98135388e-03,
          2.62746261e-03, -9.48894583e-03, 8.35681625e-04,
          -8.31074547e-03, 1.69897161e-03, -3.17162857e-03 ]
      - [ 1.30428059e-04, 1.12039624e-02, 2.90211127e-03,
          -3.05576529e-03, 4.17493191e-03, 4.64301324e-03,
          -5.86995389e-03, -5.60445897e-03, -9.10783466e-03,
          1.05480719e-02, -2.38674041e-03, 1.83190568e-03,
          -6.95312023e-03, 3.43367900e-03, -1.27255097e-02,
          -2.63524387e-04, 1.36078440e-03, 7.37119420e-03 ]
      - [ -6.67579193e-03, -2.82790512e-03, -9.60042514e-03,
          9.72947944e-03, -1.68838853e-03, -8.24420596e-04,
          -4.30419948e-03, 1.15229441e-02, 9.65640601e-03,
          -1.44185720e-03, -2.45038071e-03, 1.03842197e-02,
          9.18826647e-03, -4.34121210e-03, -4.82774759e-03,
          9.70065221e-03, 1.05379028e-02, 2.30688811e-03 ]
      - [ 6.73246803e-03, 9.78090055e-03, -9.74276476e-03,
          -6.19839923e-03, 2.83884746e-03, 3.72299086e-03,
          6.56951778e-03, -2.50604539e-03, -6.27565710e-03,
          6.35319296e-03, 2.35419557e-03, 7.51143415e-03, 1.16887623e-02,
          8.68378114e-03, -8.14263709e-03, 1.57571467e-05,
          -1.85371516e-03, 6.17282093e-03 ]
      - [ 1.84292521e-03, 1.12057291e-02, 2.24379520e-03, 1.68031803e-03,
          -5.45205316e-03, 2.13063974e-03, -6.72849920e-03,
          1.18114252e-03, -1.28414226e-03, 4.24101949e-03,
          -4.65967413e-03, 2.48930720e-03, -1.45678641e-03,
          -3.69117060e-03, 3.66983074e-03, 8.16789083e-03,
          1.54990181e-02, 5.03982231e-03 ]
      - [ 1.12615498e-02, 9.11100488e-03, 1.55350624e-03, 5.21500781e-03,
          3.39794229e-03, 5.36233839e-03, -6.98510651e-03,
          -8.95592943e-03, -8.78826901e-03, 2.71319924e-03,
          -2.41413573e-03, -1.25298699e-04, -2.77161039e-03,
          8.60129949e-03, -6.28398312e-03, 1.70747889e-03,
          1.57305226e-02, 6.59084599e-03 ]
      - [ 6.88325753e-03, 3.44967074e-03, -1.16535434e-02,
          -1.08686113e-03, 1.73615554e-04, 1.51965907e-03,
          -4.00341488e-03, 4.64635948e-03, 5.12970006e-03,
          2.95987516e-03, -4.85736923e-03, 5.15663158e-03,
          -5.85419475e-04, 1.32594595e-03, 1.12405363e-02,
          5.42133627e-03, 1.86994474e-03, 4.23448533e-03 ]
      - [ 6.04207627e-03, 5.63527690e-04, -1.45424134e-03,
          8.14624189e-04, -8.47245101e-03, 4.27594967e-03,
          -7.35930027e-03, 7.31317652e-03, 1.67885125e-02,
          4.14626813e-03, 3.78922420e-03, 4.32842178e-03, 7.53438612e-03,
          4.53152461e-03, -8.10017530e-03, 5.60829998e-04,
          2.70282011e-03, 3.42230895e-03 ]
      - [ 1.84227689e-03, 3.29211704e-03, -5.68440184e-03,
          3.23787244e-05, -5.30420989e-03, 3.32361273e-03,
          -3.25564272e-03, 3.48426751e-03, 1.47158746e-03,
          2.63072783e-03, 4.59379051e-04, 2.92599620e-03, 4.29537147e-03,
          3.22084432e-03, 1.08201364e-02, 3.65457684e-03, 2.84322095e-03,
          6.12144964e-03 ]
      - [ 1.63773745e-02, 6.89172302e-04, -1.95592232e-02,
          -1.62600763e-02, 7.89910741e-03, 8.23197048e-03,
          -2.06156541e-02, -5.60209434e-03, 6.84050424e-03,
          2.45417212e-03, 1.58654165e-03, -5.47458092e-03,
          4.95351851e-03, -5.80028677e-03, 1.84578709e-02,
          -5.55480039e-03, -1.81049702e-03, 5.09922439e-03 ]
      - [ -1.34835076e-02, -1.84400054e-03, -9.54083540e-03,
          -1.30201476e-02, 1.25263035e-02, 3.52307456e-04,
          7.13234767e-03, -8.60382151e-03, 8.45935382e-03,
          -7.24500418e-03, -9.98645788e-04, 1.03460010e-02,
          -3.07524973e-03, -2.51029665e-03, 1.52508887e-02,
          7.23956898e-03, -8.75639264e-03, -9.89783276e-03 ]
      - [ 6.93608716e-04, -1.19352024e-02, -1.18773105e-02,
          -1.69434641e-02, 1.28443129e-02, 1.06545743e-02,
          8.81836563e-03, 2.61975415e-02, -6.87640766e-03,
          -1.91069755e-03, -1.39648328e-02, -6.12838287e-03,
          -3.96919018e-03, -1.98144391e-02, 1.68471318e-02,
          -1.51101751e-02, 5.76727279e-03, 9.67338122e-03 ]
      - [ -1.45561043e-02, -5.28478203e-03, 1.25452643e-02,
          -1.44781983e-02, 1.25509640e-02, 5.85184386e-03,
          5.78904546e-05, 6.87030004e-03, -4.04524384e-03,
          -1.56293786e-03, 2.08073091e-02, -3.95088876e-03,
          1.52073503e-02, -1.66341867e-02, -2.48460844e-03,
          -1.79364961e-02, -2.18295269e-02, -9.12168121e-04 ]
      - [ 4.64143697e-03, -1.01914816e-02, -1.65735893e-02,
          -8.24692007e-03, 3.01732719e-02, -1.11875851e-02,
          4.47753165e-03, 1.98807381e-02, 1.21109532e-02, 1.79429781e-02,
          6.75247924e-04, 1.88684312e-03, -6.86559035e-03,
          -1.66587401e-02, 1.43005345e-02, 1.37561979e-03,
          -2.40483806e-02, -1.66002121e-02 ]
      - [ -1.31373815e-02, -6.31901855e-03, 4.00103396e-03,
          3.16889514e-03, 7.62463547e-03, -2.34734192e-02,
          -2.09328309e-02, -6.87278667e-03, 2.61461586e-02,
          -9.76821873e-03, -9.00830608e-03, 9.65798553e-03,
          1.86920278e-02, 5.95889520e-04, 5.60506899e-03,
          -1.78082706e-03, 2.59293546e-03, 6.41315011e-03 ]
      - [ -8.65558535e-03, 1.28462370e-02, 6.75005745e-03,
          -2.66601820e-03, -3.28789353e-02, 1.62356906e-02,
          3.24749537e-02, -2.83372905e-02, -4.40405980e-02,
          5.73457219e-03, 5.72681613e-02, -1.08783627e-02,
          -3.97820435e-02, -6.79364381e-03, 9.52489302e-03,
          -7.61813717e-03, -3.24004218e-02, 1.12886820e-03 ]
      - [ -1.59188230e-02, -9.15159378e-03, -5.31041482e-03,
          1.48343109e-02, 1.29884928e-02, -7.09829852e-03,
          -1.42332548e-02, 5.93196834e-03, 2.90108528e-02,
          -5.09855011e-03, -2.94465516e-02, 1.97275449e-02,
          -8.89266655e-03, 9.34978947e-03, -2.39678472e-02,
          2.68969610e-02, 2.71857660e-02, 1.21618796e-04 ]
      - [ 9.94715374e-03, -6.24384452e-03, 1.98506124e-04,
          -2.36373749e-02, -2.14787442e-02, 1.82961058e-02,
          1.85849052e-03, -1.17094247e-02, -8.19843821e-03,
          1.31316483e-02, 2.19987682e-03, -2.50442922e-02,
          -5.44325495e-03, -1.56018771e-02, 2.11940706e-02,
          -2.67279148e-02, 1.14195384e-02, 2.85987593e-02 ]
      - [ -2.87262667e-02, -2.58243550e-03, 3.17279212e-02,
          -1.59963388e-02, 2.66983416e-02, 1.79288117e-03,
          -7.08857225e-03, 3.51994182e-03, -1.89836491e-02,
          1.74451787e-02, 2.88046487e-02, -3.74966930e-03,
          1.97338499e-02, -1.36961639e-02, -1.94388479e-02,
          -2.73398701e-02, -2.86327321e-02, 5.25261462e-03 ]
      - [ -1.52501287e-02, -1.39030097e-02, 1.12155676e-02,
          8.07472505e-03, -9.60004330e-03, -3.86283942e-03,
          -1.08815087e-02, 2.48298738e-02, 1.33857476e-02,
          -1.79219916e-02, 1.03163244e-02, 2.57616490e-03,
          -3.59383237e-04, -2.48203296e-02, 3.15996483e-02,
          -1.08279269e-02, -1.11889914e-02, 1.74637195e-02 ]
      - [ -1.01716584e-02, 1.50977320e-03, -5.39177703e-03,
          -1.00280298e-02, 9.40341409e-03, 1.12347743e-02,
          8.66051181e-04, 1.67075894e-04, -1.14494953e-02,
          -2.79313847e-02, 1.29410727e-02, 7.13010738e-03,
          1.72961298e-02, -3.28608300e-03, 4.49642492e-03,
          -1.32735418e-02, -8.71114992e-03, 1.00782448e-02 ]
      - [ -2.30105892e-02, -1.84849626e-03, 6.09601149e-03,
          -1.64538007e-02, 1.34689324e-02, 1.09046092e-02,
          -1.47907285e-03, 1.12626953e-02, 2.20619817e-03,
          -1.93029549e-02, 4.75863647e-03, 1.98125956e-03,
          1.97690800e-02, -1.55082694e-03, -5.46455570e-03,
          -1.16587142e-02, -1.44558947e-03, 5.42894518e-03 ]
      - [ -1.38064930e-02, 9.26719233e-03, -1.10356575e-02,
          5.58487023e-04, 1.38758607e-02, 3.60456342e-03, 1.88624486e-02,
          -3.84417974e-04, -1.13467360e-02, -1.23524275e-02,
          -7.08692474e-03, 1.21303992e-02, 3.60043778e-04,
          6.38930639e-03, -2.17465814e-02, 4.71451553e-03,
          1.25276949e-02, 4.53262310e-03 ]
      - [ -4.46634833e-03, -3.94129939e-03, -9.12662502e-03,
          2.54852115e-03, 9.12222452e-03, 1.47154066e-03, 9.46259766e-04,
          -1.15243567e-03, 1.73738282e-02, -1.05094751e-02,
          -5.12391608e-03, -2.04976008e-04, 7.03209080e-03,
          -8.74520093e-03, 9.38722212e-03, -8.72018095e-03,
          -6.07360713e-03, 1.50992917e-02 ]
      - [ -1.67737361e-02, -1.50360791e-02, -1.05748428e-02,
          2.07550780e-04, 1.91991888e-02, 1.55497796e-03, 1.30761983e-02,
          1.52176498e-02, 5.97424759e-03, -9.52974521e-03,
          -1.59248768e-03, -9.99071752e-04, 3.96077475e-03,
          -1.07131014e-02, 4.92199790e-03, -5.35510015e-03,
          -3.14861722e-03, 7.48804770e-03 ]
      - [ -1.21778855e-02, 4.48177150e-03, -6.56919740e-03,
          1.74646894e-03, 6.67290483e-03, 5.47944941e-03,
          -1.02022395e-03, 7.21996231e-03, -3.83329485e-03,
          -8.57706089e-03, 8.84077570e-04, 7.90503528e-03,
          7.06647150e-03, 3.18396767e-03, 8.72725435e-03,
          -3.42095038e-03, 8.06140364e-04, 1.74891725e-02 ]
      - [ -2.08384451e-02, -6.48895977e-03, -1.60027659e-04,
          -3.17963026e-03, 2.64931954e-02, -1.20031843e-02,
          2.48979032e-02, -2.93740816e-03, 1.59520330e-03,
          2.34446093e-03, 4.84461307e-05, 1.12545742e-02,
          -6.86631072e-03, 2.00971891e-03, -6.72484888e-03,
          -7.61707034e-03, -6.86743588e-04, -4.54353914e-03 ]
      - [ -9.53153055e-03, 1.06223405e-03, -1.68152532e-04,
          -1.98547170e-03, -1.02105057e-02, -2.11847425e-02,
          3.39381918e-02, 1.66569650e-02, -1.91100203e-02,
          -1.22811459e-02, 1.92257352e-02, 8.51891097e-03,
          5.34227723e-03, -2.80357758e-03, -1.16296066e-02,
          -2.11106408e-02, 2.93807033e-03, 1.05581637e-02 ]
      - [ -3.59010883e-02, -9.76031367e-03, 2.07925960e-02,
          4.30289516e-03, 5.84510108e-03, -1.92605685e-02,
          1.98884625e-02, 1.15167582e-02, 9.64783411e-03, 2.58525298e-03,
          2.08072979e-02, 9.41024441e-03, 3.97813506e-03,
          -1.62094701e-02, -2.23130211e-02, -1.32853901e-02,
          -9.99861676e-03, -8.96526471e-05 ]
      - [ -2.23470293e-02, -5.86174801e-03, -1.12254592e-02,
          1.02462433e-02, 3.23344544e-02, -2.12301016e-02,
          4.71071340e-02, 1.73552632e-02, 2.28702072e-02, 8.57923552e-03,
          -2.98412964e-02, 2.53632665e-02, -3.85102108e-02,
          -3.58067104e-04, -1.51508152e-02, 1.17575563e-02,
          1.52002638e-02, -1.51075460e-02 ]
      - [ -3.56767476e-02, -1.03381053e-02, 4.68878570e-04,
          8.51184886e-04, 1.44413505e-02, -3.03142853e-02,
          6.56999124e-04, -5.44812810e-03, 2.50332896e-02,
          5.95549587e-03, -7.97017291e-03, 7.94831757e-03,
          2.97666732e-02, -7.39527692e-04, -3.50605771e-02,
          -5.04536647e-03, 1.13187749e-02, 7.80641939e-03 ]
      - [ 3.41024660e-02, 6.38803616e-02, 7.66990124e-04,
          -3.41480635e-02, -1.37122005e-01, 4.73729558e-02,
          3.81468155e-04, -4.71046194e-02, -6.28473535e-02,
          7.66397221e-03, 3.01819116e-01, 1.51501494e-02,
          -3.65956426e-02, -1.06974011e-02, 5.77802695e-02,
          -2.61892332e-03, -1.90024719e-01, -4.48297858e-02 ]
      - [ -3.89152989e-02, -2.24400982e-02, 3.20091806e-02,
          2.51122322e-02, 5.98045299e-03, -5.54279704e-03,
          -2.44891737e-03, 3.50571005e-03, 5.21046529e-03,
          -2.30272412e-02, -3.80914938e-03, 1.18453717e-02,
          3.37907784e-02, -7.76267843e-03, -2.95885038e-02,
          5.29176416e-03, 4.11807075e-02, -1.21311359e-02 ]
      - [ 7.72223296e-03, -1.42489346e-02, 2.13679466e-02,
          -1.73173156e-02, -1.73746590e-02, -2.76743597e-03,
          3.08350287e-02, -8.65424518e-03, 1.19020743e-02,
          1.63080711e-02, -1.56106884e-02, -4.97930869e-02,
          -1.57298278e-02, -2.39529405e-02, 5.39595969e-02,
          -2.85053775e-02, 2.67136805e-02, 2.30686963e-02 ]
      - [ -4.39567156e-02, -2.97825644e-03, 2.83298474e-02,
          -2.73807062e-04, 1.51935928e-02, -2.29571089e-02,
          2.53644343e-02, 2.13473151e-03, 9.70348809e-03, 3.99090117e-03,
          6.66212803e-03, 6.08618837e-03, -3.73823661e-03,
          -1.16567649e-02, -4.38674539e-02, -2.29422580e-02,
          7.48113403e-03, 1.28903296e-02 ]
      - [ -2.70929877e-02, -5.33673121e-03, 1.53483916e-02,
          5.74126653e-03, -1.57912597e-02, -1.98823772e-02,
          8.08303431e-03, 2.64607370e-02, 2.67369039e-02,
          -1.16543770e-02, 3.70557345e-02, 3.95663519e-04,
          6.30838331e-03, -2.77153440e-02, -1.72752384e-02,
          -7.88236503e-03, -5.34062600e-03, 2.10216027e-02 ]
      - [ -1.62419248e-02, 5.21883521e-05, -6.91907993e-03,
          -1.57560699e-03, -5.18405763e-03, -2.87586451e-02,
          2.71660481e-02, 1.66005995e-02, -3.30936210e-03,
          -1.18738478e-02, 2.12969314e-02, 1.04786055e-02,
          2.05231085e-02, -1.00614857e-02, -2.17524655e-02,
          -1.29715819e-02, -5.97427739e-03, 1.19519643e-02 ]
      - [ -1.42693724e-02, 4.14298987e-03, 3.55451205e-03,
          -1.06169786e-02, -4.44143591e-03, -1.89708248e-02,
          1.43742645e-02, 1.61151122e-02, 5.89312054e-03, 4.87640791e-04,
          1.43048968e-02, 5.64200745e-04, 1.37101179e-02,
          -7.45046465e-03, -2.63811797e-02, -2.19701529e-02,
          1.35306325e-02, 2.39226855e-02 ]
      - [ -1.92235094e-02, 6.29994785e-03, -9.51031968e-03,
          1.21149244e-02, 1.95755754e-02, -1.66860595e-02,
          2.22772509e-02, -2.57297140e-03, -1.72460300e-03,
          -7.24666379e-03, 6.51955465e-03, 2.89495494e-02,
          1.15059754e-02, 1.13339415e-02, -2.06237044e-02,
          -2.47880125e-05, 7.21970457e-04, 1.05852797e-03 ]
      - [ -1.08654136e-02, -4.51480737e-03, -7.42111821e-03,
          2.62286281e-03, 2.35172384e-03, -1.68700572e-02,
          5.45978406e-03, 5.49925119e-03, 1.26863541e-02,
          -4.14609117e-03, 1.81761254e-02, 4.78524761e-03,
          7.75439525e-03, -1.12789627e-02, -4.13985550e-03,
          -2.44737766e-03, -7.47618359e-03, 9.51321051e-03 ]
      - [ -2.98462454e-02, -9.44946799e-03, 4.98458464e-03,
          -2.98947399e-03, 2.03857254e-02, -9.99862514e-03,
          1.95659138e-02, 1.34992544e-02, 1.05554629e-02, 4.41057701e-03,
          8.26013042e-04, -2.74980557e-03, 1.23501904e-02,
          -7.94843677e-03, -1.77249983e-02, -8.98262952e-03,
          1.56087417e-03, 1.02020297e-02 ]
      - [ -1.57656390e-02, 8.50123912e-03, 5.43234171e-04,
          4.41802060e-03, -1.23831886e-03, -1.71847437e-02,
          1.47417290e-02, 1.21247377e-02, -1.40997302e-02,
          -1.42766547e-03, 4.89412202e-03, 1.34029444e-02,
          7.07327994e-03, 2.76249344e-03, -8.58063716e-03,
          -3.43146385e-03, 4.53555910e-03, 1.61954276e-02 ]
      - [ 6.53287722e-03, -1.54090032e-03, -1.12172973e-03,
          1.21635629e-03, -2.09153462e-02, 8.09278432e-03,
          1.65668726e-02, 3.84562165e-02, -1.86838824e-02,
          -5.64999692e-03, -7.94313662e-03, -6.23798231e-03,
          -1.18899550e-02, -1.14415241e-02, -3.18612484e-03,
          -7.35732773e-03, 2.18461938e-02, 1.58444401e-02 ]
      - [ -5.06590353e-03, -7.24073267e-03, 2.14157104e-02,
          1.99104734e-02, 1.24494340e-02, 1.75881106e-02, 7.29978026e-04,
          1.26162758e-02, -2.90471390e-02, 6.55503757e-03,
          9.70234722e-03, -1.67371668e-02, 1.01451036e-02,
          -4.09150356e-03, -2.78911348e-02, -1.09302849e-02,
          2.14269175e-03, 1.33308107e-02 ]
      - [ 3.55130173e-02, -8.35796352e-03, -1.13718053e-02,
          1.31256459e-02, -7.42203370e-03, -7.51783047e-03,
          -2.70767026e-02, 3.09868865e-02, -4.62045427e-03,
          1.73216965e-02, 1.70841254e-02, -1.05003305e-02,
          -9.14413761e-03, -5.26960054e-03, 1.38916681e-02,
          -5.93130989e-03, -2.08439231e-02, 1.00707049e-02 ]
      - [ -3.08790375e-02, -2.47739498e-02, 1.81764401e-02,
          2.98957676e-02, -5.88457217e-04, -4.56034839e-02,
          -1.03562847e-02, -5.77808358e-03, 6.46763388e-03,
          -1.43899592e-02, -3.72109772e-03, 1.65176317e-02,
          4.12335359e-02, 1.54655371e-02, -2.32943632e-02,
          -7.00997980e-03, 2.69994326e-02, 1.02456436e-02 ]
      - [ -9.29318741e-03, 7.19836950e-02, 6.61833435e-02,
          -5.66057637e-02, -1.57570973e-01, 6.01199530e-02,
          3.32599655e-02, -9.39636081e-02, -1.74574450e-01,
          7.55352015e-03, 3.65214288e-01, 2.07167864e-02,
          -2.41429191e-02, -1.16200792e-02, -3.01553868e-02,
          7.26913940e-03, -2.18240991e-01, -6.20483123e-02 ]
      - [ -4.68115285e-02, -2.22114660e-02, 3.43968496e-02,
          -6.99226512e-03, 6.49183802e-03, -1.26228007e-02,
          -5.33376150e-02, -8.52525141e-03, 2.84546167e-02,
          8.90695862e-03, -7.22858012e-02, 1.77794229e-02,
          8.87902547e-03, -1.34266792e-02, -3.02648619e-02,
          -1.26467990e-02, 6.47828653e-02, -5.10050566e-04 ]
      - [ 9.89893079e-03, -1.24330306e-02, 3.60083915e-02,
          -1.05095701e-02, -1.44781573e-02, 5.42498101e-03,
          -1.37042953e-02, 9.08459425e-02, -2.28666272e-02,
          1.22452399e-03, -6.60374463e-02, -4.92037535e-02,
          -5.51803373e-02, -2.21850406e-02, 5.79522364e-02,
          -1.02968052e-01, 8.65276977e-02, 1.00277171e-01 ]
      - [ 5.01082558e-03, 1.34483771e-03, 3.16673331e-02, 6.57334365e-03,
          1.86778083e-02, -1.71225481e-02, -8.01355112e-03,
          2.25614407e-03, -4.71971966e-02, 3.63072031e-03,
          3.03895045e-02, 2.49715312e-03, 2.98967641e-02,
          -1.26412781e-02, -3.83222215e-02, -3.19327638e-02,
          3.08691850e-03, 1.97503529e-02 ]
      - [ 2.64708162e-03, -1.90787166e-02, -7.98898283e-03,
          1.62380338e-02, -2.14526951e-02, -1.37483645e-02,
          6.74981019e-03, 2.89404597e-02, -8.46299063e-03,
          -1.61020812e-02, 2.09271498e-02, 1.58197107e-03,
          3.01048364e-02, -3.77837643e-02, -1.58084054e-02,
          9.39041469e-03, 1.04109915e-02, 2.84609152e-03 ]
      - [ -1.49159171e-02, 1.02776494e-02, -4.68926458e-03,
          5.37950918e-03, 9.32145864e-03, 2.99415574e-03, 1.44110238e-02,
          2.12153960e-02, -3.32232974e-02, -2.21018270e-02,
          5.66555467e-03, 1.02298893e-02, 2.79406589e-02,
          -1.06214182e-02, -1.03268316e-02, 9.03563981e-04,
          -2.99836975e-03, 1.88480634e-02 ]
      - [ 9.91036836e-03, -7.77900778e-03, -3.85311060e-03,
          -4.66671726e-03, -4.33942815e-03, -1.67109608e-03,
          -4.27369773e-03, 3.19858305e-02, -1.01407515e-02,
          -1.07292086e-02, 3.46773164e-03, -1.66564174e-02,
          2.29531340e-02, -1.00660799e-02, -7.73480907e-03,
          -1.56759713e-02, 9.55650583e-03, 1.51908640e-02 ]
      - [ 5.05052274e-03, 2.15366278e-02, -1.52395526e-02,
          1.62026547e-02, -2.02300516e-03, -9.13503487e-03,
          9.36753862e-03, -2.13208720e-02, -7.56989582e-04,
          -2.29929946e-02, 2.35225633e-03, 2.01999415e-02,
          -2.32914726e-06, 3.68457078e-03, -5.82906883e-03,
          2.34297644e-02, 1.31243700e-02, 2.80791451e-03 ]
      - [ 9.39812791e-03, -3.52386106e-03, -3.13639976e-02,
          1.46533186e-02, -1.49901316e-03, -9.89376754e-03,
          -9.36565269e-03, 1.67223066e-02, 1.05805043e-02,
          2.18041916e-03, -5.37143927e-03, 1.49172004e-02,
          8.49797390e-03, -8.52453150e-03, 1.28289564e-02,
          6.92074699e-03, -1.06370561e-02, 4.71384311e-03 ]
      - [ -2.89559551e-03, -1.37982937e-02, -5.59605716e-04,
          1.83340292e-02, -5.06921764e-03, -6.74218312e-03,
          -1.04516922e-02, 2.47465950e-02, 4.38027177e-03,
          -4.25949809e-04, 2.70385249e-03, 8.74425936e-03,
          1.63188949e-02, -1.79294101e-03, -1.47545058e-03,
          2.72330144e-05, -7.20609119e-03, 5.30358171e-03 ]
      - [ -1.34940818e-02, 4.52887127e-03, -1.24615487e-02,
          3.22159636e-03, -9.54341423e-03, 1.90600640e-05,
          9.16094612e-03, 1.43193649e-02, -3.06711299e-03,
          -8.01549107e-03, 1.81953120e-03, 2.94867787e-03,
          1.15704695e-02, 4.24613198e-03, -1.32266595e-03,
          7.63176242e-03, 1.20203663e-03, 4.98164678e-03 ]
      - [ -5.76127879e-03, 1.55389681e-02, 5.06916530e-02,
          1.17610171e-02, 7.09449966e-03, 2.30357470e-03,
          -4.45381440e-02, -4.28028405e-02, 1.39761856e-02,
          1.35821020e-02, 7.97285140e-03, -2.37093307e-03,
          1.99875534e-02, -8.24541971e-03, -1.75150149e-02,
          6.95929397e-03, -1.12100756e-02, -1.20578464e-02 ]
      - [ 1.23359608e-02, 6.48572436e-03, 2.50697113e-03, 1.45034669e-02,
          2.31463704e-02, -2.43630111e-02, -2.59806514e-02,
          -8.93657375e-03, 9.48744174e-03, 3.65690291e-02,
          5.70703810e-03, 1.24158645e-02, -2.59852968e-02,
          -1.44239236e-02, 1.17241312e-02, 3.73064913e-02,
          -2.37951223e-02, -2.36747619e-02 ]
      - [ -3.30197513e-02, 7.71524617e-03, 2.50886604e-02,
          8.55507515e-03, 1.80815719e-02, -4.10968289e-02,
          -1.34520466e-02, -2.74614692e-02, 2.39564441e-02,
          -1.09490426e-02, -1.93376355e-02, 1.91745386e-02,
          4.25047092e-02, 9.39969439e-03, -4.31125164e-02,
          1.01750167e-02, 2.66791061e-02, 9.76248831e-03 ]
      - [ 7.37884687e-03, 1.25631481e-01, -1.95753220e-02,
          -6.30468950e-02, -2.83071697e-02, 1.46440521e-01,
          -5.71483113e-02, -2.10494511e-02, -2.14277804e-01,
          3.37755643e-02, 4.95573044e-01, 1.42247425e-02, 2.46059187e-02,
          -1.03014544e-01, 2.17813216e-02, 6.81382939e-02,
          -3.39525431e-01, -6.56215921e-02 ]
      - [ -1.19179338e-01, -5.92884198e-02, 1.72374010e-01,
          9.77802575e-02, 7.90070817e-02, -9.52316672e-02,
          -7.19479844e-02, 3.56756058e-03, 3.97989228e-02,
          -3.48897539e-02, -1.38450205e-01, -3.28260027e-02,
          5.74383885e-02, -1.13616381e-02, -8.03895891e-02,
          1.12481572e-01, 1.50348708e-01, 6.69542179e-02 ]
      - [ 5.21765044e-03, -8.01162887e-03, 2.50277817e-02,
          -9.00358427e-03, 3.44503112e-02, -1.99226779e-03,
          4.90222163e-02, 3.75294201e-02, -4.79757302e-02,
          2.23807842e-02, -6.28687441e-02, -9.52353776e-02,
          -6.06769174e-02, -7.60759711e-02, 9.20629501e-02,
          -3.59203815e-02, -5.81182633e-03, 8.55804011e-02 ]
      - [ -6.53568981e-03, 3.36090662e-02, 2.75652353e-02,
          -1.17240995e-02, 4.04339954e-02, -1.24416910e-02,
          -2.44847313e-02, -4.91071157e-02, -3.40311788e-02,
          4.45503276e-03, 2.22273320e-02, -5.36605855e-03,
          1.31756850e-02, 1.21697597e-02, -3.70683260e-02,
          -5.84646733e-03, 1.93747841e-02, 1.07935322e-02 ]
      - [ -2.18712315e-02, -3.76242050e-03, 2.43821722e-02,
          2.02484522e-02, -1.03984438e-02, -2.88524702e-02,
          -3.24102789e-02, -1.60241146e-02, 2.82285810e-02,
          -6.88459491e-03, 1.08902333e-02, -6.02206169e-03,
          2.13972107e-02, -2.55104322e-02, 1.66340778e-03,
          4.61385548e-02, -4.30288538e-03, -6.53170422e-03 ]
      - [ -2.12666113e-02, 1.36351483e-02, 1.50079885e-02,
          -1.66565366e-03, 3.49742696e-02, -2.80216299e-02,
          -5.00543835e-03, -3.18811946e-02, -4.02420992e-03,
          -3.79122794e-02, -2.03957967e-02, 2.07694620e-02,
          5.16088903e-02, 1.02019347e-02, -3.64231542e-02,
          7.30518019e-03, 6.93737157e-03, 6.45219628e-03 ]
      - [ -4.61906707e-03, 1.92872919e-02, -7.08394000e-05,
          -1.08679775e-02, 8.60722922e-03, -1.23354038e-02,
          -1.98371336e-02, -2.18266845e-02, 8.45007785e-03,
          -1.29734175e-02, -5.73927583e-03, -6.78162323e-03,
          1.96070131e-02, 5.35727385e-03, -6.49488345e-03,
          5.42695541e-03, -4.27436549e-03, 4.04676842e-03 ]
      - [ -2.56332732e-03, 1.87236406e-02, -5.04138414e-04,
          1.70174316e-02, 1.29671441e-02, -6.84119994e-03,
          -4.16275812e-03, -2.60473881e-02, -4.73709684e-03,
          -1.45128164e-02, -3.54656228e-03, 1.10504515e-02,
          8.45669676e-03, 1.32398224e-02, -3.49970944e-02,
          1.79790948e-02, 8.74871947e-03, -1.38855528e-03 ]
      - [ -7.69357849e-03, 1.13688838e-02, -3.65438825e-03,
          3.55486060e-03, 4.87104198e-03, -1.89025560e-03,
          -1.66131370e-02, -2.17158683e-02, 3.01630888e-02,
          -8.90418363e-04, -4.72715171e-03, 5.49721625e-03,
          3.79751716e-03, 1.06047327e-02, 1.95866320e-02, 1.84327587e-02,
          -2.13355087e-02, 7.77055649e-03 ]
      - [ -1.68295205e-02, -2.22817734e-02, -1.16486000e-02,
          3.65848430e-02, 2.30950322e-02, -2.68290527e-02,
          -1.01642273e-02, 4.72909492e-03, 1.68331508e-02,
          -2.99918558e-02, 1.19518815e-03, 2.11773403e-02,
          2.44651549e-02, 1.00959744e-03, -1.38981491e-02,
          -1.75719918e-03, 3.32676666e-03, 5.29309618e-04 ]
      - [ -9.56080481e-03, 1.21045168e-02, -4.17202339e-03,
          -5.43158676e-04, 1.02625340e-02, -1.92334130e-03,
          -1.18942047e-02, -2.67380243e-03, 7.27932726e-04,
          -4.99929010e-05, -5.59697812e-03, 1.51656067e-03,
          1.24586085e-02, 1.05506624e-04, 5.68171451e-03, 2.45345719e-02,
          -6.50677225e-03, 4.53547575e-03 ]
      - [ 2.80636903e-02, -1.70064326e-02, -4.01134193e-02,
          2.63547115e-02, -1.77447777e-02, -2.84406859e-02,
          -1.53220827e-02, 6.37644064e-03, 1.78971272e-02,
          1.04858857e-02, -1.12891076e-02, -4.44777496e-03,
          -2.38073543e-02, 1.43525274e-02, 2.24389359e-02,
          2.59808656e-02, -1.15898140e-02, -6.11401675e-03 ]
      - [ -3.43488827e-02, -2.60072353e-04, -2.11990736e-02,
          -1.42693147e-02, 7.81728711e-04, -3.30809057e-02,
          -9.57879983e-03, -2.36025918e-02, 5.20448685e-02,
          -2.49514282e-02, -1.53675703e-02, 2.49149445e-02,
          3.33969668e-02, 2.61861272e-02, -1.12772798e-02,
          1.14494227e-02, 1.65293571e-02, 3.09110316e-03 ]
      - [ -1.99084748e-02, 2.02041954e-01, -1.26119880e-02,
          -4.94773798e-02, -1.15281247e-01, 1.41194135e-01,
          1.00088902e-01, -1.05454400e-01, -1.92555249e-01,
          -6.92932233e-02, 4.03367102e-01, -1.96954422e-02,
          -3.76266241e-02, -6.12277985e-02, -1.71326101e-01,
          -6.86151758e-02, -1.79642871e-01, 2.88557578e-02 ]
      - [ -3.95111032e-02, -5.62209375e-02, 1.18617748e-03,
          8.55453834e-02, 1.51080247e-02, -2.79429331e-02,
          -7.33841956e-02, -1.58418622e-02, 1.04244307e-01,
          3.43730487e-02, -1.31074991e-02, -6.16070293e-02,
          1.19417563e-01, 4.45089750e-02, -1.33928791e-01,
          -8.39061337e-04, 5.72918765e-02, 3.92527431e-02 ]
      - [ 5.32022230e-02, -8.06220546e-02, -5.67468628e-02,
          1.34842768e-01, 3.63413729e-02, -3.78870554e-02,
          1.42043963e-01, 1.20538913e-01, -1.17892325e-01,
          4.95025329e-02, -9.50850248e-02, -1.80643946e-01,
          2.24836282e-02, -6.70160428e-02, 1.16317399e-01,
          -1.78156495e-01, 5.25524728e-02, 1.33646071e-01 ]
      - [ 2.69035269e-02, 3.75364684e-02, -1.23475697e-02,
          -5.29113747e-02, 2.88117994e-02, -8.03955644e-03,
          3.17002437e-03, -2.63428036e-02, -4.73711714e-02,
          5.57558285e-03, -3.70552321e-03, 1.44447181e-02,
          1.35045778e-02, 4.10432694e-03, -2.44799573e-02,
          -1.06488895e-02, 3.82138751e-02, 1.14393272e-02 ]
      - [ 1.83784301e-04, -1.22852356e-03, -2.49943342e-02,
          -1.10834204e-02, 1.46513125e-02, -3.83343478e-03,
          5.51371835e-03, 2.78199222e-02, -2.89279060e-03,
          -1.92361418e-02, -9.75992344e-03, -9.54446848e-03,
          1.48839904e-02, -2.20065769e-02, 1.90505050e-02,
          1.06736226e-02, 1.47899790e-02, 1.46141341e-02 ]
      - [ -2.35795807e-02, -6.69712899e-04, -4.76092361e-02,
          -1.43036107e-02, 2.53329296e-02, -8.39613192e-03,
          7.16676190e-03, 1.31837586e-02, -1.54214876e-03,
          -1.63569413e-02, -1.13482401e-02, 3.13766487e-02,
          3.39344181e-02, 1.54441670e-02, 4.41725180e-03, 3.38580133e-03,
          -2.63865199e-02, 5.47617441e-03 ]
      - [ -5.82044106e-03, -1.37426229e-02, -3.43618393e-02,
          -1.77004877e-02, 2.29407940e-02, -1.91718445e-03,
          5.82356658e-03, 3.16328071e-02, 1.01478584e-02, 5.82881272e-03,
          -8.67582485e-03, -2.10218388e-03, 4.11172546e-02,
          -7.54465768e-03, -2.10121013e-02, -2.22951919e-02,
          1.32730585e-02, 1.29981665e-02 ]
      - [ 1.84402373e-02, 1.78225301e-02, -4.89266403e-02,
          -6.56370632e-03, 2.14274935e-02, -3.27595789e-03,
          1.88607145e-02, -1.24823479e-02, -9.27671511e-03,
          -1.30744334e-02, -1.54892290e-02, 3.52884755e-02,
          1.34023465e-02, 2.20065396e-02, -6.01252727e-03,
          4.89126844e-03, 1.39464429e-02, -1.09554976e-02 ]
      - [ 5.72269876e-03, 4.34586266e-03, -5.21296188e-02,
          8.37302301e-03, 2.24029347e-02, -2.48800585e-04,
          -2.44981353e-03, -5.88840945e-03, 1.22123044e-02,
          3.62182246e-03, -1.53331393e-02, 6.22638222e-03,
          9.31314845e-03, 2.09925435e-02, 1.24869831e-02,
          -1.64251644e-02, -2.89548095e-03, 1.33240595e-02 ]
      - [ 1.05349990e-02, -2.29982776e-03, -3.06746438e-02,
          2.44699256e-03, 6.60610991e-03, -3.38020129e-03,
          -1.49491681e-02, 1.09611163e-02, 1.92520022e-03,
          4.42256732e-03, 9.55152884e-03, 8.54233280e-03, 2.00038888e-02,
          7.43881892e-03, 2.30625365e-02, 9.94420983e-03,
          -2.66281366e-02, -1.37409545e-03 ]
      - [ 4.21820814e-03, 6.69090683e-03, -2.17591096e-02,
          -3.51902447e-04, 8.68381467e-03, -6.86491490e-04,
          -4.59133554e-03, -1.98968730e-04, 2.20852112e-03,
          2.61361874e-03, -2.03291774e-02, -2.92138779e-04,
          1.61443055e-02, 1.12361051e-02, 5.00875199e-03, 9.90439672e-03,
          9.19912755e-03, 2.93098693e-03 ]
      - [ -6.23861887e-02, 7.44037610e-03, 5.74309453e-02,
          -2.02161539e-02, 1.63385947e-03, -4.98027168e-02,
          -2.26943698e-02, -1.67623218e-02, -1.15504460e-02,
          -6.81452779e-03, -2.65626367e-02, 3.92253920e-02,
          8.70902911e-02, -1.46215679e-02, -3.58679332e-02,
          1.18786907e-02, 4.50821072e-02, 1.86642464e-02 ]
      - [ 3.26694474e-02, 3.62728059e-01, 1.83796752e-02, 1.37850242e-02,
          -3.44902021e-03, 2.49621704e-01, 2.34430861e-02,
          -1.07811436e-01, -1.44745298e-02, -2.23754078e-01,
          3.52746516e-01, -6.39851093e-02, -1.23675674e-01,
          -1.01891331e-01, -1.86744273e-01, -1.06565081e-01,
          -1.95182830e-01, 1.75598450e-02 ]
      - [ -5.15891492e-01, -1.11326665e-01, 1.70208186e-01,
          3.66843082e-02, 9.94743481e-02, 1.47015572e-01,
          -2.14522421e-01, -1.27094552e-01, 3.24982107e-01,
          1.64310098e-01, -4.00982387e-02, -2.28106916e-01,
          2.43133500e-01, 2.71851216e-02, -1.27525255e-01,
          4.64355871e-02, 1.36317447e-01, 4.71065752e-02 ]
      - [ -2.23793369e-02, 8.87508392e-02, -4.26381305e-02,
          -2.15652809e-02, 3.86039205e-02, -5.66467568e-02,
          4.58980948e-02, 2.67550908e-02, -2.67930012e-02,
          1.15858480e-01, -5.63926697e-02, -2.08657622e-01,
          -5.50845917e-03, -6.27466291e-02, 1.23593345e-01,
          -2.67147481e-01, 1.69571768e-02, 2.85296053e-01 ]
      - [ -4.42447588e-02, 3.90583016e-02, 6.27458021e-02,
          -3.08478829e-02, 4.17026356e-02, -1.47894435e-02,
          1.66684035e-02, -1.91012258e-03, -6.37773052e-02,
          2.51612309e-02, 2.40717921e-02, -2.11186744e-02,
          3.64851914e-02, -1.64594036e-02, -4.84375507e-02,
          -6.00182861e-02, -8.54367332e-04, 5.52275106e-02 ]
      - [ -2.95836329e-02, 2.09619608e-02, 2.64942516e-02,
          -3.50089967e-02, -1.61272269e-02, -9.27832350e-03,
          -3.48322168e-02, -3.94378742e-03, -3.31762061e-03,
          5.83114894e-03, 1.66379232e-02, -5.56801679e-03,
          3.71273644e-02, -3.82903107e-02, 8.79788399e-03,
          1.17516201e-02, 2.10749023e-02, 2.63974536e-02 ]
      - [ -3.04375868e-02, 1.88366100e-02, 1.81510411e-02,
          -4.89060543e-02, 1.77849848e-02, 5.01344306e-03,
          1.37772819e-03, -5.24092326e-03, -4.21604440e-02,
          -1.00378199e-02, -2.57373997e-03, 1.31936586e-02,
          5.53027019e-02, -9.51167662e-03, -2.34841625e-03,
          -1.21686822e-02, 1.04797557e-02, 2.08350811e-02 ]
      - [ -2.66003441e-02, -8.99842300e-04, 1.73717737e-02,
          -1.15734851e-02, -5.45830699e-03, 2.44879536e-02,
          -1.15593495e-02, -1.24109108e-02, 1.12863462e-02,
          -2.23450512e-02, 5.06863883e-03, -1.65342465e-02,
          3.02974489e-02, 2.13540848e-02, -1.57897025e-02,
          -1.83427352e-02, 1.11832442e-02, 2.17946190e-02 ]
      - [ -1.82562564e-02, 2.97665484e-02, 8.61259934e-04,
          -1.09799849e-02, -1.19062373e-02, 6.95932237e-03,
          2.11831089e-02, -1.44460946e-02, -8.48300010e-03,
          -9.06164665e-03, -5.98526187e-03, 6.44874666e-03,
          1.47765130e-02, -4.27700020e-03, -2.79823001e-02,
          1.25802709e-02, 1.44439312e-02, 9.47834551e-03 ]
      - [ -1.06672710e-02, 7.05738412e-03, 6.91116136e-03,
          -1.94564871e-02, -7.82839488e-03, 1.69003364e-02,
          3.74462549e-03, -1.50897456e-02, 1.01561248e-02,
          2.74183205e-03, -1.07606957e-02, -2.09241863e-02,
          2.05325074e-02, -7.87457265e-03, 3.03516135e-04,
          -1.08507993e-02, 4.01894469e-03, 1.87335610e-02 ]
      - [ -2.74217054e-02, -2.77723046e-03, -2.94816191e-03,
          -1.36564448e-02, 1.12999221e-02, -4.33892757e-03,
          1.72169078e-02, 1.09830312e-02, -8.36604368e-03,
          -1.20007489e-02, 2.11372087e-03, -5.69643080e-03,
          1.76363357e-03, -1.15292780e-02, 1.83389224e-02,
          -1.12201832e-02, 4.52273438e-04, 3.01719122e-02 ]
      - [ -2.46924274e-02, 1.11044385e-02, 7.32425367e-03,
          -1.05950702e-02, -3.96911101e-03, 1.06517253e-02,
          -2.73109239e-04, -1.57527681e-02, -1.15744583e-02,
          7.25244964e-03, 2.03097481e-02, 4.16533061e-04, 1.21038435e-02,
          1.74547471e-02, 4.00994625e-03, -1.28860166e-03,
          -1.88631879e-03, 1.37121342e-02 ]
      - [ 2.60137934e-02, 3.06879222e-01, 2.55817976e-02, 1.80099800e-01,
          -5.47892042e-02, 1.97901830e-01, -3.26759787e-03,
          -6.54777437e-02, -2.00150330e-02, -6.91106841e-02,
          1.91503793e-01, -5.13086505e-02, -3.58984768e-02,
          -1.72592252e-01, -5.85813597e-02, -1.04547910e-01,
          -1.36366397e-01, -1.48091242e-01 ]
      - [ -3.09576660e-01, 1.29927948e-01, -1.46819189e-01,
          6.13349630e-03, -5.47991544e-02, -1.76810116e-01,
          -3.02651882e-01, 2.07701959e-02, 4.89851534e-02,
          3.48934457e-02, 9.74967703e-02, -1.58256039e-01,
          1.41864508e-01, 7.67754316e-02, 5.78695573e-02, 1.33768931e-01,
          4.13679451e-01, -8.69422406e-02 ]
      - [ -1.08165406e-01, -8.60068947e-02, -7.27051944e-02,
          2.59957579e-03, -1.18237026e-01, 1.87098805e-03,
          2.32925881e-02, 2.19598472e-01, -5.29527068e-02,
          -2.12503672e-02, -2.63891369e-01, -7.50447437e-02,
          1.31375805e-01, -1.80071026e-01, 2.83135384e-01,
          -8.65979865e-02, 2.43859887e-01, 2.61927247e-01 ]
      - [ -4.28348109e-02, 6.38307557e-02, 8.19028821e-03,
          -6.13268390e-02, 4.49983366e-02, 1.11502027e-02,
          5.88926785e-02, 3.43468599e-02, -2.59343311e-02,
          4.12502922e-02, 6.18130639e-02, -1.95604600e-02,
          -1.96091384e-02, -6.18421957e-02, 1.63719952e-02,
          -3.74567993e-02, -1.18826389e-01, 6.74546361e-02 ]
      - [ 2.22895499e-02, -2.02083420e-02, -1.33952992e-02,
          5.31438331e-04, -2.13412032e-03, 5.11015952e-02,
          2.52288510e-03, 7.87300915e-02, -1.25115318e-02,
          1.85944661e-02, 3.05018798e-02, -3.34000587e-02,
          -2.36763880e-02, -3.43746878e-02, 2.91339178e-02,
          -1.97320990e-02, -5.46912551e-02, 1.35903768e-02 ]
      - [ -4.83338488e-03, -6.92042056e-04, -3.05937156e-02,
          -4.50800499e-03, 3.06838471e-02, 2.51669474e-02,
          3.96054052e-02, 5.66824861e-02, -4.47751954e-03,
          2.43568346e-02, 4.96275052e-02, -2.93421913e-02,
          -8.13916139e-03, -3.20865400e-02, -3.30319395e-03,
          -3.11079305e-02, -7.37001821e-02, 3.68968248e-02 ]
      - [ 9.69060790e-03, 8.11737869e-03, -9.69445053e-03,
          -2.65319273e-02, -1.67025942e-02, 4.12643813e-02,
          1.14142513e-02, 4.46571223e-02, -9.03224386e-03,
          9.06326901e-03, 2.93060094e-02, -3.58440466e-02,
          -2.04540361e-02, -1.84207335e-02, 1.73223969e-02,
          -2.79870536e-03, -2.15249527e-02, 2.30180211e-02 ]
      - [ 1.17319673e-02, 2.49983054e-02, -3.05076223e-02,
          -2.12968420e-02, 1.61831416e-02, 3.84146683e-02,
          3.24201286e-02, -1.60712525e-02, -9.31096822e-03,
          -2.23240146e-04, 5.58475964e-03, 8.83903541e-03,
          -1.17151812e-02, 2.34180177e-03, -1.05463024e-02,
          2.53617167e-02, -1.66599173e-02, -2.64773909e-02 ]
      - [ 1.93995144e-02, 2.23691780e-02, -5.06708100e-02,
          -1.02356197e-02, 1.85654759e-02, 2.98455656e-02,
          2.59625856e-02, 2.23863171e-03, 1.33559899e-02, 9.53412708e-03,
          1.13096461e-02, -2.91393865e-02, -2.75768414e-02,
          -9.34413075e-03, 1.59769468e-02, 9.38657671e-04,
          -3.30213085e-02, 1.75704509e-02 ]
      - [ 6.54904637e-03, -3.83255980e-03, -2.11163815e-02,
          2.88095139e-03, 1.35458661e-02, 3.37819792e-02, 1.71210077e-02,
          3.52009870e-02, -3.74455522e-05, -4.68626525e-03,
          2.12212428e-02, -2.05726139e-02, -2.55562477e-02,
          -1.84247438e-02, 3.32379080e-02, 7.23496487e-04,
          -5.33727035e-02, 9.67442151e-03 ]
      - [ 1.92554910e-02, 1.30536882e-02, -1.35399988e-02,
          -2.91705248e-03, -2.91937264e-03, 2.77603436e-02,
          7.95554928e-03, 2.05699224e-02, -4.29758942e-03,
          6.13400340e-03, 1.30509147e-02, -1.75067578e-02,
          -1.76312495e-02, 1.37772222e-04, 1.03741251e-02,
          -2.65930197e-03, -1.59646347e-02, 1.03397565e-02 ]
      - [ 7.15137087e-03, -1.11243548e-02, 8.74056388e-03,
          -1.03297578e-02, 9.53516085e-03, -1.11243548e-02,
          7.94596784e-03, -8.74056388e-03, 9.53516085e-03,
          -8.74056388e-03, 8.74056388e-03, -9.53516085e-03,
          9.53516085e-03, -7.94596784e-03, 1.03297578e-02,
          -7.94596784e-03, 1.19189508e-02, -8.74056388e-03 ]
      - [ 7.49279559e-03, -8.64553358e-03, 6.91642659e-03,
          -8.06916412e-03, 6.34005759e-03, -8.06916412e-03,
          8.64553358e-03, -7.49279559e-03, 8.06916412e-03,
          -7.49279559e-03, 6.34005759e-03, -7.49279559e-03,
          9.79827065e-03, -8.06916412e-03, 9.79827065e-03,
          -8.06916412e-03, 9.22190212e-03, -6.91642659e-03 ]
      - [ 3.42099345e-03, -2.79762238e-01, 5.37645444e-03,
          -2.42708117e-01, 1.76615790e-01, -1.40198454e-01,
          -1.81363039e-02, 2.28089392e-01, -1.71585735e-02,
          -1.18796267e-02, -2.15821594e-01, 6.32063597e-02,
          -4.26267944e-02, 2.37719834e-01, 1.12428386e-02,
          -2.93718593e-04, 2.07950398e-01, 4.73685861e-02 ]
      - [ -5.27520664e-02, -3.45629245e-01, -7.18871737e-03,
          -1.20976292e-01, 3.56477536e-02, -2.44417727e-01,
          -5.71457781e-02, 2.12351367e-01, 3.14183384e-02,
          1.50777593e-01, -3.10762584e-01, 6.37483522e-02,
          2.65941843e-02, 6.80078492e-02, 1.15158305e-01, 1.08842425e-01,
          2.28616342e-01, 1.37857432e-02 ]
      - [ -1.61691397e-01, -2.24780515e-01, 2.33882684e-02,
          -1.91266373e-01, 6.67027906e-02, -1.78587571e-01,
          -3.84249203e-02, 1.54630244e-01, 1.25144735e-01,
          2.66236975e-03, -5.32036126e-01, -4.59204875e-02,
          1.58511087e-01, 1.85118154e-01, 1.84128538e-01, 7.84551874e-02,
          2.10115090e-01, 1.28602162e-01 ]
      - [ -1.17665000e-01, -2.01245010e-01, -3.74914892e-02,
          8.80232900e-02, 2.23234102e-01, -9.02090147e-02,
          4.77098003e-02, 1.13882206e-01, 1.53902903e-01, 8.82983357e-02,
          -4.95768070e-01, -5.82520477e-02, 6.76724836e-02,
          8.64153914e-03, -1.18395582e-01, 5.18325865e-02,
          2.50067830e-01, -7.01161521e-03 ]
      - [ -8.04418325e-02, -2.34306514e-01, -1.83224827e-02,
          7.55074173e-02, 1.24812126e-01, -6.45186007e-02,
          7.86323398e-02, 1.81459248e-01, 1.76962256e-01, 8.76698270e-03,
          -5.08344948e-01, -7.71912336e-02, 5.31222075e-02,
          1.50215290e-02, 1.65194757e-02, 8.31515640e-02, 2.61605918e-01,
          -7.04062209e-02 ]
      - [ -1.22621201e-01, -1.53967455e-01, 4.04881081e-03,
          8.82576331e-02, 1.73146695e-01, -8.51325765e-02,
          -1.66065916e-02, 7.30978325e-02, 2.41579294e-01,
          -2.98094866e-03, -5.20982385e-01, -8.61091167e-02,
          -2.23810356e-02, 4.74082604e-02, 6.58942387e-02,
          2.00819131e-02, 9.00493711e-02, -4.11452167e-03 ]
      - [ -2.05951482e-02, -1.17054306e-01, -8.72372091e-02,
          5.94595037e-02, 1.59142435e-01, -6.05333261e-02,
          2.09526978e-02, 1.08540520e-01, 1.14687480e-01,
          -2.75705680e-02, -2.88124919e-01, -3.35452594e-02,
          4.47612219e-02, 4.97162761e-03, -5.28723896e-02,
          -3.58510315e-02, 1.16974950e-01, 2.96583418e-02 ]
      - [ -6.82280511e-02, -5.63479662e-02, -4.30364907e-02,
          2.66681928e-02, 6.91700950e-02, -2.04354711e-02,
          4.11477238e-02, 5.80285937e-02, 1.03996858e-01, 2.21169647e-02,
          -2.02643916e-01, 6.01906627e-02, 3.59319784e-02,
          6.34278581e-02, -8.11597798e-03, 4.04598825e-02,
          8.94613340e-02, -2.13406235e-02 ]
      - [ 6.01503775e-02, -1.50375944e-02, 1.50375944e-02,
          -1.50375944e-02, -1.50375944e-02, 0., 7.51879662e-02,
          -3.00751887e-02, 3.00751887e-02, -3.00751887e-02, 0.,
          -1.50375944e-02, 7.51879662e-02, -6.01503775e-02,
          6.01503775e-02, -6.01503775e-02, 1.50375944e-02,
          -1.50375944e-02 ]
      - [ 2.91760296e-01, 9.89151821e-02, 3.48223895e-02, 5.54447668e-03,
          -4.96069118e-02, 9.72372741e-02, 1.99589029e-01,
          -1.43128103e-02, -5.92826828e-02, -9.55615044e-02,
          -1.37047902e-01, 3.42524126e-02, -2.95418240e-02,
          -8.02995265e-02, -5.88596314e-02, -1.57680586e-01,
          -3.48982960e-01, -4.82683041e-04 ]
      - [ 3.13387990e-01, 8.23174492e-02, -2.12883726e-01,
          -6.19646534e-02, -2.31843874e-01, 1.53186843e-01,
          3.21545362e-01, 7.64158294e-02, 1.59049109e-01,
          -2.21730590e-01, 1.29368931e-01, -9.75729339e-03,
          -2.96139896e-01, 9.33355391e-02, 4.03755233e-02,
          -2.02960476e-01, -2.19184279e-01, 4.86754514e-02 ]
      - [ 1.46157950e-01, 1.31030262e-01, -1.55064255e-01,
          -1.53938681e-01, 3.84477489e-02, 8.17542821e-02,
          1.57337546e-01, -9.51392110e-04, -1.53747320e-01,
          -4.87932973e-02, 7.13993758e-02, -1.63868368e-02,
          -1.26928732e-01, 4.95945327e-02, 1.32660925e-01,
          -7.23269582e-02, -1.24180168e-01, 2.94990744e-02 ]
      - [ 1.72142670e-01, 6.88431561e-02, -1.50370881e-01,
          -8.96948650e-02, -3.18884812e-02, 2.78507657e-02,
          1.45984784e-01, 3.70201953e-02, -3.94042507e-02,
          -3.39766815e-02, 1.29789054e-01, -5.39322346e-02,
          -1.31352440e-01, 9.30575933e-03, 8.05458575e-02,
          -5.61435781e-02, -1.55832604e-01, 4.75959517e-02 ]
      - [ 1.00631788e-01, 2.81639304e-02, -9.63874087e-02,
          -3.72041832e-03, 1.29486937e-02, -1.80755723e-02,
          1.80536211e-02, 2.11879089e-02, -3.30659859e-02,
          -2.08778400e-02, 9.16387364e-02, 3.36022638e-02,
          -1.61326230e-02, -1.96583495e-02, 8.06995109e-02,
          -2.70863920e-02, -1.59955129e-01, 1.14660598e-02 ]
      - [ 6.19005449e-02, 4.45203856e-02, -3.35103609e-02,
          -1.19888792e-02, -1.21611552e-02, 3.22731188e-03,
          5.52316234e-02, 2.59746518e-02, -9.62174386e-02,
          -2.50970498e-02, 9.02798846e-02, 3.61020677e-02,
          -3.16220671e-02, 2.99965981e-02, 6.03282563e-02,
          5.66407386e-03, -1.06011361e-01, -2.33211964e-02 ]
      - [ 6.74189208e-03, 3.61492671e-02, -3.33704874e-02,
          1.62942484e-02, -5.62524144e-03, 1.36535708e-02,
          3.45811658e-02, 2.85968352e-02, -1.70462448e-02,
          2.23734379e-02, 3.35395150e-02, -3.55047430e-03,
          -3.74708958e-02, 8.14109575e-03, 4.95185405e-02,
          1.05057117e-02, -6.39498457e-02, -2.50386614e-02 ]
      - [ 1.86538231e-02, -1.97874219e-03, 1.47414720e-02,
          -1.51697537e-02, 6.15815353e-03, -4.01866011e-04,
          4.55537774e-02, 2.39099003e-02, -7.10909255e-03,
          4.98617673e-03, 1.12476097e-02, 1.00227511e-02,
          -1.94298066e-02, 2.44658836e-03, 2.53035892e-02,
          3.42158112e-03, -3.48484293e-02, 2.91636284e-03 ]
      - [ -2.14475114e-02, -5.55197883e-04, 1.50354907e-01,
          -1.24107320e-02, 1.89063534e-01, -2.69784667e-02,
          -9.27714258e-02, -5.84998876e-02, 3.00226286e-02,
          -1.04015030e-01, 5.48761934e-02, -1.06871411e-01,
          -2.20892400e-01, 9.83892381e-02, -2.41858661e-01,
          8.38215053e-02, -2.23147675e-01, -1.00217149e-01 ]
      - [ -1.54625461e-01, 2.37360876e-02, 2.03932542e-02,
          -6.81413189e-02, 1.25254467e-01, 2.87431002e-01,
          -4.52189334e-02, -3.27824593e-01, 1.40178993e-01,
          -2.67990500e-01, 3.83117884e-01, 6.89783553e-03,
          8.22750255e-02, 1.98134750e-01, -3.07225496e-01,
          4.00997102e-01, -3.47769797e-01, -4.15538400e-01 ]
      - [ -9.25772861e-02, -3.50313224e-02, -8.46835785e-03,
          7.99884945e-02, 1.22348957e-01, 9.43967178e-02,
          -1.49589255e-01, -5.50808944e-02, 1.67068332e-01,
          -1.19959883e-01, 8.13419893e-02, 4.71069701e-02,
          2.87755698e-01, 7.38265142e-02, -2.21543655e-01,
          1.12983100e-01, -1.76069453e-01, -1.48252904e-01 ]
      - [ -4.78399694e-02, -1.89351831e-02, 4.51368988e-02,
          4.13238369e-02, -1.81056876e-02, -4.08589356e-02,
          4.61532325e-02, -1.10925265e-01, 1.29404694e-01,
          -7.50689059e-02, 3.99697088e-02, 1.16253421e-01,
          -1.32659655e-02, 9.94796008e-02, -8.74429867e-02,
          7.97671005e-02, -1.01015434e-01, -1.76627383e-01 ]
      - [ 9.99302138e-03, -3.02427299e-02, -1.91054610e-03,
          3.21816951e-02, -1.18479608e-02, 1.11367786e-03,
          -2.88172322e-03, -1.32585922e-02, 4.62578423e-02,
          5.32903522e-03, -1.23775695e-02, 3.12312655e-02,
          3.00311372e-02, -2.12654937e-02, -5.14769144e-02,
          2.13739872e-02, -2.88843308e-02, -1.25123821e-02 ]
      - [ 1.97788961e-02, 7.12650246e-04, -6.98616309e-03,
          3.81359644e-02, 3.81030850e-02, 1.89590314e-03,
          -3.81044149e-02, 7.98835978e-03, -3.94289522e-03,
          -5.97064495e-02, 4.50176001e-02, 6.78626001e-02,
          4.01846394e-02, 4.12245877e-02, -6.52254224e-02,
          6.77847117e-02, -4.32532132e-02, -5.01548313e-02 ]
      - [ 5.31281205e-03, 4.81012650e-03, -7.79256970e-03,
          2.27230298e-03, 2.63282955e-02, -8.33172072e-03,
          -3.99438180e-02, 3.80058982e-03, 4.96742986e-02,
          -5.35655729e-02, -1.28594199e-02, 4.25084457e-02,
          2.15468928e-02, -5.85717196e-03, -4.59922217e-02,
          2.86575295e-02, -3.63393389e-02, -5.63395172e-02 ]
      - [ -6.10875152e-03, 1.35113066e-02, 2.49343313e-04,
          -1.34022348e-03, 1.33944796e-02, 1.46280043e-03,
          3.24179023e-03, -1.06814150e-02, 1.09488564e-02,
          -7.15922704e-03, 1.35221416e-02, -1.50572062e-02,
          1.29733207e-02, -2.44282633e-02, -3.64756119e-03,
          -2.58380510e-02, 5.87948877e-03, -3.82765979e-02 ]
      - [ 5.09406161e-03, -2.04996895e-02, 2.05820356e-03,
          -4.51623602e-03, -4.71897498e-02, 1.18125537e-02,
          2.41687931e-02, 5.83731011e-02, 1.10906763e-02,
          -1.99504849e-02, -3.01925298e-02, 2.21124198e-02,
          3.58308316e-03, -3.35256048e-02, 2.34366562e-02,
          5.65995872e-02, 9.30341892e-03, -2.63235532e-02 ]
      - [ -4.91351262e-03, -8.89536925e-03, -3.51720564e-02,
          -3.83456191e-03, -1.08079873e-02, 1.09369084e-02,
          -3.05258809e-03, 3.09558511e-02, 2.86634769e-02,
          -3.87783162e-02, -3.36761288e-02, 1.94555800e-02,
          1.96425114e-02, 2.12937426e-02, 1.86341684e-02, 3.87743562e-02,
          -7.03040976e-03, -2.95109469e-02 ]
      - [ -6.31276518e-03, -2.11719554e-02, -3.31981368e-02,
          8.77178367e-03, 6.16079895e-03, 2.14744881e-02, 5.82091603e-03,
          5.05027995e-02, 1.36448937e-02, -3.59417126e-02,
          -3.16257887e-02, 4.40243678e-03, 4.17828411e-02,
          1.31327799e-02, -9.07418132e-03, 3.33349258e-02,
          -1.50334984e-02, -1.13723166e-02 ]
      - [ 1.00941900e-02, 2.64085215e-02, -1.67641677e-02,
          -4.10042587e-04, -2.76450422e-02, -6.50818693e-03,
          2.10653357e-02, -2.16889475e-02, -3.08586028e-03,
          -2.86434833e-02, -2.23073177e-03, 3.72531004e-02,
          -9.43885243e-04, 1.22811934e-02, 3.49495560e-03,
          2.43163090e-02, 1.78314466e-02, -7.13479938e-03 ]
      - [ 7.14609865e-03, -8.73294659e-03, -2.27503534e-02,
          3.98463104e-03, -2.67040450e-03, 9.86705720e-03,
          -6.31905394e-03, 2.06973031e-02, 2.89049689e-02,
          2.64541595e-03, -3.98845710e-02, 6.11790828e-03,
          1.68727264e-02, -1.14659537e-02, 3.46643254e-02,
          1.79462973e-02, -1.04346694e-02, -6.05595857e-03 ]
      - [ 1.05408775e-02, -1.41959647e-02, -2.83770058e-02,
          1.04861995e-02, 1.28273666e-03, 6.71558082e-03,
          -7.23447884e-03, 1.23099824e-02, 1.18529443e-02,
          -6.61400100e-03, -2.90399436e-02, -1.90837309e-04,
          6.30457280e-03, 8.56018811e-03, 2.84601636e-02, 2.37611905e-02,
          -6.76324125e-03, -1.20945228e-02 ]
      - [ 2.44670408e-03, 6.34687603e-04, -1.88543070e-02,
          8.05389602e-03, -6.56936830e-03, 6.74715964e-03,
          -1.41190644e-03, -6.62338641e-03, 1.14396855e-03,
          -1.29512530e-02, -1.86799038e-02, 9.05754231e-03,
          1.04436371e-02, 1.41110318e-02, 1.64883956e-02, 2.38119569e-02,
          4.75027598e-03, -1.23708062e-02 ]
      - [ 2.42012367e-02, 5.46576874e-03, -2.77248640e-02,
          -1.05204657e-02, 2.75411587e-02, -1.19400444e-02,
          7.20586162e-03, -3.85686718e-02, -9.93238762e-03,
          1.59914233e-02, 1.20744138e-04, 3.29980277e-03, 1.18095903e-02,
          1.44579671e-02, -1.93763170e-02, -1.27999280e-02,
          4.37505223e-04, -5.01573039e-03 ]
      - [ -2.24321596e-02, 8.43062904e-03, 9.90830455e-03,
          -4.17674258e-02, 2.87152291e-03, 1.78858582e-02,
          5.97143546e-03, 2.21487391e-03, 1.43839363e-02,
          -5.84368594e-03, 8.84038769e-03, 8.79999250e-03,
          2.79293675e-02, 1.85314454e-02, -1.68015491e-02,
          -1.64438095e-02, -5.43744769e-03, -1.84959341e-02 ]
      - [ 1.66279674e-02, 1.21460259e-02, -2.38254368e-02,
          8.53689760e-03, 2.01695990e-02, 3.14042252e-03, 8.96773490e-05,
          -2.22082976e-02, 3.57812876e-03, -8.76041781e-03,
          -8.79014470e-03, 3.25391963e-02, 1.70116611e-02,
          3.51742841e-02, -3.68846841e-02, -1.29320426e-02,
          -2.36766739e-03, -2.00123545e-02 ]
      - [ 1.84810476e-03, -1.48457522e-03, -3.84561531e-02,
          2.62809149e-03, 3.02394782e-03, 3.50937131e-03,
          -8.38871393e-03, -1.14939110e-02, 1.84682142e-02,
          2.82088462e-02, -1.26122627e-02, 2.63223564e-03,
          2.28528008e-02, 2.03288030e-02, 4.77497373e-03,
          -2.63723694e-02, -9.14430432e-03, 7.64653599e-03 ]
      - [ -2.02499018e-06, -2.67687789e-03, -4.14423272e-02,
          6.42763916e-03, 2.88291946e-02, 1.76203763e-03,
          -9.00663529e-03, -1.90835017e-05, 8.16826802e-03,
          2.21934114e-02, -1.53081100e-02, 3.56524414e-03,
          2.49724947e-02, 8.60858709e-03, 1.06803607e-02,
          -6.76664105e-03, -1.91157833e-02, 7.54507259e-04 ]
      - [ -3.53735127e-03, 4.45261505e-03, -1.14290360e-02,
          -1.75502477e-03, -3.16715147e-03, 7.84321129e-03,
          5.69477677e-03, -3.20547633e-03, 8.45196750e-03,
          5.73032908e-03, -1.50922295e-02, 9.74234100e-03,
          7.58596370e-03, 2.08243262e-02, 1.17481602e-02,
          -2.39138748e-03, -1.03951115e-02, -9.89230629e-03 ]
      - [ -1.18315089e-02, -6.54278975e-03, 2.48251241e-02,
          -1.65100284e-02, -2.75486633e-02, 1.40371891e-02,
          1.52024860e-02, 1.47679541e-02, 1.74365751e-02,
          -1.82419010e-02, 8.87215231e-03, -3.01217940e-03,
          1.81199294e-02, 1.23889009e-02, -1.39209377e-02,
          4.76795994e-03, 3.58644780e-03, -2.17209533e-02 ]
      - [ 7.70327752e-05, 1.66300721e-02, 3.01509374e-03, 8.17618892e-03,
          5.60470158e-03, 1.68311466e-02, 1.17010223e-02,
          -2.57953908e-02, 7.53255747e-03, -1.81336347e-02,
          -1.84403174e-02, 2.23960783e-02, -7.33656716e-03,
          1.13312071e-02, -3.19666080e-02, 1.97252855e-02,
          1.54602965e-02, -1.91632453e-02 ]
      - [ -7.23653613e-03, 2.08552950e-03, -1.43005559e-02,
          1.58364698e-03, 1.96008338e-03, 1.98552869e-02,
          -1.44094266e-02, -7.05499062e-03, 4.52894121e-02,
          8.46481533e-04, -1.59267001e-02, -1.29263494e-02,
          -1.37820551e-02, 1.12039158e-02, 3.87591566e-03,
          -3.29973828e-03, 2.54937680e-03, 1.75064337e-02 ]
      - [ -1.05712479e-02, -1.62103344e-02, -1.05106912e-03,
          1.07417591e-02, 8.99259001e-03, 1.67579465e-02,
          -2.78589036e-03, 2.03938875e-02, -4.15552175e-04,
          -3.94239742e-03, -7.46506173e-03, -4.15442279e-03,
          -1.28226550e-02, 2.89732800e-03, 1.33303059e-02,
          -6.86117169e-03, 7.26213446e-04, 1.54616898e-02 ]
      - [ -2.04688637e-03, 8.94216006e-04, -1.02912784e-02,
          -3.79024248e-04, -5.92450146e-03, 1.37924077e-02,
          8.70254263e-03, 6.00790512e-03, 4.53785202e-03,
          -7.21198693e-03, -6.49248669e-03, 1.02944858e-03,
          -3.38243350e-04, 2.35275421e-02, 1.25584649e-02,
          3.51608032e-03, -4.56807669e-03, -6.63629733e-03 ]
      - [ -6.61224267e-03, 2.33829878e-02, 1.04134986e-02,
          5.78921335e-03, 5.29790814e-05, -3.57613550e-03,
          1.73811708e-02, -3.18594761e-02, -1.15966145e-02,
          -1.19408155e-02, -5.60271135e-03, 2.92416047e-02,
          -2.98112947e-02, 6.16737548e-03, 3.19881481e-03,
          2.07652021e-02, 1.77283101e-02, -9.30878706e-03 ]
      - [ 9.34375077e-03, 9.70510021e-03, -2.55962554e-02,
          5.80156397e-04, 1.33514442e-02, 7.75370165e-04,
          -1.17399553e-02, -1.68747250e-02, -8.69126990e-03,
          1.89199354e-02, 5.45570999e-03, -1.42639829e-03,
          -6.08167658e-03, -5.09965606e-03, 2.34977566e-02,
          2.49844557e-03, -4.93493536e-03, 1.92032214e-02 ]
      - [ -1.97183620e-02, -1.63263381e-02, -2.54945774e-02,
          1.15225157e-02, 3.11089177e-02, 2.06645392e-03, 6.56127697e-03,
          1.24230292e-02, -1.33474013e-02, 2.61469814e-03,
          -7.26118125e-03, -9.85560473e-04, -2.67631770e-03,
          -8.65636580e-03, 1.57467686e-02, 8.28995090e-03,
          -7.53937149e-03, 8.73986445e-03 ]
      - [ 1.04239453e-02, 6.87917648e-03, -1.07180299e-02,
          1.22864842e-02, 1.32030225e-03, -1.80853892e-03,
          1.83641660e-05, -1.52455345e-02, -1.26352450e-02,
          4.10093972e-03, -5.39659895e-03, -3.09249794e-04,
          -1.37970701e-03, 4.05026367e-03, 1.51825594e-02,
          1.68545581e-02, 1.18023215e-03, 3.82328592e-03 ]
      - [ -1.43681420e-03, 1.06831884e-03, 5.93157066e-03,
          -9.00560245e-03, -2.64921058e-02, -4.15314175e-03,
          6.69405051e-03, -4.28451371e-04, 4.34320373e-03,
          5.26178069e-03, 1.95862912e-02, -1.26961032e-02,
          -4.17565834e-03, -1.44370412e-02, 1.02725457e-02,
          -1.28115164e-02, 4.17059578e-04, 2.24149767e-02 ]
      - [ -3.10179486e-04, -8.67722463e-03, 2.22552079e-03,
          -6.55153207e-03, -1.21736284e-02, 3.36212106e-03,
          7.85671547e-03, 1.22811636e-02, 1.37272221e-03, 7.13805063e-03,
          1.64660979e-02, -2.76788231e-02, -1.18158013e-03,
          -9.41284653e-03, 7.78550049e-03, -1.32372249e-02,
          -8.51413701e-03, 1.63719263e-02 ]
      - [ -2.93645961e-03, -1.39642146e-03, 3.10430746e-03,
          -3.06160352e-03, -1.03519736e-02, 1.09127518e-02,
          3.44334985e-03, 1.60063282e-02, -1.27647724e-02,
          5.08658448e-03, -3.91935790e-03, -1.10827629e-02,
          -3.12887412e-03, 5.82281500e-04, 2.16930360e-02,
          -1.07514759e-04, -1.20805325e-02, 9.14237555e-03 ]
      - [ -1.24903014e-02, -1.39215123e-02, 6.54000498e-04,
          -3.66252824e-03, 1.68600585e-02, 1.18777811e-04,
          2.99281254e-03, 1.11160539e-02, 2.96017184e-04,
          -3.28711816e-03, -2.95675406e-03, -1.69541058e-03,
          7.59523222e-03, -7.93045387e-03, 7.75476918e-03,
          6.83690887e-03, -1.74914091e-03, -9.00835823e-03 ]
      - [ -3.05194384e-03, 1.62526092e-03, 3.41416826e-03,
          3.85346590e-03, -1.13387713e-02, 7.57175777e-03,
          4.47502313e-03, -6.44276757e-03, -1.52397305e-02,
          2.92837038e-03, -1.31580122e-02, -8.28754157e-03,
          6.58223638e-03, 1.53838824e-02, 4.42251703e-03, 6.45124493e-03,
          1.42980076e-03, -4.30895993e-03 ]
      - [ 6.86720433e-03, 1.81933790e-02, 1.83757662e-03,
          -2.69269617e-03, -2.38608457e-02, 5.05692733e-04,
          1.24743786e-02, -9.68323275e-03, -9.59299877e-03,
          -2.05250410e-03, 3.34152393e-03, 1.70907914e-03,
          -5.74256713e-03, 9.82620567e-03, 4.67986974e-04,
          9.79820359e-03, -2.79034046e-03, -3.36563215e-03 ]
   uncompressed_sv_total: 2370
   uncompressed_support_vectors:
      - [ 129., 122., 129., 122., 128., 122., 129., 122., 129., 122.,
          128., 122., 129., 122., 129., 122., 128., 122. ]
      - [ 118., 121., 118., 121., 118., 121., 119., 121., 119., 121.,
          118., 121., 119., 121., 119., 121., 119., 121. ]
      - [ 119., 122., 119., 122., 118., 122., 119., 122., 119., 122.,
          118., 122., 119., 122., 118., 122., 118., 122. ]
      - [ 122., 140., 121., 140., 121., 140., 120., 141., 120., 141.,
          119., 141., 119., 143., 119., 143., 119., 143. ]
      - [ 119., 123., 118., 123., 118., 122., 119., 123., 119., 123.,
          118., 122., 119., 123., 119., 123., 118., 122. ]
      - [ 117., 122., 118., 124., 118., 129., 117., 122., 118., 125.,
          119., 131., 118., 124., 118., 128., 119., 133. ]
      - [ 97., 146., 91., 146., 97., 147., 102., 140., 96., 143., 98.,
          146., 104., 133., 106., 135., 99., 141. ]
      - [ 102., 140., 96., 143., 98., 146., 104., 133., 106., 135., 99.,
          141., 103., 132., 111., 132., 99., 140. ]
      - [ 97., 140., 97., 144., 104., 133., 97., 140., 97., 144., 103.,
          132., 97., 140., 97., 146., 100., 137. ]
      - [ 106., 135., 99., 141., 97., 146., 111., 132., 99., 140., 98.,
          146., 101., 139., 99., 144., 99., 150. ]
      - [ 97., 144., 103., 132., 111., 132., 97., 146., 100., 137., 101.,
          139., 97., 146., 97., 143., 92., 146. ]
      - [ 127., 135., 121., 137., 121., 138., 129., 132., 127., 132.,
          127., 133., 131., 127., 134., 127., 133., 128. ]
      - [ 130., 128., 130., 129., 130., 129., 132., 124., 132., 124.,
          131., 125., 134., 123., 134., 123., 134., 123. ]
      - [ 129., 132., 127., 132., 127., 133., 131., 127., 134., 127.,
          133., 128., 133., 124., 136., 124., 135., 124. ]
      - [ 127., 132., 127., 133., 126., 134., 134., 127., 133., 128.,
          131., 128., 136., 124., 135., 124., 133., 125. ]
      - [ 127., 133., 126., 134., 126., 135., 133., 128., 131., 128.,
          130., 129., 135., 124., 133., 125., 131., 127. ]
      - [ 130., 128., 130., 128., 131., 128., 131., 127., 132., 125.,
          132., 125., 132., 125., 133., 124., 133., 124. ]
      - [ 132., 124., 132., 124., 132., 124., 134., 123., 134., 123.,
          134., 123., 134., 123., 134., 123., 134., 123. ]
      - [ 131., 127., 131., 127., 134., 127., 133., 124., 133., 124.,
          136., 124., 135., 124., 135., 124., 133., 124. ]
      - [ 131., 127., 134., 127., 133., 128., 133., 124., 136., 124.,
          135., 124., 135., 124., 133., 124., 132., 124. ]
      - [ 134., 127., 133., 128., 131., 128., 136., 124., 135., 124.,
          133., 125., 133., 124., 132., 124., 130., 125. ]
      - [ 133., 124., 133., 124., 136., 124., 135., 124., 135., 124.,
          133., 124., 134., 124., 134., 124., 130., 125. ]
      - [ 133., 124., 136., 124., 135., 124., 135., 124., 133., 124.,
          132., 124., 134., 124., 130., 125., 130., 125. ]
      - [ 130., 129., 130., 129., 127., 133., 132., 127., 133., 128.,
          130., 129., 132., 127., 134., 127., 130., 125. ]
      - [ 131., 125., 132., 125., 133., 124., 131., 127., 132., 125.,
          132., 125., 130., 127., 131., 127., 131., 125. ]
      - [ 128., 127., 128., 127., 127., 128., 126., 129., 126., 129.,
          124., 132., 121., 135., 121., 135., 120., 134. ]
      - [ 126., 132., 126., 132., 126., 131., 123., 138., 123., 137.,
          122., 137., 120., 143., 119., 141., 119., 140. ]
      - [ 111., 146., 112., 144., 114., 143., 111., 146., 112., 144.,
          114., 143., 111., 146., 113., 144., 114., 141. ]
      - [ 123., 137., 122., 137., 122., 135., 119., 141., 119., 140.,
          119., 140., 112., 153., 112., 152., 111., 150. ]
      - [ 130., 128., 130., 127., 130., 125., 130., 129., 130., 128.,
          130., 125., 129., 129., 129., 128., 129., 127. ]
      - [ 128., 132., 127., 133., 127., 134., 126., 131., 127., 132.,
          128., 132., 126., 131., 125., 131., 129., 128. ]
      - [ 127., 133., 126., 135., 125., 139., 123., 140., 122., 141.,
          120., 146., 117., 149., 116., 150., 114., 152. ]
      - [ 126., 137., 123., 139., 123., 140., 122., 143., 117., 149.,
          117., 149., 117., 150., 111., 155., 111., 155. ]
      - [ 123., 138., 124., 139., 124., 139., 120., 139., 122., 140.,
          124., 140., 119., 143., 119., 143., 119., 141. ]
      - [ 119., 124., 122., 127., 124., 129., 119., 123., 121., 125.,
          123., 129., 118., 122., 119., 125., 121., 129. ]
      - [ 126., 128., 123., 135., 122., 137., 125., 132., 121., 139.,
          120., 140., 122., 137., 119., 143., 119., 144. ]
      - [ 129., 123., 130., 122., 129., 122., 128., 125., 128., 124.,
          128., 124., 126., 131., 126., 129., 126., 129. ]
      - [ 114., 137., 119., 135., 125., 132., 110., 141., 114., 139.,
          121., 135., 106., 146., 111., 144., 117., 138. ]
      - [ 124., 144., 124., 144., 123., 144., 121., 147., 120., 147.,
          120., 147., 118., 152., 117., 152., 117., 150. ]
      - [ 115., 158., 115., 159., 114., 161., 120., 153., 120., 153.,
          120., 158., 123., 152., 123., 152., 123., 153. ]
      - [ 113., 147., 114., 147., 115., 147., 111., 152., 111., 150.,
          111., 150., 109., 153., 109., 153., 110., 153. ]
      - [ 118., 152., 117., 152., 117., 150., 115., 153., 115., 153.,
          114., 153., 109., 147., 109., 146., 109., 146. ]
      - [ 113., 162., 112., 165., 110., 165., 119., 162., 118., 164.,
          111., 167., 121., 155., 121., 156., 118., 161. ]
      - [ 120., 159., 119., 162., 118., 164., 121., 155., 121., 155.,
          121., 156., 122., 155., 121., 155., 121., 155. ]
      - [ 118., 164., 111., 167., 108., 166., 121., 156., 118., 161.,
          116., 164., 121., 155., 119., 160., 117., 162. ]
      - [ 111., 167., 108., 166., 105., 164., 118., 161., 116., 164.,
          111., 166., 119., 160., 117., 162., 112., 165. ]
      - [ 116., 164., 111., 166., 107., 167., 117., 162., 112., 165.,
          108., 166., 118., 161., 114., 164., 110., 166. ]
      - [ 104., 153., 104., 153., 104., 153., 105., 156., 104., 156.,
          104., 155., 105., 158., 105., 158., 104., 156. ]
      - [ 106., 164., 103., 159., 103., 155., 106., 162., 103., 159.,
          103., 155., 106., 162., 103., 159., 103., 155. ]
      - [ 106., 152., 111., 143., 119., 135., 105., 152., 111., 143.,
          118., 135., 107., 153., 111., 144., 114., 137. ]
      - [ 103., 167., 102., 165., 103., 162., 103., 167., 102., 165.,
          103., 162., 104., 167., 103., 166., 103., 164. ]
      - [ 117., 123., 118., 127., 119., 131., 117., 125., 118., 129.,
          119., 132., 117., 127., 118., 131., 118., 134. ]
      - [ 106., 170., 103., 167., 103., 165., 106., 171., 103., 168.,
          103., 165., 107., 171., 104., 168., 103., 165. ]
      - [ 124., 141., 122., 146., 119., 149., 124., 143., 123., 146.,
          121., 149., 125., 144., 124., 146., 123., 147. ]
      - [ 121., 134., 128., 128., 133., 124., 126., 131., 129., 125.,
          130., 124., 126., 129., 130., 125., 131., 124. ]
      - [ 118., 141., 125., 133., 130., 128., 120., 139., 126., 132.,
          130., 125., 123., 138., 128., 129., 131., 125. ]
      - [ 117., 144., 115., 146., 113., 147., 115., 146., 112., 147.,
          111., 149., 113., 147., 111., 149., 110., 150. ]
      - [ 115., 152., 119., 146., 125., 135., 116., 152., 120., 144.,
          126., 134., 119., 146., 126., 134., 130., 125. ]
      - [ 119., 146., 125., 135., 130., 128., 120., 144., 126., 134.,
          130., 127., 126., 134., 130., 125., 131., 123. ]
      - [ 121., 155., 123., 153., 125., 152., 120., 155., 123., 153.,
          125., 152., 117., 156., 119., 156., 121., 155. ]
      - [ 109., 155., 111., 156., 116., 159., 104., 155., 106., 153.,
          112., 158., 104., 155., 105., 153., 111., 155. ]
      - [ 106., 172., 106., 172., 106., 172., 106., 171., 105., 168.,
          104., 168., 105., 170., 104., 167., 104., 167. ]
      - [ 107., 171., 107., 174., 106., 171., 107., 172., 106., 172.,
          105., 170., 106., 172., 105., 170., 104., 167. ]
      - [ 105., 170., 104., 167., 104., 167., 104., 167., 104., 166.,
          104., 166., 103., 166., 103., 165., 104., 164. ]
      - [ 105., 170., 104., 167., 104., 166., 104., 167., 103., 166.,
          103., 165., 103., 166., 103., 165., 103., 164. ]
      - [ 113., 155., 119., 146., 123., 137., 116., 146., 121., 138.,
          125., 131., 118., 146., 122., 137., 126., 129. ]
      - [ 105., 166., 104., 165., 103., 164., 106., 165., 105., 164.,
          103., 164., 107., 165., 106., 164., 105., 162. ]
      - [ 102., 170., 102., 168., 102., 171., 103., 171., 103., 171.,
          103., 171., 105., 174., 105., 174., 105., 176. ]
      - [ 129., 131., 132., 124., 134., 122., 130., 128., 132., 124.,
          133., 123., 130., 125., 130., 124., 130., 124. ]
      - [ 116., 150., 121., 141., 126., 134., 119., 144., 124., 137.,
          128., 129., 121., 139., 126., 131., 130., 125. ]
      - [ 110., 158., 113., 153., 119., 144., 112., 152., 116., 146.,
          121., 139., 117., 146., 119., 140., 125., 133. ]
      - [ 132., 124., 132., 125., 132., 125., 132., 125., 133., 125.,
          133., 124., 132., 125., 133., 124., 134., 124. ]
      - [ 130., 125., 130., 125., 131., 124., 130., 125., 131., 124.,
          131., 124., 134., 125., 133., 125., 132., 124. ]
      - [ 105., 159., 106., 158., 107., 161., 107., 160., 107., 159.,
          111., 158., 110., 159., 111., 158., 118., 150. ]
      - [ 103., 160., 105., 162., 107., 162., 104., 160., 107., 161.,
          110., 160., 108., 159., 111., 158., 113., 153. ]
      - [ 113., 153., 114., 150., 122., 141., 118., 146., 119., 141.,
          125., 135., 122., 138., 123., 137., 126., 131. ]
      - [ 128., 137., 130., 128., 130., 129., 126., 135., 124., 132.,
          127., 131., 124., 137., 125., 133., 127., 131. ]
      - [ 124., 140., 122., 141., 119., 144., 121., 143., 119., 144.,
          116., 146., 119., 144., 117., 146., 113., 146. ]
      - [ 114., 118., 114., 117., 116., 119., 114., 118., 114., 117.,
          115., 118., 114., 118., 114., 117., 115., 118. ]
      - [ 126., 146., 126., 147., 126., 147., 126., 149., 126., 150.,
          126., 150., 120., 158., 119., 159., 119., 159. ]
      - [ 118., 124., 119., 128., 119., 133., 118., 123., 118., 127.,
          119., 132., 117., 121., 118., 125., 119., 131. ]
      - [ 128., 123., 129., 123., 129., 124., 131., 123., 131., 123.,
          131., 123., 133., 123., 134., 123., 134., 123. ]
      - [ 131., 123., 131., 123., 131., 123., 133., 123., 134., 123.,
          134., 123., 134., 123., 135., 123., 135., 122. ]
      - [ 134., 123., 133., 123., 132., 124., 135., 122., 135., 123.,
          133., 124., 135., 122., 135., 122., 134., 123. ]
      - [ 135., 123., 135., 122., 135., 123., 135., 122., 135., 122.,
          135., 122., 134., 122., 135., 122., 135., 122. ]
      - [ 134., 123., 135., 122., 135., 122., 134., 123., 134., 122.,
          135., 122., 135., 122., 135., 122., 135., 122. ]
      - [ 133., 123., 134., 123., 134., 123., 133., 124., 134., 124.,
          134., 124., 134., 123., 134., 123., 134., 123. ]
      - [ 132., 119., 130., 119., 130., 119., 132., 119., 129., 119.,
          130., 121., 131., 122., 131., 118., 131., 118. ]
      - [ 129., 119., 130., 121., 130., 121., 131., 118., 131., 118.,
          130., 118., 131., 118., 131., 118., 130., 118. ]
      - [ 128., 128., 129., 128., 130., 128., 129., 128., 130., 128.,
          130., 128., 130., 128., 130., 128., 131., 127. ]
      - [ 130., 119., 130., 119., 130., 119., 130., 119., 130., 119.,
          130., 119., 130., 119., 130., 119., 130., 119. ]
      - [ 130., 129., 129., 129., 128., 129., 129., 129., 128., 129.,
          127., 131., 127., 131., 127., 131., 126., 131. ]
      - [ 103., 146., 103., 144., 104., 143., 102., 146., 103., 144.,
          105., 141., 101., 146., 103., 144., 108., 140. ]
      - [ 104., 144., 109., 139., 115., 133., 108., 140., 113., 135.,
          119., 129., 112., 137., 117., 132., 121., 125. ]
      - [ 132., 125., 131., 128., 130., 128., 132., 125., 132., 128.,
          131., 128., 132., 125., 132., 128., 132., 128. ]
      - [ 121., 128., 124., 123., 126., 119., 123., 125., 126., 122.,
          127., 118., 124., 123., 126., 119., 128., 117. ]
      - [ 121., 135., 120., 137., 119., 137., 121., 137., 121., 137.,
          120., 137., 122., 138., 122., 138., 122., 138. ]
      - [ 132., 128., 132., 128., 131., 128., 133., 127., 132., 127.,
          131., 128., 132., 127., 132., 127., 131., 127. ]
      - [ 123., 129., 126., 124., 128., 122., 126., 123., 128., 118.,
          130., 117., 127., 117., 129., 115., 130., 113. ]
      - [ 128., 112., 129., 110., 130., 110., 129., 110., 130., 110.,
          130., 110., 130., 110., 131., 109., 131., 109. ]
      - [ 118., 128., 120., 124., 122., 124., 124., 118., 122., 119.,
          124., 119., 128., 112., 124., 117., 126., 117. ]
      - [ 118., 132., 121., 127., 123., 123., 123., 124., 126., 119.,
          128., 115., 128., 110., 129., 110., 128., 110. ]
      - [ 121., 127., 123., 123., 124., 121., 126., 119., 128., 115.,
          128., 113., 129., 110., 128., 110., 128., 112. ]
      - [ 113., 138., 119., 132., 123., 124., 119., 128., 125., 118.,
          128., 110., 120., 125., 126., 117., 129., 110. ]
      - [ 119., 132., 123., 124., 126., 119., 125., 118., 128., 110.,
          129., 110., 126., 117., 129., 110., 129., 110. ]
      - [ 123., 124., 126., 119., 128., 115., 128., 110., 129., 110.,
          128., 110., 129., 110., 129., 110., 128., 110. ]
      - [ 126., 119., 128., 115., 128., 113., 129., 110., 128., 110.,
          128., 112., 129., 110., 128., 110., 128., 113. ]
      - [ 128., 115., 128., 113., 128., 112., 128., 110., 128., 112.,
          128., 113., 128., 110., 128., 113., 128., 113. ]
      - [ 128., 113., 128., 112., 124., 117., 128., 112., 128., 113.,
          126., 119., 128., 113., 128., 113., 127., 118. ]
      - [ 119., 128., 125., 118., 128., 110., 120., 125., 126., 117.,
          129., 110., 123., 123., 127., 115., 130., 110. ]
      - [ 125., 118., 128., 110., 129., 110., 126., 117., 129., 110.,
          129., 110., 127., 115., 130., 110., 130., 110. ]
      - [ 128., 110., 129., 110., 128., 110., 129., 110., 129., 110.,
          128., 110., 130., 110., 130., 110., 128., 112. ]
      - [ 129., 110., 128., 110., 128., 112., 129., 110., 128., 110.,
          128., 113., 130., 110., 128., 112., 128., 115. ]
      - [ 120., 125., 126., 117., 129., 110., 123., 123., 127., 115.,
          130., 110., 126., 119., 129., 113., 130., 110. ]
      - [ 126., 117., 129., 110., 129., 110., 127., 115., 130., 110.,
          130., 110., 129., 113., 130., 110., 130., 110. ]
      - [ 129., 110., 129., 110., 128., 110., 130., 110., 130., 110.,
          128., 112., 130., 110., 130., 110., 128., 113. ]
      - [ 129., 110., 128., 110., 128., 113., 130., 110., 128., 112.,
          128., 115., 130., 110., 128., 113., 128., 115. ]
      - [ 128., 110., 128., 113., 128., 113., 128., 112., 128., 115.,
          128., 115., 128., 113., 128., 115., 129., 115. ]
      - [ 119., 129., 123., 123., 127., 115., 124., 125., 126., 119.,
          129., 113., 126., 121., 128., 117., 130., 112. ]
      - [ 123., 123., 127., 115., 130., 110., 126., 119., 129., 113.,
          130., 110., 128., 117., 130., 112., 130., 110. ]
      - [ 127., 115., 130., 110., 130., 110., 129., 113., 130., 110.,
          130., 110., 130., 112., 130., 110., 129., 112. ]
      - [ 129., 113., 130., 110., 130., 110., 130., 112., 130., 110.,
          129., 112., 130., 110., 130., 110., 129., 112. ]
      - [ 129., 112., 128., 113., 129., 113., 128., 112., 128., 113.,
          130., 112., 128., 112., 128., 112., 130., 110. ]
      - [ 129., 113., 130., 112., 130., 110., 130., 112., 131., 110.,
          130., 110., 130., 110., 132., 109., 129., 110. ]
      - [ 130., 110., 130., 110., 128., 112., 130., 110., 129., 110.,
          128., 112., 130., 110., 130., 110., 130., 110. ]
      - [ 107., 146., 107., 146., 109., 144., 108., 143., 109., 141.,
          111., 139., 111., 138., 113., 135., 117., 132. ]
      - [ 127., 123., 126., 128., 125., 133., 127., 119., 126., 125.,
          125., 131., 131., 110., 131., 113., 130., 119. ]
      - [ 130., 110., 130., 110., 129., 112., 130., 112., 130., 113.,
          130., 115., 130., 113., 130., 115., 130., 116. ]
      - [ 119., 128., 119., 128., 120., 128., 125., 117., 125., 117.,
          126., 117., 127., 110., 127., 110., 128., 110. ]
      - [ 130., 113., 130., 115., 130., 115., 130., 115., 130., 116.,
          130., 116., 130., 117., 130., 117., 130., 117. ]
      - [ 130., 115., 130., 115., 130., 116., 130., 116., 130., 116.,
          130., 116., 130., 117., 130., 117., 130., 117. ]
      - [ 119., 133., 121., 129., 121., 125., 124., 122., 126., 117.,
          126., 115., 127., 116., 128., 112., 128., 110. ]
      - [ 130., 113., 130., 113., 130., 115., 129., 115., 129., 116.,
          130., 117., 128., 117., 129., 118., 130., 118. ]
      - [ 131., 110., 130., 118., 129., 121., 132., 110., 131., 112.,
          130., 115., 132., 110., 132., 109., 132., 110. ]
      - [ 127., 110., 127., 110., 128., 110., 127., 112., 128., 110.,
          129., 110., 128., 116., 129., 116., 130., 115. ]
      - [ 128., 115., 128., 115., 128., 115., 129., 116., 129., 116.,
          128., 116., 130., 118., 130., 118., 130., 118. ]
      - [ 128., 115., 129., 115., 129., 116., 128., 117., 128., 117.,
          129., 118., 129., 119., 129., 119., 130., 119. ]
      - [ 118., 141., 119., 132., 120., 128., 123., 129., 126., 122.,
          126., 119., 126., 118., 129., 116., 130., 113. ]
      - [ 127., 116., 128., 112., 128., 110., 129., 116., 129., 115.,
          129., 113., 130., 118., 130., 119., 129., 119. ]
      - [ 129., 115., 129., 116., 128., 117., 130., 117., 130., 118.,
          129., 119., 131., 118., 130., 121., 130., 121. ]
      - [ 129., 116., 128., 117., 129., 116., 130., 118., 129., 119.,
          130., 118., 130., 121., 130., 121., 133., 119. ]
      - [ 128., 117., 129., 116., 129., 116., 129., 119., 130., 118.,
          130., 118., 130., 121., 133., 119., 132., 119. ]
      - [ 129., 116., 129., 116., 128., 116., 130., 118., 130., 118.,
          130., 118., 133., 119., 132., 119., 131., 119. ]
      - [ 129., 116., 128., 116., 128., 117., 130., 118., 130., 118.,
          129., 119., 132., 119., 131., 119., 130., 121. ]
      - [ 128., 116., 128., 117., 128., 117., 130., 118., 129., 119.,
          129., 119., 131., 119., 130., 121., 130., 121. ]
      - [ 132., 109., 132., 110., 130., 112., 133., 106., 132., 107.,
          131., 109., 132., 110., 132., 109., 133., 106. ]
      - [ 129., 116., 127., 121., 126., 125., 130., 112., 128., 118.,
          127., 124., 133., 104., 132., 107., 130., 115. ]
      - [ 129., 113., 128., 116., 129., 116., 129., 119., 128., 119.,
          129., 119., 134., 122., 133., 122., 133., 122. ]
      - [ 128., 116., 129., 116., 130., 115., 128., 119., 129., 119.,
          130., 118., 133., 122., 133., 122., 133., 122. ]
      - [ 130., 119., 131., 119., 132., 121., 132., 119., 133., 119.,
          132., 122., 133., 122., 133., 122., 134., 122. ]
      - [ 116., 137., 119., 131., 124., 124., 120., 132., 124., 125.,
          126., 121., 126., 124., 128., 118., 130., 115. ]
      - [ 131., 110., 131., 113., 130., 116., 131., 115., 131., 115.,
          131., 113., 131., 117., 131., 116., 132., 113. ]
      - [ 130., 115., 130., 113., 131., 112., 131., 113., 131., 113.,
          132., 115., 132., 112., 132., 113., 133., 116. ]
      - [ 131., 110., 131., 110., 130., 112., 132., 115., 132., 116.,
          131., 116., 133., 118., 132., 118., 132., 118. ]
      - [ 133., 122., 133., 122., 133., 122., 133., 122., 133., 122.,
          133., 122., 133., 119., 133., 119., 134., 121. ]
      - [ 134., 121., 134., 121., 135., 121., 134., 122., 134., 122.,
          135., 121., 134., 122., 134., 123., 135., 121. ]
      - [ 134., 121., 133., 119., 133., 119., 134., 121., 134., 121.,
          133., 119., 134., 121., 134., 121., 133., 121. ]
      - [ 132., 115., 132., 115., 132., 115., 133., 113., 133., 115.,
          132., 115., 133., 113., 133., 115., 132., 113. ]
      - [ 134., 121., 134., 121., 134., 121., 133., 119., 134., 119.,
          134., 121., 133., 118., 133., 119., 133., 121. ]
      - [ 133., 118., 133., 119., 134., 119., 133., 118., 133., 118.,
          133., 119., 132., 118., 132., 118., 132., 119. ]
      - [ 134., 119., 134., 121., 134., 122., 133., 119., 133., 121.,
          133., 121., 132., 119., 132., 119., 132., 121. ]
      - [ 134., 121., 134., 121., 133., 121., 134., 121., 133., 121.,
          133., 121., 133., 121., 133., 121., 132., 121. ]
      - [ 134., 122., 134., 122., 135., 119., 133., 121., 133., 121.,
          134., 119., 131., 119., 131., 119., 133., 119. ]
      - [ 126., 132., 126., 129., 126., 127., 127., 127., 128., 124.,
          128., 122., 129., 122., 130., 121., 130., 118. ]
      - [ 133., 121., 134., 119., 134., 119., 131., 119., 133., 119.,
          133., 119., 131., 118., 132., 119., 132., 119. ]
      - [ 133., 122., 133., 122., 133., 122., 133., 122., 133., 122.,
          133., 122., 132., 122., 132., 122., 132., 122. ]
      - [ 133., 122., 133., 122., 134., 122., 134., 122., 135., 122.,
          135., 122., 134., 122., 135., 122., 135., 122. ]
      - [ 134., 122., 134., 122., 133., 122., 135., 122., 135., 122.,
          134., 122., 135., 122., 135., 122., 135., 122. ]
      - [ 135., 122., 134., 122., 134., 122., 135., 122., 135., 122.,
          134., 122., 135., 122., 135., 122., 135., 122. ]
      - [ 133., 122., 132., 122., 132., 122., 133., 122., 132., 122.,
          132., 122., 134., 122., 134., 122., 134., 122. ]
      - [ 147., 104., 148., 104., 148., 103., 147., 103., 148., 103.,
          148., 103., 147., 103., 148., 103., 147., 103. ]
      - [ 148., 104., 148., 103., 148., 103., 148., 103., 148., 103.,
          148., 103., 148., 103., 147., 103., 147., 103. ]
      - [ 148., 103., 148., 103., 148., 103., 148., 103., 147., 103.,
          147., 103., 147., 103., 147., 103., 145., 103. ]
      - [ 131., 108., 131., 102., 130., 113., 130., 123., 131., 100.,
          132., 94., 128., 129., 129., 130., 129., 124. ]
      - [ 131., 100., 132., 94., 131., 110., 129., 130., 129., 124.,
          132., 104., 128., 129., 129., 124., 128., 127. ]
      - [ 128., 124., 128., 125., 129., 124., 129., 124., 131., 119.,
          129., 124., 149., 106., 149., 101., 132., 110. ]
      - [ 130., 118., 129., 124., 131., 119., 143., 107., 149., 106.,
          149., 101., 128., 125., 131., 117., 146., 103. ]
      - [ 129., 124., 131., 119., 129., 124., 149., 106., 149., 101.,
          132., 110., 131., 117., 146., 103., 152., 101. ]
      - [ 131., 119., 129., 124., 128., 125., 149., 101., 132., 110.,
          127., 124., 146., 103., 152., 101., 134., 117. ]
      - [ 128., 128., 129., 124., 128., 122., 130., 121., 130., 122.,
          130., 122., 138., 96., 145., 94., 140., 97. ]
      - [ 128., 128., 128., 127., 129., 126., 130., 112., 129., 119.,
          135., 105., 147., 112., 154., 107., 144., 109. ]
      - [ 143., 107., 149., 106., 149., 101., 128., 125., 131., 117.,
          146., 103., 130., 117., 128., 117., 131., 103. ]
      - [ 149., 106., 149., 101., 132., 110., 131., 117., 146., 103.,
          152., 101., 128., 117., 131., 103., 145., 95. ]
      - [ 149., 101., 132., 110., 127., 124., 146., 103., 152., 101.,
          134., 117., 131., 103., 145., 95., 153., 98. ]
      - [ 132., 110., 127., 124., 124., 124., 152., 101., 134., 117.,
          128., 125., 145., 95., 153., 98., 145., 103. ]
      - [ 140., 99., 141., 103., 132., 107., 133., 109., 147., 97., 137.,
          98., 143., 107., 145., 100., 129., 121. ]
      - [ 128., 124., 129., 117., 132., 110., 130., 120., 129., 123.,
          125., 128., 154., 104., 152., 106., 148., 109. ]
      - [ 132., 110., 134., 104., 134., 104., 125., 128., 125., 129.,
          128., 127., 148., 109., 144., 111., 145., 112. ]
      - [ 134., 104., 134., 104., 133., 106., 125., 129., 128., 127.,
          132., 122., 144., 111., 145., 112., 146., 112. ]
      - [ 133., 106., 130., 112., 129., 119., 132., 122., 147., 112.,
          154., 107., 146., 112., 149., 110., 151., 110. ]
      - [ 130., 112., 129., 119., 135., 105., 147., 112., 154., 107.,
          144., 109., 149., 110., 151., 110., 148., 121. ]
      - [ 131., 117., 146., 103., 152., 101., 128., 117., 131., 103.,
          145., 95., 149., 109., 133., 109., 133., 104. ]
      - [ 146., 103., 152., 101., 134., 117., 131., 103., 145., 95.,
          153., 98., 133., 109., 133., 104., 142., 107. ]
      - [ 152., 101., 134., 117., 128., 125., 145., 95., 153., 98., 145.,
          103., 133., 104., 142., 107., 145., 106. ]
      - [ 128., 125., 134., 116., 137., 105., 145., 103., 134., 103.,
          135., 104., 145., 106., 144., 104., 145., 106. ]
      - [ 134., 103., 138., 96., 145., 94., 131., 117., 131., 116., 133.,
          109., 137., 98., 137., 100., 134., 103. ]
      - [ 138., 96., 145., 94., 140., 97., 131., 116., 133., 109., 133.,
          106., 137., 100., 134., 103., 134., 103. ]
      - [ 145., 94., 140., 97., 137., 104., 133., 109., 133., 106., 131.,
          112., 134., 103., 134., 103., 136., 101. ]
      - [ 133., 109., 147., 97., 137., 98., 143., 107., 145., 100., 129.,
          121., 145., 107., 141., 101., 129., 123. ]
      - [ 130., 120., 128., 127., 129., 124., 148., 107., 148., 113.,
          147., 113., 150., 110., 150., 107., 149., 104. ]
      - [ 130., 120., 129., 123., 125., 128., 154., 104., 152., 106.,
          148., 109., 144., 113., 143., 113., 142., 115. ]
      - [ 132., 122., 147., 112., 154., 107., 146., 112., 149., 110.,
          151., 110., 137., 119., 137., 121., 137., 122. ]
      - [ 147., 112., 154., 107., 144., 109., 149., 110., 151., 110.,
          148., 121., 137., 121., 137., 122., 137., 118. ]
      - [ 154., 107., 144., 109., 140., 110., 151., 110., 148., 121.,
          145., 121., 137., 122., 137., 118., 136., 119. ]
      - [ 145., 106., 143., 104., 144., 104., 145., 122., 143., 118.,
          130., 117., 134., 124., 133., 123., 137., 122. ]
      - [ 145., 95., 153., 98., 145., 103., 133., 104., 142., 107., 145.,
          106., 130., 117., 129., 121., 129., 123. ]
      - [ 153., 98., 145., 103., 134., 103., 142., 107., 145., 106.,
          144., 104., 129., 121., 129., 123., 133., 117. ]
      - [ 135., 104., 144., 103., 148., 107., 148., 103., 149., 106.,
          150., 110., 137., 109., 131., 113., 130., 118. ]
      - [ 144., 103., 148., 107., 148., 113., 149., 106., 150., 110.,
          150., 107., 131., 113., 130., 118., 133., 113. ]
      - [ 148., 107., 148., 113., 147., 113., 150., 110., 150., 107.,
          149., 104., 130., 118., 133., 113., 142., 110. ]
      - [ 149., 109., 147., 110., 154., 104., 145., 113., 144., 115.,
          144., 113., 140., 116., 140., 116., 139., 125. ]
      - [ 147., 110., 154., 104., 152., 106., 144., 115., 144., 113.,
          143., 113., 140., 116., 139., 125., 138., 127. ]
      - [ 154., 104., 152., 106., 148., 109., 144., 113., 143., 113.,
          142., 115., 139., 125., 138., 127., 137., 128. ]
      - [ 146., 112., 149., 110., 151., 110., 137., 119., 137., 121.,
          137., 122., 130., 128., 128., 128., 127., 127. ]
      - [ 149., 110., 151., 110., 148., 121., 137., 121., 137., 122.,
          137., 118., 128., 128., 127., 127., 127., 127. ]
      - [ 151., 110., 148., 121., 145., 121., 137., 122., 137., 118.,
          136., 119., 127., 127., 127., 127., 126., 127. ]
      - [ 135., 109., 140., 106., 147., 104., 141., 121., 140., 119.,
          130., 121., 136., 125., 136., 122., 139., 119. ]
      - [ 150., 103., 138., 113., 132., 116., 139., 118., 150., 104.,
          149., 104., 145., 117., 147., 116., 147., 113. ]
      - [ 133., 104., 133., 104., 138., 101., 137., 110., 144., 104.,
          145., 103., 144., 112., 149., 112., 153., 115. ]
      - [ 133., 104., 138., 101., 136., 103., 144., 104., 145., 103.,
          133., 109., 149., 112., 153., 115., 145., 117. ]
      - [ 135., 110., 145., 104., 147., 103., 145., 107., 150., 112.,
          147., 115., 145., 121., 143., 123., 142., 119. ]
      - [ 145., 104., 147., 103., 144., 106., 150., 112., 147., 115.,
          147., 115., 143., 123., 142., 119., 143., 112. ]
      - [ 144., 106., 145., 110., 149., 109., 147., 115., 148., 113.,
          137., 111., 143., 112., 142., 104., 146., 112. ]
      - [ 145., 110., 149., 109., 133., 109., 148., 113., 137., 111.,
          132., 114., 142., 104., 146., 112., 147., 113. ]
      - [ 149., 109., 133., 109., 133., 104., 137., 111., 132., 114.,
          130., 117., 146., 112., 147., 113., 148., 113. ]
      - [ 133., 109., 133., 104., 142., 107., 132., 114., 130., 117.,
          129., 121., 147., 113., 148., 113., 148., 113. ]
      - [ 142., 107., 145., 106., 144., 104., 129., 121., 129., 123.,
          133., 117., 148., 113., 140., 113., 134., 112. ]
      - [ 133., 103., 136., 101., 137., 98., 131., 114., 134., 110.,
          132., 110., 145., 103., 146., 103., 143., 104. ]
      - [ 136., 101., 137., 98., 137., 100., 134., 110., 132., 110.,
          129., 121., 146., 103., 143., 104., 134., 110. ]
      - [ 132., 110., 133., 110., 132., 109., 145., 100., 145., 97.,
          141., 105., 148., 115., 148., 118., 147., 119. ]
      - [ 148., 104., 148., 104., 147., 104., 149., 104., 149., 104.,
          148., 104., 150., 104., 150., 104., 149., 103. ]
      - [ 148., 104., 147., 104., 147., 103., 149., 104., 148., 104.,
          148., 103., 150., 104., 149., 103., 147., 103. ]
      - [ 131., 117., 145., 107., 141., 101., 135., 103., 145., 103.,
          139., 103., 144., 104., 143., 98., 134., 107. ]
      - [ 129., 123., 132., 110., 133., 104., 131., 97., 132., 109.,
          129., 124., 154., 107., 149., 107., 146., 106. ]
      - [ 142., 116., 147., 107., 148., 103., 149., 110., 145., 109.,
          137., 109., 144., 115., 145., 115., 145., 116. ]
      - [ 147., 107., 148., 103., 149., 106., 145., 109., 137., 109.,
          131., 113., 145., 115., 145., 116., 145., 117. ]
      - [ 148., 103., 149., 106., 150., 110., 137., 109., 131., 113.,
          130., 118., 145., 116., 145., 117., 144., 116. ]
      - [ 149., 106., 150., 110., 150., 107., 131., 113., 130., 118.,
          133., 113., 145., 117., 144., 116., 142., 116. ]
      - [ 139., 118., 150., 104., 149., 104., 145., 117., 147., 116.,
          147., 113., 133., 124., 136., 128., 137., 124. ]
      - [ 150., 104., 149., 104., 147., 106., 147., 116., 147., 113.,
          147., 110., 136., 128., 137., 124., 138., 119. ]
      - [ 145., 103., 133., 109., 142., 106., 153., 115., 145., 117.,
          145., 117., 140., 118., 145., 123., 137., 123. ]
      - [ 145., 104., 145., 107., 150., 112., 145., 117., 145., 121.,
          143., 123., 136., 123., 137., 122., 137., 119. ]
      - [ 153., 98., 153., 103., 149., 107., 145., 110., 143., 109.,
          145., 107., 141., 113., 136., 117., 142., 115. ]
      - [ 145., 100., 145., 97., 141., 105., 148., 115., 148., 118.,
          147., 119., 135., 123., 135., 121., 137., 118. ]
      - [ 145., 97., 141., 105., 130., 119., 148., 118., 147., 119.,
          146., 115., 135., 121., 137., 118., 139., 118. ]
      - [ 149., 104., 149., 104., 148., 104., 150., 104., 150., 104.,
          149., 103., 149., 104., 148., 104., 148., 104. ]
      - [ 149., 104., 148., 104., 148., 103., 150., 104., 149., 103.,
          147., 103., 148., 104., 148., 104., 147., 104. ]
      - [ 131., 97., 132., 109., 129., 124., 154., 107., 149., 107.,
          146., 106., 146., 112., 145., 113., 145., 116. ]
      - [ 147., 116., 147., 113., 147., 110., 136., 128., 137., 124.,
          138., 119., 129., 132., 129., 132., 130., 131. ]
      - [ 149., 112., 153., 115., 145., 117., 141., 116., 140., 118.,
          145., 123., 136., 125., 136., 127., 130., 128. ]
      - [ 153., 115., 145., 117., 145., 117., 140., 118., 145., 123.,
          137., 123., 136., 127., 130., 128., 130., 128. ]
      - [ 150., 104., 150., 104., 149., 103., 149., 104., 148., 104.,
          148., 104., 147., 105., 146., 104., 148., 104. ]
      - [ 131., 117., 129., 122., 132., 112., 130., 125., 129., 124.,
          134., 109., 127., 122., 137., 100., 143., 89. ]
      - [ 132., 112., 133., 100., 144., 104., 134., 109., 142., 97.,
          135., 106., 143., 89., 134., 108., 129., 124. ]
      - [ 130., 119., 130., 125., 129., 124., 128., 116., 127., 122.,
          137., 100., 133., 104., 144., 101., 140., 96. ]
      - [ 130., 125., 129., 124., 134., 109., 127., 122., 137., 100.,
          143., 89., 144., 101., 140., 96., 133., 103. ]
      - [ 129., 124., 134., 109., 142., 97., 137., 100., 143., 89., 134.,
          108., 140., 96., 133., 103., 131., 119. ]
      - [ 127., 122., 137., 100., 143., 89., 144., 101., 140., 96., 133.,
          103., 137., 103., 133., 106., 134., 112. ]
      - [ 133., 104., 144., 101., 140., 96., 144., 106., 137., 103.,
          133., 106., 129., 122., 130., 109., 132., 100. ]
      - [ 128., 126., 132., 110., 136., 102., 132., 110., 143., 100.,
          137., 110., 145., 98., 132., 119., 128., 128. ]
      - [ 137., 92., 136., 98., 133., 109., 131., 107., 130., 121., 128.,
          132., 133., 106., 129., 122., 126., 131. ]
      - [ 132., 110., 133., 96., 145., 98., 134., 103., 136., 96., 129.,
          124., 137., 101., 129., 124., 128., 125. ]
      - [ 133., 96., 145., 98., 132., 119., 136., 96., 129., 124., 129.,
          121., 129., 124., 128., 125., 130., 103. ]
      - [ 130., 110., 130., 115., 129., 123., 138., 101., 132., 104.,
          132., 103., 147., 107., 130., 118., 132., 112. ]
      - [ 141., 123., 145., 123., 143., 114., 135., 125., 137., 121.,
          138., 124., 124., 134., 127., 133., 132., 127. ]
      - [ 145., 123., 143., 114., 145., 104., 137., 121., 138., 124.,
          141., 124., 127., 133., 132., 127., 137., 121. ]
      - [ 138., 113., 129., 123., 129., 128., 145., 107., 144., 104.,
          131., 118., 145., 116., 147., 112., 133., 110. ]
      - [ 134., 102., 134., 115., 131., 114., 136., 94., 138., 97., 135.,
          103., 140., 103., 146., 103., 137., 101. ]
      - [ 145., 107., 144., 104., 131., 118., 145., 116., 147., 112.,
          133., 110., 136., 128., 138., 127., 149., 110. ]
      - [ 144., 104., 131., 118., 128., 125., 147., 112., 133., 110.,
          130., 119., 138., 127., 149., 110., 144., 113. ]
      - [ 136., 94., 138., 97., 135., 103., 140., 103., 146., 103., 137.,
          101., 129., 110., 143., 104., 136., 105. ]
      - [ 128., 129., 129., 115., 128., 120., 137., 101., 137., 103.,
          132., 110., 148., 92., 132., 103., 129., 126. ]
      - [ 147., 107., 130., 118., 132., 112., 146., 109., 128., 118.,
          130., 117., 145., 112., 139., 113., 144., 110. ]
      - [ 141., 119., 145., 116., 147., 112., 131., 131., 136., 128.,
          138., 127., 127., 131., 130., 129., 132., 128. ]
      - [ 137., 100., 130., 125., 129., 131., 140., 91., 128., 124.,
          127., 127., 137., 96., 131., 117., 131., 112. ]
      - [ 129., 131., 129., 124., 136., 103., 127., 127., 131., 114.,
          135., 96., 131., 112., 134., 107., 141., 103. ]
      - [ 140., 103., 146., 103., 137., 101., 129., 110., 143., 104.,
          136., 105., 132., 110., 145., 100., 134., 109. ]
      - [ 129., 121., 128., 111., 148., 112., 141., 107., 142., 119.,
          145., 116., 147., 109., 149., 117., 142., 121. ]
      - [ 132., 110., 129., 110., 143., 104., 131., 110., 132., 110.,
          145., 100., 139., 104., 150., 103., 147., 103. ]
      - [ 146., 109., 146., 106., 148., 106., 143., 117., 144., 116.,
          145., 113., 137., 129., 139., 129., 140., 127. ]
      - [ 145., 117., 145., 117., 142., 118., 145., 124., 144., 125.,
          142., 125., 131., 131., 130., 131., 130., 129. ]
      - [ 134., 107., 141., 103., 146., 100., 145., 103., 146., 109.,
          146., 110., 147., 104., 152., 110., 146., 112. ]
      - [ 131., 110., 132., 110., 145., 100., 139., 104., 150., 103.,
          147., 103., 149., 109., 147., 115., 145., 106. ]
      - [ 132., 110., 145., 100., 134., 109., 150., 103., 147., 103.,
          130., 126., 147., 115., 145., 106., 138., 104. ]
      - [ 150., 103., 147., 103., 130., 126., 147., 115., 145., 106.,
          138., 104., 140., 110., 145., 112., 146., 105. ]
      - [ 145., 106., 138., 104., 134., 103., 145., 112., 146., 105.,
          140., 103., 146., 116., 145., 103., 133., 108. ]
      - [ 138., 104., 140., 110., 145., 112., 131., 117., 143., 110.,
          146., 116., 140., 122., 145., 115., 141., 127. ]
      - [ 145., 119., 145., 122., 145., 123., 141., 122., 139., 125.,
          136., 128., 126., 129., 124., 131., 123., 133. ]
      - [ 145., 122., 145., 123., 145., 124., 139., 125., 136., 128.,
          132., 129., 124., 131., 123., 133., 123., 133. ]
      - [ 130., 114., 131., 118., 147., 122., 144., 119., 147., 124.,
          140., 127., 143., 127., 138., 128., 131., 128. ]
      - [ 131., 118., 147., 122., 146., 123., 147., 124., 140., 127.,
          132., 129., 138., 128., 131., 128., 126., 129. ]
      - [ 142., 115., 145., 117., 145., 109., 135., 128., 139., 119.,
          145., 116., 129., 132., 133., 125., 138., 117. ]
      - [ 140., 91., 134., 103., 132., 109., 130., 118., 136., 98., 139.,
          101., 128., 128., 128., 124., 130., 121. ]
      - [ 131., 125., 130., 121., 129., 123., 145., 118., 152., 103.,
          144., 107., 141., 121., 142., 116., 137., 111. ]
      - [ 152., 103., 144., 107., 132., 112., 142., 116., 137., 111.,
          145., 106., 139., 121., 142., 117., 145., 110. ]
      - [ 131., 109., 130., 118., 130., 118., 127., 119., 124., 129.,
          124., 129., 138., 107., 149., 106., 153., 106. ]
      - [ 130., 118., 130., 118., 129., 123., 124., 129., 124., 129.,
          126., 129., 149., 106., 153., 106., 153., 110. ]
      - [ 130., 118., 129., 123., 129., 123., 124., 129., 126., 129.,
          128., 126., 153., 106., 153., 110., 151., 116. ]
