%YAML:1.0
---
opencv_ml_svm:
   format: 3
   svmType: C_SVC
   kernel:
      type: LINEAR
   C: 2.6699999999999999e+00
   term_criteria: { epsilon:1.1920928955078125e-07, iterations:1000 }
   var_count: 27
   class_count: 19
   class_labels: !!opencv-matrix
      rows: 19
      cols: 1
      dt: i
      data: [ 0, 1, 2, 3, 4, 5, 6, 7, 8, 246, 247, 248, 249, 250, 251,
          252, 253, 254, 255 ]
   sv_total: 171
   support_vectors:
      - [ 4.63361503e-04, 5.12336439e-04, 4.94772859e-04, 9.47070192e-04,
          9.18976380e-04, 3.03242850e-04, 7.00351084e-04,
          -5.08031408e-05, 2.04331751e-04, 1.11016852e-03,
          -5.80399123e-04, -9.54039251e-07, 1.31922378e-03,
          -4.05236788e-04, 5.15897933e-04, 1.06256176e-03,
          4.88535385e-04, -7.85539160e-05, 8.12886399e-04,
          -6.17470359e-04, 3.43904627e-04, 1.08099973e-03,
          -3.41054489e-04, 4.38286981e-04, 2.37173081e-04,
          -1.09360681e-03, 9.90771241e-06 ]
      - [ 1.51858971e-04, 1.19039862e-04, -2.51830079e-05,
          9.71696281e-04, -1.37929572e-04, 7.80566625e-05,
          7.73031090e-04, 3.80587858e-06, 1.12489033e-04, 1.23962760e-03,
          -8.41188084e-05, -1.51537140e-04, 1.85461179e-03,
          -4.73925029e-05, 2.64608854e-04, 1.41965272e-03,
          -2.80414213e-04, 2.68032978e-04, 6.41324266e-04,
          -3.56809411e-04, 1.05044666e-04, 7.65461009e-04,
          -3.63980071e-04, 4.43336648e-05, 1.82670847e-04,
          1.24794955e-04, -2.57290056e-04 ]
      - [ 3.80962738e-04, -3.82919505e-04, 4.96143592e-04,
          1.54578814e-03, 1.49203825e-05, 1.75293972e-04, 1.28918269e-03,
          -3.70789785e-04, 4.47789615e-04, 1.58834469e-03,
          -1.12104361e-04, -3.11198637e-05, 1.51255706e-04,
          -1.12630310e-04, -1.23512102e-04, 1.26501021e-03,
          9.80251934e-04, 5.33768442e-04, 9.59093333e-04,
          -2.76654231e-04, 2.40227135e-04, 3.94806557e-04,
          -3.57244688e-04, 5.33360871e-04, -4.15470458e-05,
          -6.16350226e-05, 4.08487482e-04 ]
      - [ 1.09111425e-03, -5.79429579e-05, 1.39457217e-04,
          1.43929443e-03, 6.20889477e-04, 4.85580764e-04, 1.41815050e-03,
          1.23441452e-04, 2.35649903e-04, 1.62737339e-03, 2.51452875e-04,
          3.37722857e-04, -3.08431656e-04, 1.15725782e-03,
          2.22473376e-04, 3.34059412e-04, 3.89189008e-05, 2.82925903e-04,
          2.00652168e-04, -8.39919783e-04, 3.43622669e-04,
          1.52448320e-03, -3.97352211e-04, 2.51252030e-04,
          2.99480249e-04, -5.47060568e-04, -1.23279402e-04 ]
      - [ 1.31328718e-03, -2.00709619e-04, 2.42591675e-04,
          1.06075173e-03, 8.07210221e-04, 2.98695159e-05, 6.91666733e-04,
          -1.21345068e-03, 5.75026032e-04, 1.39177626e-03,
          -6.99797587e-04, 6.03466251e-05, 5.60037850e-04,
          -5.07547462e-04, 1.88848149e-04, 5.92418248e-04,
          6.56040502e-04, 1.01264282e-04, 6.33516902e-05, 6.67244967e-06,
          5.76810038e-04, 1.71751087e-03, 3.98487202e-04,
          -4.53103057e-05, 6.72791735e-04, -1.68846280e-04,
          -1.41350582e-04 ]
      - [ 7.11439410e-04, 6.11980504e-04, 6.20632418e-05, 6.80689584e-04,
          -1.03423372e-03, 3.84829211e-04, 1.64669496e-03,
          -1.62958959e-03, 4.31314460e-04, 1.97021101e-04,
          -1.05607649e-03, 3.84051207e-04, 1.12650276e-04,
          -4.61989577e-04, 1.25958686e-04, 1.57540257e-04,
          7.39215408e-04, 5.39600209e-04, 1.32418983e-03, 3.75617150e-04,
          -8.85093395e-05, 1.47644186e-03, -4.39720054e-04,
          1.49748244e-04, 1.71140069e-03, -9.39319943e-06,
          3.91944981e-04 ]
      - [ 1.65979494e-03, -3.00207728e-04, 3.54465359e-04,
          1.82364252e-03, -4.88409481e-04, -9.69616012e-05,
          1.47942349e-03, 3.50658956e-04, 1.50345921e-04, 9.07172449e-04,
          4.18803858e-04, -1.58570634e-04, -8.72422475e-04,
          1.22076808e-03, 5.91425807e-04, 3.76032258e-04, 9.13330528e-04,
          5.97720682e-05, 1.62139267e-03, 3.78447905e-04, 7.46015066e-05,
          5.31559694e-04, -3.45633511e-04, -2.09415055e-04,
          7.47323560e-04, 6.89609500e-04, 1.97776404e-04 ]
      - [ -4.53815563e-03, -1.56979952e-02, -3.09340004e-02,
          -1.79103658e-01, 8.81622136e-02, 4.85665761e-02,
          -1.95040777e-01, 2.33972841e-03, 1.25238195e-01,
          -2.85069961e-02, -6.76229820e-02, -8.83661658e-02,
          3.32851373e-02, -5.08992933e-02, -8.21771845e-03,
          -7.49325007e-02, -6.81722863e-03, -1.32998869e-01,
          4.50990302e-03, -3.50144319e-02, 1.51207954e-01,
          -2.77175426e-01, -3.44057411e-01, -7.69261213e-04,
          -3.19906950e-01, -3.95799637e-01, 1.00640416e-01 ]
      - [ -2.88560707e-03, -1.23669188e-02, 8.71691946e-03,
          1.52959733e-03, 1.34416986e-02, -1.28225246e-02,
          2.64471164e-03, 8.47345218e-04, 2.92104931e-04,
          -3.49208224e-03, 3.47581692e-03, 1.34194514e-03,
          -3.90956644e-03, 7.19125709e-03, -9.54450166e-04,
          -2.10289450e-04, -1.50088836e-02, -3.39994533e-03,
          -8.02362221e-04, -2.63030059e-03, -8.62181466e-03,
          -2.11736513e-03, 4.68627876e-03, -5.94259379e-03,
          -1.66296656e-03, 5.46658644e-03, -1.09135890e-02 ]
      - [ 4.54547256e-03, -4.74145031e-03, -2.61140987e-03,
          5.90638025e-03, 2.04106104e-02, -3.47295660e-03,
          4.27737087e-03, -6.80484204e-03, 6.81214547e-03,
          2.66988267e-04, 2.04527359e-02, -2.49731331e-03,
          2.09706300e-03, 1.78087410e-02, -6.69697998e-03,
          2.36922898e-03, -1.28810406e-02, 2.93551898e-03,
          4.50339215e-03, -5.47954068e-03, -7.48233497e-03,
          2.19837995e-03, -1.35604898e-02, -1.33066662e-02,
          2.01840186e-03, 1.96288601e-02, -6.67526247e-03 ]
      - [ 1.45071151e-03, 3.54447262e-03, 2.98083614e-04, 1.17581675e-03,
          -5.87541086e-04, -1.64850871e-03, -1.17041563e-05,
          -2.41263653e-03, -1.54078717e-03, 6.59516198e-04,
          1.68996921e-03, 9.31459304e-04, 3.80523573e-03,
          -1.52709440e-03, -1.97668001e-03, -1.77499795e-04,
          -1.01464894e-03, 2.09397124e-03, 1.85982860e-03,
          -3.51069437e-04, -6.17475132e-04, 6.17890793e-04,
          -1.92313548e-03, 1.56501774e-03, -3.55311000e-04,
          -5.48245199e-03, 7.43535056e-04 ]
      - [ 1.30512309e-03, 1.02900469e-03, 4.07294312e-04, 4.88501741e-04,
          5.62918256e-04, 3.71676433e-04, 4.50899941e-04,
          -2.44248589e-03, -1.50189910e-03, -1.94734675e-05,
          -2.54490919e-06, 1.66025094e-03, 1.15797273e-03,
          -7.43181386e-04, -1.91345520e-03, 5.97541919e-04,
          -3.20657715e-03, -1.23690977e-03, 9.95268812e-04,
          -2.78608920e-03, 1.18158141e-03, 2.37051281e-03,
          -1.46602187e-03, -4.57649323e-04, 1.70293066e-03,
          -1.53394172e-03, -9.77565767e-04 ]
      - [ 1.90371205e-03, 8.38339853e-04, -2.90834950e-03,
          1.68116065e-03, 1.21567209e-04, -2.19111610e-03,
          1.57736975e-03, -2.68522650e-03, 8.32536665e-04,
          1.94250862e-03, -8.73425961e-05, 7.46122329e-04,
          2.78406340e-04, -7.00256147e-04, 1.40264499e-04,
          -9.09625611e-04, -4.45184240e-04, 6.47443929e-04,
          1.78684574e-03, 8.37611849e-04, 1.48834882e-03, 6.38128142e-04,
          2.22551724e-04, -5.97774633e-04, 1.67344557e-03,
          3.51148308e-04, 3.50706023e-03 ]
      - [ 1.39824545e-03, -4.45582578e-03, -1.74541341e-03,
          2.48517678e-03, -3.38392262e-03, -1.41601439e-03,
          9.91035486e-04, -1.67866691e-03, 3.52838309e-03,
          1.11444923e-03, 5.13137085e-04, 4.24842234e-04,
          -4.60284209e-04, -1.04261926e-04, 8.17179272e-04,
          1.84470191e-04, -3.75816505e-03, 8.95748090e-04,
          5.49782068e-04, 4.43360023e-03, -1.26726192e-03,
          2.21293862e-03, 4.08657972e-04, 3.38280876e-03, 1.55256153e-03,
          3.59041151e-03, -3.65720363e-03 ]
      - [ 3.72090610e-04, 1.21775514e-03, 2.11284550e-05, 1.21475360e-03,
          -3.67615430e-04, 1.03944178e-04, 1.75901235e-03,
          4.92847641e-04, 5.57134626e-04, 1.58677681e-03,
          -3.85265856e-04, -4.70130501e-04, 7.10544584e-04,
          5.53497171e-04, -4.78981354e-04, 3.57593992e-04,
          6.32110750e-04, 2.99017760e-04, 9.64213454e-04, 1.04119454e-03,
          1.05033326e-03, 9.84576531e-04, 1.27519970e-03,
          -1.00956892e-03, 5.84899040e-04, 1.47980498e-03,
          6.14860211e-04 ]
      - [ 9.93703725e-04, -6.25785487e-03, -8.24887014e-04,
          1.57800503e-03, -1.71449187e-03, -2.17613648e-03,
          7.35708978e-04, -3.64603853e-04, 3.97155574e-03,
          1.27284718e-03, 3.84363695e-03, 5.42761816e-04, 6.08046830e-04,
          -9.37907258e-04, -2.83435895e-03, 2.02867808e-03,
          -3.32749114e-05, -1.02925848e-03, 1.42036457e-04,
          3.00198677e-03, 2.43940391e-03, 1.39410235e-03, 1.27666688e-03,
          -2.17929319e-03, -1.25273131e-04, -7.71567342e-04,
          3.52635933e-03 ]
      - [ 1.15651905e-03, -5.26084150e-05, 8.60515749e-04,
          1.12503476e-03, -6.35649019e-04, 1.02443933e-04,
          7.19124946e-05, 8.09257617e-04, -1.69554594e-04,
          2.11986271e-03, 2.80026929e-04, -5.15452935e-04,
          1.78198167e-03, -1.10732850e-04, -1.28935440e-03,
          1.53047778e-03, 3.98999779e-04, 8.50241457e-04, 3.37447163e-05,
          4.13039495e-04, 8.50662065e-04, 5.61582332e-04, 1.27959903e-03,
          -1.93426138e-04, -1.82770149e-04, 6.05947454e-04,
          -1.05417421e-04 ]
      - [ 1.34614389e-03, -9.56707372e-05, 5.78984385e-04,
          4.42635530e-04, 8.16876942e-04, 1.91907253e-04, 5.02107781e-04,
          4.16506431e-04, 4.43386059e-04, 2.74697144e-04, 1.03057455e-03,
          -2.13027743e-04, 1.18499389e-03, 2.33233586e-04,
          -1.61110001e-04, 1.35073939e-03, 5.82946450e-06,
          1.96661742e-04, 1.25398871e-03, 2.75946542e-04, 6.57267985e-04,
          9.13630531e-04, 4.24170226e-04, -2.15402295e-04,
          4.81638854e-04, 6.90827146e-04, 3.78545636e-04 ]
      - [ -7.32196437e-04, -8.94459372e-05, -1.09075953e-03,
          -1.97566603e-03, 5.76715567e-04, 4.51528795e-05,
          -5.01190894e-04, 1.46271777e-03, 1.90107428e-04,
          -7.38994393e-04, -1.52361044e-05, -1.01906038e-03,
          -7.26709259e-04, 2.43872884e-04, 9.35817952e-05,
          -9.42719693e-04, -4.43491124e-04, 1.21619750e-03,
          -3.07970826e-04, -1.66502796e-05, 3.08500566e-05,
          -1.01757748e-03, 8.76690901e-04, -5.74797450e-04,
          -7.62157317e-04, 1.06340623e-03, -1.00585236e-03 ]
      - [ -8.12205893e-04, -4.02078964e-04, -2.91850098e-04,
          -7.70176994e-04, 1.03606821e-04, -9.68395150e-04,
          -8.98997125e-04, -4.89980215e-04, 5.92493801e-04,
          -5.67200477e-04, -5.02920710e-04, 6.40305982e-04,
          -1.52829953e-03, -3.68921494e-04, -4.68053884e-04,
          -1.06716459e-03, 8.66217073e-04, 4.84910503e-04,
          -2.58016080e-04, 2.24281132e-04, -5.83093555e-04,
          -9.62051621e-04, 5.70962555e-04, 5.71101031e-04,
          -1.16590993e-03, 1.09033706e-03, 3.17271042e-04 ]
      - [ -7.57654605e-04, 1.41589600e-03, -1.04404381e-03,
          -1.46366504e-03, 1.95035792e-03, 8.08035489e-04,
          -9.72743437e-04, 1.75673258e-03, -1.22661307e-03,
          1.77567083e-04, 1.59481715e-03, -7.76529996e-05,
          -1.06396677e-03, 5.93419500e-05, -2.10972899e-03,
          -1.43414631e-03, 3.44432592e-05, 1.17478590e-03,
          -1.04482169e-03, 4.81964322e-04, 8.60574422e-04,
          -2.19731985e-04, -1.54058204e-03, -4.39904950e-04,
          -8.06214055e-04, 6.80264900e-04, -7.96866138e-04 ]
      - [ -7.70358747e-05, -1.10690271e-04, -2.02426148e-04,
          -1.28324749e-03, 1.15591369e-03, -1.09157525e-04,
          -8.15160514e-04, -6.07341120e-04, -2.75139319e-04,
          -9.36898985e-04, -6.10799761e-04, 6.68256776e-04,
          -7.70175189e-04, -2.46319803e-04, -8.42768568e-05,
          -1.51794835e-03, 7.45745274e-05, 4.71174135e-04,
          -1.80182816e-03, 3.86834377e-04, -4.09643428e-04,
          -5.47633914e-04, 8.14850209e-04, 9.95880109e-05,
          -2.77416344e-04, -1.36840786e-03, 1.98037771e-04 ]
      - [ 1.48691819e-03, -2.20922244e-04, 1.66291080e-04,
          -9.40201920e-04, -9.62657679e-04, 5.17363311e-04,
          1.94504659e-03, -1.33862626e-03, 6.87011634e-04,
          6.94880437e-04, -8.35280298e-05, 1.09503034e-03,
          -7.74046988e-04, -5.48282522e-04, 8.73394543e-04,
          1.01991475e-03, -3.61577841e-04, 6.32894109e-04,
          1.54844229e-03, 1.32536312e-04, -1.02502469e-03,
          8.56747094e-04, -3.68511101e-04, 2.41752467e-04,
          2.05315161e-03, -5.05350414e-04, -6.70658133e-04 ]
      - [ 1.76863023e-03, -6.04349807e-05, 6.80556288e-04,
          7.39947427e-04, -1.34715185e-04, -1.32263417e-03,
          1.77237857e-03, 1.00538542e-03, 9.24525200e-04, 1.34659663e-03,
          1.24636025e-03, 9.94193600e-04, -1.00282324e-03,
          1.97613233e-04, 7.77740905e-04, 1.29015220e-03, 1.50613254e-03,
          1.68517727e-04, 1.64576923e-03, 8.28818767e-04,
          -1.17783342e-03, -8.74113641e-04, -1.79688178e-03,
          -5.93076169e-04, 1.49350357e-03, 1.09464198e-03,
          -3.12984135e-04 ]
      - [ 1.60448309e-02, 5.50396331e-02, 4.60012667e-02,
          -6.22446276e-02, 8.72165710e-02, 2.16798127e-01,
          -1.18199894e-02, 9.75138992e-02, 2.44344532e-01,
          -7.66963884e-02, -2.40386836e-02, -8.56674761e-02,
          1.99974533e-02, -7.87800699e-02, -4.77985181e-02,
          -1.27234505e-02, -4.69542146e-02, -3.40742052e-01,
          5.24687720e-03, -1.84246540e-01, 2.93723702e-01,
          -6.25730380e-02, -1.17054030e-01, 5.79581670e-02,
          -6.90837530e-03, -2.04095468e-01, 2.11566776e-01 ]
      - [ -4.27334849e-03, -1.00880507e-02, 2.76712645e-02,
          1.08551951e-02, 2.61205547e-02, -3.14151146e-03,
          7.47091975e-03, 4.17239079e-03, -1.55729381e-02,
          -2.20576418e-03, -3.87443462e-03, -1.51631832e-02,
          -9.35770012e-03, 7.78272981e-03, -2.06009895e-02,
          7.71154230e-03, -2.31340472e-02, -1.09910443e-02,
          4.91717411e-03, -2.35118764e-03, -9.38814506e-03,
          1.81482406e-03, 1.17386468e-02, -1.33508937e-02,
          -3.87646747e-03, 2.83460459e-03, -8.32788460e-03 ]
      - [ 3.32681157e-05, -1.04230652e-02, -2.94246769e-04,
          -3.67614011e-05, 1.10151796e-02, 2.36417586e-03,
          1.94048590e-03, -1.45735992e-02, 7.76389008e-03,
          -1.95363164e-03, 2.23961603e-02, -5.74725633e-03,
          3.80015490e-03, 9.47643165e-03, -9.10796132e-03,
          6.44925330e-03, -2.14447919e-02, 3.13724298e-03,
          2.69280653e-03, -7.11027533e-03, -1.12781357e-02,
          -3.20419250e-03, -1.12576345e-02, -8.73292610e-03,
          2.69043958e-03, 1.93543714e-02, -3.98375007e-04 ]
      - [ -1.02972321e-03, 1.14043485e-02, 3.48226191e-03,
          -2.11061770e-03, -2.26228707e-03, -5.57400985e-03,
          -5.34955226e-03, -3.40230181e-03, -2.08027847e-03,
          -4.16824548e-03, 1.87616271e-03, 2.70926673e-03,
          4.79048491e-03, -3.05148866e-03, -8.03656783e-03,
          1.92301394e-03, -6.53454429e-03, 1.93234137e-03,
          -1.60479743e-03, -7.13411500e-05, -4.14340105e-03,
          -2.37052189e-03, -2.91039492e-03, 7.73532037e-03,
          -2.40027625e-03, -6.98625483e-03, 4.20964928e-03 ]
      - [ -9.21639905e-04, 1.35638658e-03, -9.04308283e-04,
          -2.52398802e-03, -1.39886152e-03, -3.45733319e-03,
          7.72592379e-04, -1.93901022e-03, -4.39277574e-05,
          -2.31106207e-03, 2.85920943e-03, 1.10955478e-03,
          7.61720818e-04, -1.54663599e-03, -2.96875159e-03,
          -1.11622154e-03, -3.66780791e-03, -3.45632457e-03,
          -2.89523881e-03, -2.28272751e-03, 4.89918562e-03,
          1.74333429e-04, -2.33175349e-03, -1.00262894e-03,
          -8.53557867e-05, -2.50155828e-03, -2.39922502e-03 ]
      - [ 2.25291867e-03, 3.29405582e-03, -3.11375433e-03,
          1.06660509e-03, -1.30946864e-03, -2.89484509e-03,
          2.13731616e-03, -3.51824122e-03, -2.96564715e-04,
          -3.82401806e-04, 2.69791693e-03, 4.15150868e-03,
          -4.30129963e-04, 2.09003803e-04, -6.10411912e-03,
          -1.26434281e-03, 2.31849146e-03, -4.99207876e-04,
          2.75626034e-03, 3.71205359e-04, -3.00668250e-03,
          2.40157405e-03, -1.27617468e-03, 3.27197043e-03,
          1.41343698e-04, -2.57555046e-03, 6.53048558e-03 ]
      - [ -6.16080360e-04, -4.49571572e-03, -1.24050211e-03,
          5.95820544e-04, -5.86121390e-03, -3.57058540e-04,
          -3.86913511e-04, -2.23162887e-03, 2.35092849e-03,
          -1.33077195e-03, -1.55166257e-03, 1.68325345e-03,
          -3.03838030e-03, -1.01961778e-03, -2.69761961e-03,
          -1.76962803e-03, -8.52729590e-06, 1.96852861e-03,
          -2.16120156e-03, 4.53064870e-03, -3.64667294e-03,
          5.43119677e-04, -4.00430406e-04, 3.18991276e-03,
          -9.45956912e-04, 4.81836032e-03, -3.49674514e-03 ]
      - [ -1.63541001e-03, 2.08922313e-04, -2.10376864e-04,
          -6.62496823e-05, -1.53935433e-03, 2.20077089e-03,
          -1.46703213e-04, 1.27079978e-03, -1.70533254e-04,
          1.66351127e-03, 2.85540451e-03, -1.08730234e-03,
          -2.18488602e-03, 1.99548481e-03, -4.39133076e-03,
          -1.87247887e-03, -2.68661603e-03, 4.34665242e-03,
          -1.47279748e-03, 3.68553912e-03, 2.27735681e-03,
          -1.34519069e-03, 3.90887959e-03, -4.74901777e-03,
          -1.41547920e-04, 2.62866874e-04, -1.57995941e-03 ]
      - [ 4.07446350e-04, -7.12434994e-03, 1.07258803e-03,
          1.70245557e-03, -4.02469700e-03, -5.80997672e-04,
          2.44054780e-03, 8.73717538e-04, 6.16640085e-03, 2.66307243e-03,
          8.26242380e-03, -3.06684920e-03, -9.02275613e-04,
          2.87058018e-03, -9.11042560e-03, 1.41007116e-03,
          -5.06458688e-04, -6.66497415e-03, 1.03953457e-03,
          3.85835208e-03, 1.16243330e-03, 7.82759278e-04,
          -6.28451235e-04, 5.46275915e-05, 8.38747830e-04,
          -4.06029634e-03, 9.03333537e-03 ]
      - [ -4.31576133e-04, -2.12965044e-03, 1.40920689e-03,
          -2.17012502e-03, -1.69704598e-03, -2.14207073e-04,
          -1.99596025e-03, 1.40434000e-04, -1.16019195e-03,
          4.40578384e-04, 1.33245671e-03, 1.41850658e-04, 4.22876561e-04,
          1.57333422e-03, -4.48994245e-03, -5.02834046e-05,
          3.60260950e-04, 3.09908763e-03, -2.16311309e-03,
          8.70372693e-04, 1.23976753e-03, -6.77098345e-04,
          2.50824192e-03, 8.80008447e-04, -1.80991832e-03,
          8.31731188e-04, -9.51649854e-04 ]
      - [ 1.46688172e-03, 1.93273212e-04, 7.38154748e-04, 1.20522156e-04,
          6.02864486e-04, 2.59387944e-05, 6.94644870e-04, 7.53939326e-04,
          2.87556730e-04, 2.80325767e-04, 1.69931992e-03,
          -1.40812263e-04, 1.15267211e-03, 1.52277134e-05,
          -1.31214049e-03, 1.16309861e-03, -4.36454749e-04,
          1.52107561e-04, 1.57993101e-03, 4.71242325e-04, 4.14792798e-04,
          5.01534669e-04, 7.23855512e-04, 2.77847448e-05, 1.25096063e-03,
          4.52194159e-04, 1.75733367e-04 ]
      - [ 2.70164255e-05, -1.94660592e-04, -6.34507800e-04,
          -8.42062524e-04, -3.02648317e-04, 1.85715602e-04,
          -1.49272068e-03, -2.91446748e-04, 5.10262093e-04,
          -1.49609725e-04, 1.04789436e-03, 3.84028972e-04,
          -1.76903338e-03, -3.37502948e-04, -4.41275013e-04,
          -8.13621678e-04, 4.46309830e-04, -5.31069585e-04,
          -8.16536136e-04, 1.88424892e-04, -1.22118305e-04,
          -1.06839451e-03, 2.47957680e-04, -2.89700802e-05,
          -1.08211441e-03, 7.48153325e-05, 5.51307807e-04 ]
      - [ 1.83812669e-03, 2.73077203e-05, -4.65074001e-04,
          1.43551896e-03, 9.68755630e-04, 1.23221008e-03, 9.94788134e-04,
          -7.15862407e-05, 8.10187412e-05, 1.52197969e-03,
          3.57932586e-04, 3.56317381e-04, -8.47724325e-04,
          1.74600209e-04, -9.34635231e-04, -5.57482184e-04,
          5.46834955e-04, -5.75926912e-04, 1.45618024e-03,
          1.42900739e-03, 7.99158151e-05, 1.38540985e-03,
          -1.41096127e-03, 1.45953891e-04, 7.61824602e-04,
          -1.81963074e-03, 2.93210498e-04 ]
      - [ -1.40721939e-04, 2.19066904e-04, 1.76014539e-04,
          -1.27260317e-03, 1.54896232e-03, 8.61408116e-05,
          -8.26014031e-04, -7.57183880e-04, 1.95489716e-04,
          -7.86552439e-04, 8.10692654e-05, 4.47485625e-04,
          -1.59768446e-03, -1.25328792e-04, 1.95731249e-04,
          8.53809106e-05, 4.96699358e-04, -2.19694222e-04,
          -1.68586755e-03, 5.88308903e-04, -3.77588323e-04,
          -9.49872483e-04, 7.08987063e-05, 9.70348367e-04,
          -1.16556592e-03, -1.15778646e-03, -6.43568637e-05 ]
      - [ 1.48814882e-03, -1.23293183e-04, 4.77802641e-05,
          -9.01023974e-04, -9.96086746e-04, 5.96346043e-04,
          1.31930981e-03, -2.34574126e-03, -1.70737272e-04,
          1.20236131e-03, -4.16357361e-04, 1.14367099e-03,
          -6.97101466e-04, -5.88957919e-04, 5.95604768e-04,
          1.31663273e-03, -3.50405404e-04, 3.99237178e-05,
          1.23138027e-03, -2.56347208e-04, -1.01164123e-03,
          1.49030075e-03, -3.56485107e-04, -4.38667164e-04,
          1.61241111e-03, -1.15739496e-03, 2.41989750e-04 ]
      - [ 1.85846258e-03, 1.93638625e-04, 1.53886853e-03, 1.34105410e-03,
          -7.78417016e-05, -1.37829967e-03, 1.78802200e-03,
          9.53560695e-04, 2.69613753e-04, 1.64032169e-03, 1.21761370e-03,
          -8.97479826e-04, -2.24279799e-03, 3.52310861e-04,
          1.49307318e-03, 6.99984725e-04, 2.03448185e-03,
          -1.91420404e-04, 1.50956959e-03, 1.92288938e-03,
          3.41836494e-05, -1.15813513e-04, -2.82720267e-03,
          -1.29398319e-03, 1.90853840e-03, 2.45467701e-04,
          3.19729996e-04 ]
      - [ 3.09776869e-02, 2.25649416e-01, 3.18340585e-02,
          -7.88576230e-02, 2.74641402e-02, 6.83520660e-02,
          -4.72649485e-02, 1.23512037e-01, 3.17022383e-01,
          -7.70512074e-02, 2.36120597e-02, -5.26145473e-02,
          -4.61110622e-02, 1.35343149e-02, 2.36232951e-02,
          -2.40151696e-02, -1.39608141e-02, -3.31153750e-01,
          9.03966464e-03, -2.30657116e-01, 2.79409975e-01,
          -5.00889979e-02, -1.24576069e-01, 1.24332905e-02,
          -6.13564327e-02, -1.81564093e-01, 1.85191810e-01 ]
      - [ -1.69768892e-02, 1.19024026e-03, 4.59411480e-02,
          1.08955659e-01, 2.12124251e-02, 3.74409882e-03,
          -7.28493929e-03, 3.83633166e-03, -3.30643915e-02,
          -4.20478322e-02, -7.15506845e-04, 1.09598180e-03,
          -6.05436340e-02, 2.81342003e-03, -3.56164165e-02,
          2.67618615e-02, -1.68448389e-02, -6.37481511e-02,
          7.69570768e-02, -1.43227521e-02, -1.86182428e-02,
          -3.76098254e-03, 5.71489194e-03, -5.04485779e-02,
          -1.54390011e-03, 1.70251653e-02, -8.83686244e-02 ]
      - [ 6.35512965e-03, -7.01827696e-03, -1.00276507e-02,
          -4.25944617e-03, 9.93069075e-03, -4.20628581e-03,
          8.42674635e-03, -1.34304557e-02, 1.61617398e-02,
          7.51931220e-04, 2.51184329e-02, -3.56262270e-03,
          3.04426602e-03, 9.90582723e-03, -3.64763546e-03,
          7.74443615e-04, -2.92390939e-02, 8.20385665e-03,
          1.22281862e-02, -1.03481906e-02, -6.10114867e-03,
          2.61351792e-03, -1.69818997e-02, -2.19703466e-02,
          4.67716018e-03, 1.95482187e-02, -9.72257182e-03 ]
      - [ 5.92306023e-04, 5.17280307e-03, -2.08087079e-03,
          5.73333073e-03, 7.71885924e-03, -6.00546971e-03,
          -6.52555749e-03, 5.83343767e-03, -6.67744316e-03,
          -2.69313180e-03, 3.69332469e-04, -5.58271189e-04,
          4.94583556e-03, -9.76474490e-04, -4.73080250e-03,
          -5.14571671e-04, -2.19764654e-03, 4.90223803e-03,
          3.14375432e-03, -2.15467135e-03, 8.76632112e-04,
          -2.62761163e-03, -4.76635573e-03, 6.68325182e-03,
          -2.93606706e-03, -1.99045539e-02, 3.53091699e-03 ]
      - [ -1.47878914e-03, -2.46706209e-03, 1.19988737e-03,
          -1.41677645e-03, 1.02500350e-03, -2.42301309e-03,
          -3.31170054e-06, -1.36160769e-03, -5.61582448e-04,
          -3.69734666e-03, 8.09032004e-04, 1.39573065e-03,
          -4.18774544e-05, -2.29524518e-03, -1.77103851e-03,
          -1.54389621e-04, -2.01696763e-03, -1.12310250e-03,
          -1.21032004e-03, -5.23489376e-04, 2.48240912e-03,
          -4.20581753e-04, -2.02940311e-03, -1.46796042e-03,
          5.64715010e-04, -6.80962810e-03, -2.97509436e-03 ]
      - [ 6.34981770e-05, 1.95023068e-03, -6.17763074e-03,
          5.25528740e-04, -1.54753332e-03, -2.35047797e-03,
          -2.16224999e-03, -2.08027358e-03, 1.01185986e-03,
          -1.50971289e-03, -2.35067680e-03, 4.85517317e-03,
          -4.21666494e-03, -1.05152337e-03, -4.59037861e-03,
          -2.61513493e-03, 2.37401715e-03, -7.53152359e-04,
          5.33300452e-04, 1.17957534e-03, 4.57374984e-03,
          -2.11128980e-04, -1.85472122e-03, -4.63217357e-03,
          -6.11914729e-04, 2.74014801e-05, 3.35882837e-03 ]
      - [ -9.65758401e-04, -3.00165382e-03, -2.16099084e-03,
          1.43602223e-03, -1.87117024e-03, -2.86631379e-03,
          -5.47223550e-04, -3.88296583e-04, 4.13505733e-03,
          -1.56227301e-03, -3.38648143e-03, -3.57124227e-04,
          -4.76096338e-03, -1.74988154e-03, -2.47746799e-03,
          -9.98146716e-04, -4.18085745e-03, 1.63890491e-03,
          -1.08712341e-03, 3.93715221e-03, -2.22683069e-04,
          1.29762420e-03, 2.38306442e-04, 4.96026129e-03,
          -1.00902899e-03, 3.48131871e-03, -5.25329635e-03 ]
      - [ -1.18027872e-03, 4.12900525e-04, 2.35152221e-03,
          -1.08019344e-03, -1.59323530e-03, 1.76998123e-03,
          5.95323145e-05, 2.69765360e-03, -2.75712390e-03,
          1.45384867e-03, 1.22536754e-03, -7.43483019e-04,
          -1.78721675e-03, 1.88034016e-03, -3.24203703e-03,
          -1.40797673e-03, -1.36666384e-03, -7.23318895e-04,
          -1.00139307e-03, 4.55546845e-03, -9.32478870e-04,
          -2.01428519e-03, 1.06827484e-03, -4.34183003e-03,
          -2.32739185e-04, 7.09715678e-05, 4.54592891e-03 ]
      - [ 1.98650407e-03, -5.69879450e-03, -2.34167115e-03,
          1.23990769e-03, -4.94076265e-03, 1.12411508e-03,
          8.53705220e-04, 2.31896015e-03, 7.63569213e-03, 1.87693629e-03,
          6.59169396e-03, -2.45487923e-03, -2.24925950e-03,
          -5.21156144e-05, -7.32005388e-03, 2.81628594e-03,
          6.52764866e-04, -8.24868213e-03, 9.42097395e-04,
          5.04294503e-03, 2.60875025e-03, 1.45077112e-03,
          -2.46647222e-04, -7.86945981e-04, 3.10743053e-05,
          -3.86546785e-03, 8.92804004e-03 ]
      - [ -1.34900457e-03, -2.64171907e-03, 6.81961537e-04,
          -2.87573755e-04, -3.21309199e-03, -1.04292478e-04,
          -1.49659161e-03, -2.55352614e-04, -1.41535333e-04,
          -2.47406686e-04, 4.10561450e-03, -6.43178937e-04,
          2.27920176e-03, 8.31742713e-04, -4.17268556e-03,
          -2.03768053e-04, 2.09663901e-03, 1.03491521e-03,
          -2.11417605e-03, 1.23553700e-03, 2.49106693e-03,
          -2.01737275e-03, 5.00850752e-03, 5.51453792e-04,
          -2.28600786e-03, 4.24558937e-04, -2.49583594e-04 ]
      - [ 1.93757692e-03, 8.01109854e-05, 1.20880734e-03,
          -3.78854718e-04, -1.00323954e-03, -4.01154306e-04,
          5.44928480e-04, -7.76240719e-04, 2.36953143e-04,
          1.89836064e-04, 2.12970213e-03, -7.58494716e-04,
          1.57235377e-03, 5.69506781e-04, -1.60203979e-03,
          1.52760558e-03, 8.85697023e-04, -5.67351934e-04,
          1.54578255e-03, 7.36803864e-04, 2.03615241e-03,
          -1.17721229e-05, 4.48650884e-04, -9.26182256e-04,
          1.31599687e-03, 6.10836956e-04, 1.66116736e-03 ]
      - [ 1.52196293e-03, 6.66945765e-04, -6.28833077e-04,
          1.67386665e-03, 1.60518975e-03, 1.18199503e-03, 1.40128925e-03,
          1.57850643e-03, -2.75876082e-04, 1.16048881e-03,
          6.05335983e-04, 4.76590591e-04, -1.13172864e-05,
          1.12124784e-04, 8.50154029e-04, 5.82532957e-04,
          -3.53327894e-04, -2.76568753e-04, -5.59702108e-04,
          1.66854879e-04, 6.16771926e-04, 1.21738797e-03,
          -9.40142665e-04, -5.10077341e-04, 9.13627970e-04,
          -5.28593897e-04, -4.54061461e-04 ]
      - [ 1.45048404e-03, 1.91154759e-04, -6.22066262e-04,
          1.60120800e-03, 1.51481328e-03, 1.59138188e-04, 7.35141046e-04,
          -2.72387315e-05, 9.72097187e-05, 1.40320731e-03,
          -9.46341490e-04, -3.33831675e-04, 4.59047442e-06,
          1.65724836e-04, 9.01477528e-04, 1.54433612e-04,
          -7.01398414e-04, 1.72492273e-05, -3.66077555e-04,
          1.99612594e-04, 6.15835888e-04, 1.50380901e-03, 1.02089834e-03,
          -1.23855643e-04, 1.61205803e-03, -8.59386870e-04,
          5.25717187e-05 ]
      - [ 1.48439105e-03, -3.55104712e-04, -3.75208110e-05,
          -2.46308278e-03, -6.70221227e-04, 7.21138436e-04,
          1.49259251e-03, -1.04202144e-03, 2.79161235e-04,
          9.38935613e-04, -3.88421613e-04, 1.16117438e-03,
          -8.75870464e-05, -1.29587483e-04, 3.17961501e-04,
          1.50384475e-03, -1.51699482e-04, 7.10433756e-04,
          1.48820388e-03, -1.69580075e-04, -8.69119714e-04,
          1.89923134e-03, -6.68731693e-04, -2.22090195e-04,
          1.80253724e-03, -1.05643622e-03, -6.05471374e-04 ]
      - [ 2.02568667e-03, 4.46714985e-04, 1.11028843e-03, 1.29446550e-03,
          -1.08859816e-03, -1.42446335e-03, 1.56811194e-03,
          3.99641693e-03, -1.75119407e-04, 1.47177745e-03,
          2.43997388e-03, -1.12127185e-04, -2.40161340e-03,
          -3.02212313e-03, 1.73888227e-03, -4.36306989e-04,
          2.27234536e-03, 5.33646205e-04, 1.18306570e-03, 6.13671588e-03,
          -9.73145012e-04, 1.88704894e-03, -5.43703837e-03,
          2.51009915e-04, 1.62393821e-03, 1.31443480e-03,
          -7.83592477e-05 ]
      - [ 7.25453533e-03, 2.10886642e-01, -3.96331362e-02,
          -4.65641916e-02, 2.09600791e-01, 7.27984086e-02,
          -8.87225121e-02, 2.09018961e-01, 1.48020655e-01,
          -3.74872759e-02, 3.69090438e-02, -3.08663938e-02,
          -1.04826398e-01, 5.99840693e-02, -6.11607768e-02,
          1.59633160e-02, -6.07750844e-03, -2.13589191e-01,
          1.38793141e-03, -1.46411046e-01, 1.87901899e-01,
          3.54143791e-02, -1.89188361e-01, 9.05032977e-02,
          -1.83062181e-02, -2.07647920e-01, 1.16767161e-01 ]
      - [ 5.85562875e-03, -2.98288814e-03, 4.32266332e-02,
          7.35825002e-02, 4.93373312e-02, -1.93878021e-02,
          3.76216397e-02, 7.36927148e-04, -4.51085046e-02,
          -3.49409319e-02, -1.48511939e-02, 2.62672845e-02,
          -8.69905427e-02, -2.99999700e-03, -5.14204204e-02,
          6.19199313e-03, -4.19674404e-02, -8.47684145e-02,
          9.22676995e-02, -1.15204928e-02, -2.76724640e-02,
          -1.20180822e-03, 2.50302441e-03, -7.16474950e-02,
          2.22822949e-02, 3.12377177e-02, -1.09203175e-01 ]
      - [ 2.68375198e-03, -2.86910892e-03, -1.50758764e-02,
          -6.26780931e-03, 2.21255254e-02, -4.01744526e-03,
          6.59965491e-03, -1.03738634e-02, 2.30658036e-02,
          -1.00797070e-02, 3.06575634e-02, -6.81402301e-03,
          3.46351624e-03, 1.65042281e-02, -5.31620439e-03,
          7.76031241e-03, -2.99352277e-02, 1.99071765e-02,
          9.38524026e-03, -1.50117502e-02, -2.01604031e-02,
          -9.90840024e-04, -2.58408170e-02, -2.83784010e-02,
          5.73880132e-03, 1.25788907e-02, -4.65413416e-03 ]
      - [ 1.61306420e-03, 1.11781871e-02, -2.13347521e-04,
          2.20843195e-03, 2.82951421e-03, -3.31160123e-03,
          -6.19213283e-03, 4.29616048e-04, -7.35265762e-03,
          -5.44259278e-03, 2.37377873e-03, -1.22263040e-02,
          4.75230534e-03, -1.09780091e-03, -5.01488568e-03,
          -1.64601218e-03, -3.70902778e-03, 4.40846616e-03,
          2.01519812e-03, -1.10812590e-03, 1.94410724e-03,
          -2.05345755e-03, -5.32240514e-03, 1.54251903e-02,
          -1.42079836e-03, -1.77557599e-02, 7.31972046e-03 ]
      - [ 2.70916685e-03, 3.26553010e-03, 5.61040593e-04, 1.94513214e-05,
          6.16824534e-03, 7.90029953e-05, -2.98962568e-05,
          2.18571839e-03, -3.35309724e-03, -2.19473126e-03,
          3.49394162e-04, -8.80099979e-05, 3.64538259e-03,
          -2.62758089e-03, 7.32975139e-04, 5.76770515e-04,
          -4.68613440e-03, -2.09319498e-03, -7.30912550e-04,
          -7.09984743e-04, 6.68047741e-03, 1.68771367e-03,
          -8.56643834e-04, -1.62335462e-03, 3.00405454e-03,
          -9.01322273e-05, 2.16373315e-04 ]
      - [ 1.18239049e-03, 1.40184944e-03, 1.87157874e-03, 3.35719925e-03,
          -1.07483356e-03, -3.65782203e-03, 1.05845358e-03,
          -6.98605552e-04, -2.63218395e-03, -4.81029449e-04,
          1.96306990e-03, -7.61246600e-04, -7.55019602e-04,
          1.12184661e-03, 1.44132238e-03, -8.66276503e-04,
          -2.61596404e-03, -1.78046525e-03, 1.53133518e-03,
          -4.17471427e-04, 3.39535414e-03, 4.17531189e-03,
          5.06848912e-04, 1.49918511e-03, -1.01755257e-03,
          -1.30496488e-03, 8.83661152e-04 ]
      - [ 1.25559035e-03, -5.17368596e-03, -1.64610113e-03,
          1.88100070e-03, 8.47240008e-05, -4.65033576e-03,
          2.07582302e-03, 9.56523581e-04, 4.08312259e-03, 7.13576388e-04,
          -3.11848777e-03, -8.55296443e-04, -2.17079394e-03,
          -1.11379792e-04, -3.21701691e-06, 2.14019528e-04,
          -3.88842472e-03, 2.26726104e-03, 2.59669177e-05,
          1.99371876e-04, 4.20703413e-03, 3.27247707e-03, 3.09420982e-03,
          5.13799209e-03, 1.04667339e-03, 2.01758370e-03,
          -6.82802871e-03 ]
      - [ -2.32990642e-04, 1.59542041e-03, -1.38663512e-03,
          1.15327747e-03, 9.93314548e-04, -5.41083806e-04,
          1.36647793e-03, -1.67280820e-03, 2.24090950e-03,
          3.53621366e-03, 1.92735414e-03, 5.85214875e-04, 2.68885196e-04,
          5.18508349e-03, -3.29611194e-03, 2.12093838e-03,
          -2.13322765e-03, 7.88326492e-04, -8.49232019e-05,
          -1.05020124e-03, 4.56645899e-03, 2.39369270e-04,
          4.76100901e-03, -4.17974405e-03, 6.91933208e-04,
          2.04891223e-03, -1.06610509e-03 ]
      - [ 1.95707334e-03, -8.91946815e-03, -1.06535666e-03,
          5.61522669e-04, -4.50061169e-03, 8.39488712e-05,
          1.01193471e-03, 1.53419829e-03, 7.82180764e-03, 2.53640255e-03,
          9.29650012e-03, -4.32410929e-03, -1.74152810e-04,
          2.62635224e-03, -5.52142039e-03, 2.43291492e-03,
          2.35621957e-03, -4.15941002e-03, -6.50184520e-04,
          4.82724188e-03, 6.53926888e-03, 2.13340227e-03,
          -2.00368767e-03, -1.47699739e-03, -1.07304589e-03,
          -4.32498660e-03, 1.69726228e-03 ]
      - [ 1.11660722e-03, -3.94013803e-03, 3.45515611e-04,
          1.47450250e-04, -1.03747426e-03, 2.71687470e-03,
          2.01739269e-04, -1.38173159e-03, -5.92929020e-04,
          1.78287062e-03, 5.45280334e-03, -3.39442608e-03,
          4.52146726e-03, 4.53616306e-03, -4.22208058e-03,
          2.17262143e-03, 3.80506669e-03, 2.35288730e-03,
          -9.57034237e-04, -2.01528845e-03, 4.88590635e-03,
          3.16246878e-05, 5.65975020e-03, -1.29050179e-03,
          -5.06623241e-04, -1.01815641e-03, -4.09336266e-04 ]
      - [ 1.94057822e-03, -3.74138122e-04, 2.41597579e-03,
          -2.59229913e-04, 1.29858835e-03, 6.11561409e-04,
          6.53549796e-04, -9.66267689e-05, 8.47600808e-04,
          -4.93330881e-04, 2.47209752e-03, -4.35737567e-03,
          2.04525166e-03, 1.79565593e-03, -1.95758650e-03,
          1.92509405e-03, 1.04862591e-03, 4.10701439e-04, 1.68521178e-03,
          -1.82315835e-03, 3.87748657e-03, -2.79682456e-04,
          -1.30891887e-04, -2.93479487e-03, 1.06647634e-03,
          9.33991745e-04, 6.33615011e-04 ]
      - [ -1.04434567e-03, 9.64306353e-04, 5.01731411e-04,
          -2.35420279e-03, 1.12105254e-03, -1.54728419e-04,
          -3.93708906e-04, -2.68613687e-04, 8.16307322e-04,
          -2.79811036e-04, -3.82852420e-04, 1.56779661e-05,
          -6.19372993e-04, 1.99227463e-04, -3.16907652e-04,
          8.40120076e-04, 3.37949779e-04, -1.25279796e-04,
          -1.49129133e-03, -2.02426134e-04, 3.27846938e-04,
          -1.76539866e-03, -2.66569754e-04, -8.73588069e-05,
          -9.29704052e-04, -1.23009307e-03, -4.95858083e-04 ]
      - [ 3.10724659e-04, -2.08676769e-03, 4.95422399e-04,
          -1.29078410e-03, -1.50349209e-04, -9.73479764e-04,
          2.12941854e-03, -1.34071487e-03, 2.79029761e-03,
          -4.35795519e-04, -1.46984693e-03, 1.45961042e-03,
          1.90184059e-04, -1.33696862e-03, -6.39899750e-04,
          2.30053579e-03, -5.74069563e-04, 2.41890689e-03,
          2.52428488e-03, -9.13939846e-04, -1.03524257e-03,
          8.18596571e-04, 2.58737971e-04, -8.12981802e-04,
          1.56253995e-03, 1.08106283e-03, -1.79744326e-03 ]
      - [ 2.34622299e-03, 1.56411482e-03, 2.49024155e-03, 4.35932685e-04,
          5.10711980e-04, -1.29221275e-03, 1.90304965e-03,
          1.26702921e-03, -9.83211794e-04, 8.03245173e-04,
          3.13241966e-03, -2.21112533e-03, -2.75143143e-03,
          1.01003423e-03, 3.84755712e-03, 1.14909117e-03,
          -6.43446110e-04, 3.18169850e-03, 3.42090148e-03,
          2.14816048e-03, 3.46168556e-04, -1.11357740e-03,
          -2.99978000e-03, -2.47384491e-03, 2.07286212e-03,
          2.36798567e-03, -2.75345752e-03 ]
      - [ 3.45836617e-02, 9.52168629e-02, 3.95157710e-02,
          -1.78971759e-03, 8.40511546e-02, 1.02268241e-01,
          -3.57830860e-02, 8.88457373e-02, 7.79138952e-02,
          -6.28933236e-02, -5.66538516e-03, -7.90481269e-02,
          1.13956174e-02, -2.06941739e-02, -8.26458037e-02,
          -7.65996650e-02, -1.27332397e-02, -2.35908389e-01,
          7.47429952e-02, -9.93233770e-02, 1.38091415e-01,
          -7.72521347e-02, -9.19557214e-02, 7.67591521e-02,
          -1.43980077e-02, -9.72769186e-02, 6.63318485e-02 ]
      - [ -3.74829285e-02, -7.38990456e-02, 4.60321046e-02,
          1.26695201e-01, -2.20466349e-02, -1.28798531e-02,
          -2.82890145e-02, -2.43853405e-02, -5.20766638e-02,
          -8.70242063e-03, -3.66743244e-02, 9.12331976e-03,
          -9.31597129e-02, -8.24057311e-03, -2.53830268e-03,
          7.42598847e-02, -2.64574513e-02, -2.51875632e-02,
          1.07673146e-01, -1.84024405e-02, -2.49259453e-02,
          -3.48394774e-02, 2.75776424e-02, -3.33696604e-02,
          -5.07906824e-02, 3.60831842e-02, -5.58262095e-02 ]
      - [ 8.30040965e-03, -5.31435339e-03, 4.75893635e-03,
          -1.18314642e-02, 9.97550692e-03, 3.65621853e-03,
          6.27485430e-03, -2.79002339e-02, 2.99053695e-02,
          -5.06603764e-03, 2.48418469e-02, -1.06677376e-02,
          -2.71680229e-03, 5.45180868e-03, -1.58079267e-02,
          1.92577252e-03, -2.81753242e-02, 2.53495807e-03,
          4.23171418e-03, -6.79989392e-03, -1.14639793e-02,
          -1.92688615e-03, -1.47179579e-02, -2.34961547e-02,
          1.44173149e-02, 3.21100019e-02, -1.80597920e-02 ]
      - [ 1.36967155e-03, 9.22594033e-03, -3.80246143e-04,
          -2.60436535e-03, -1.97475799e-03, -4.97914571e-03,
          -5.32393530e-03, -8.53455346e-03, -5.28090261e-03,
          -8.51357356e-03, 5.79976337e-03, 2.12087738e-03,
          3.72048444e-03, 4.63733636e-03, -2.91103404e-03,
          1.46303046e-03, -7.39079143e-04, 7.88767170e-03,
          5.17605525e-03, -9.93769034e-04, -1.00901006e-02,
          -2.86853919e-03, -3.85027193e-03, -1.51408967e-04,
          -2.92065612e-04, -1.43568786e-02, 8.59778002e-03 ]
      - [ -1.45396136e-03, 1.31473425e-04, 4.05042339e-03,
          -4.53153858e-03, -1.43263070e-03, -8.99588596e-03,
          -1.25682284e-03, 8.36942578e-04, -3.57257179e-03,
          -4.91223810e-03, 4.05958126e-05, 3.92828463e-03,
          4.73461259e-04, -1.44194416e-03, -4.80675464e-03,
          -7.49269035e-04, 7.89177375e-06, -4.37299116e-03,
          -1.36761577e-03, -2.14635464e-03, 6.66877022e-03,
          -2.50733271e-03, 3.59111174e-04, 1.89258993e-04,
          1.77824241e-03, -6.01995271e-03, 1.08104956e-03 ]
      - [ -1.63705423e-04, 1.81273709e-03, -1.20240694e-03,
          -3.32939485e-03, -3.06632393e-03, -7.07790721e-03,
          2.10678368e-03, -1.99945341e-03, -3.42478440e-03,
          -2.04329682e-03, 1.09123893e-03, 2.20473646e-03,
          9.77480668e-04, 2.35554087e-03, -4.27994272e-03,
          -4.42216126e-03, 1.23495061e-03, 4.60490631e-03,
          8.93063669e-04, -1.00668415e-03, 3.92121670e-04,
          -1.42955675e-03, 2.65537645e-04, 2.84939506e-05,
          -3.10118543e-03, -4.93896951e-04, 2.99439440e-03 ]
      - [ 3.95147908e-05, -2.38931924e-03, -2.78855185e-03,
          6.65892498e-04, -4.14146157e-03, -2.15663225e-03,
          -3.11657146e-04, -3.98083683e-03, 3.99115635e-03,
          -1.14079309e-03, -1.74900831e-03, -3.00305849e-03,
          -2.76392349e-03, 4.76720859e-04, 1.53576292e-03,
          -2.97340751e-03, 3.19977971e-06, 2.87426496e-03,
          -7.01711513e-04, 3.19341174e-03, 2.85844342e-03,
          -5.20023284e-04, 2.20786151e-03, 2.67674262e-03,
          7.74800894e-04, 3.22709489e-03, -6.85439864e-03 ]
      - [ 3.56276112e-04, -7.17862102e-04, 3.87654686e-03,
          -2.29786010e-03, -5.03096846e-04, -5.28709497e-03,
          -1.15512661e-03, -4.63670073e-03, 3.91978631e-03,
          -5.52205485e-04, 3.98989534e-03, -1.85216113e-03,
          -1.12547644e-03, 7.16922618e-03, -2.05360539e-03,
          -1.29239145e-03, -2.45366734e-03, 3.45030124e-03,
          -1.74233981e-03, 2.00373307e-03, -1.19494543e-04,
          -1.72456820e-03, 8.00518319e-03, -8.85071140e-03,
          -2.23110197e-03, -3.43850069e-03, 4.07588808e-03 ]
      - [ 1.93988543e-03, -6.20706519e-03, 2.08106590e-03,
          5.71915356e-04, -5.06785884e-03, 2.15018890e-03,
          1.27643556e-03, -8.55466409e-04, 3.53587139e-03,
          2.18406878e-03, 8.62776302e-03, -2.99458834e-03,
          -1.81365747e-03, 4.25223866e-03, -7.33840419e-03,
          1.76623929e-03, 1.70021132e-03, -5.17382799e-03,
          1.05184969e-03, 2.96715135e-03, -4.12462163e-04,
          1.24316348e-03, 1.25660340e-03, -2.81662541e-03,
          4.59901348e-04, -3.68491863e-03, 1.09802792e-02 ]
      - [ -7.57770846e-04, -7.57094193e-03, 3.61651648e-04,
          -1.98316015e-03, -2.28732475e-03, 1.20623758e-04,
          -1.83759735e-03, -2.48185988e-03, 1.76757411e-03,
          1.26726867e-03, 1.96663127e-03, 1.09476910e-03, 2.29890528e-03,
          6.10576430e-03, -7.19270809e-03, 9.89474356e-04,
          1.48589723e-03, 8.91650561e-04, -4.48167743e-03,
          1.45887758e-03, 1.56265777e-03, -7.54978566e-04,
          6.96591521e-03, -6.70511683e-04, -2.40044319e-03,
          -5.71151380e-04, 2.85492651e-03 ]
      - [ 1.93079934e-03, -1.88779016e-03, 5.03768038e-04,
          -5.13773062e-04, 2.46324576e-03, 6.10797666e-04,
          1.25676929e-03, -1.49731396e-03, 2.50943983e-03,
          -3.15585232e-04, 2.00089091e-03, -1.15053460e-03,
          1.80691865e-03, 1.96937076e-03, -2.06466252e-03,
          1.16963487e-03, -6.93684487e-05, -3.24734394e-03,
          1.70400017e-03, 3.24208901e-04, 1.92177307e-03, 6.65417407e-04,
          2.75838817e-03, -7.74571381e-04, 4.40731383e-04,
          -6.40283164e-04, 2.21367320e-03 ]
      - [ 5.64538059e-04, -1.55323520e-04, 3.60723789e-04,
          -8.46994750e-04, -2.63598445e-03, -2.03746109e-04,
          1.56368571e-03, -3.96336283e-04, 1.03998126e-03,
          -1.76170011e-04, 5.50246215e-04, 1.21419248e-03,
          1.74007472e-03, 2.42330105e-04, -1.34832785e-03,
          2.01057759e-03, -8.39270826e-04, 3.61151673e-04,
          2.00293865e-03, -4.93765285e-04, -8.23024020e-04,
          -1.75843539e-04, -2.36691936e-04, 1.22099882e-04,
          1.40667812e-03, 1.13122410e-03, 1.93115833e-04 ]
      - [ 2.41962611e-03, 6.65566698e-03, -2.32109544e-03,
          -1.88640115e-04, -1.95666193e-03, 2.79372465e-03,
          1.88616687e-03, 8.72768834e-03, -6.83783507e-03,
          2.97389831e-03, 4.35211509e-03, -5.70261665e-03,
          1.13293226e-03, -3.96752404e-03, 8.53295811e-03,
          1.68299454e-03, 5.64708316e-04, -1.81154428e-05,
          1.24848669e-03, 6.79813605e-03, -1.68234413e-03,
          -4.20770608e-03, -8.68132524e-03, 5.53254876e-03,
          1.52748940e-03, -4.65140183e-04, -1.82173913e-03 ]
      - [ 3.51242386e-02, 1.00281633e-01, 7.48814717e-02,
          -1.65715106e-02, 8.02866369e-02, 1.00573204e-01,
          -4.14758595e-03, 9.90661755e-02, 8.37695450e-02,
          -3.82300839e-02, 1.51009345e-02, -8.78135115e-02,
          1.42554343e-02, 2.45096534e-03, -3.68790403e-02,
          -1.11711305e-02, -1.15117123e-02, -2.67666996e-01,
          2.09228974e-02, -8.75288025e-02, 1.60306618e-01,
          -3.50385085e-02, -9.21093747e-02, 7.43103474e-02,
          -4.24810685e-02, -8.14610347e-02, 5.92040084e-02 ]
      - [ 1.28602504e-03, -9.19590611e-03, 9.32467449e-03,
          7.00701922e-02, 1.43635273e-03, -1.50717446e-03,
          -1.47353439e-02, -2.14368179e-02, -1.44170756e-02,
          -3.44466604e-02, 1.10730901e-02, 4.07866202e-03,
          -6.69884458e-02, 1.36152580e-02, -1.09557752e-02,
          1.87737355e-03, -1.63138136e-02, -2.55547073e-02,
          8.52355883e-02, 7.08001666e-03, -3.99794476e-03,
          -2.72036120e-02, 1.32178497e-02, -2.34366953e-02,
          1.55977719e-02, 9.78803821e-03, -4.21706177e-02 ]
      - [ 7.96120521e-03, -2.74473312e-03, -2.53763851e-02,
          -2.55533047e-02, 6.54945895e-02, -5.33970864e-03,
          6.74225669e-03, 1.48472833e-02, 5.32258302e-02,
          -1.68207474e-02, 3.32346000e-02, -2.78851651e-02,
          1.95305627e-02, 2.76573524e-02, -1.71069149e-03,
          -5.46814954e-05, -1.36875873e-02, 2.89189015e-02,
          2.04683021e-02, -3.08080725e-02, -5.73950596e-02,
          -6.60559337e-04, -3.79141159e-02, -3.97207774e-02,
          7.46421143e-03, 4.09295931e-02, -2.36880518e-02 ]
      - [ 1.11853331e-03, 9.34557151e-03, -4.64117620e-03,
          -2.78206705e-03, -2.34659342e-03, -1.23068793e-02,
          -4.60548513e-03, -2.88778450e-04, -9.23511665e-03,
          -6.96701463e-03, 6.36912510e-03, -4.08942346e-03,
          4.74163005e-03, 1.33499107e-03, 3.62743647e-03,
          -9.38542653e-04, -3.22207436e-03, 1.17331650e-02,
          5.38994733e-04, -4.64378856e-04, -6.33688585e-04,
          -3.92970815e-03, -7.91544002e-03, 5.61786629e-03,
          -2.42592441e-03, -1.40447989e-02, 5.05872676e-03 ]
      - [ 2.72569340e-03, 8.51656834e-04, 2.62846448e-03,
          -1.86909409e-03, -3.05040251e-03, -9.95258801e-04,
          2.75952276e-03, 5.89074974e-04, -7.28501892e-03,
          -4.84871911e-03, 2.97570555e-03, -5.46926283e-04,
          7.43442494e-03, -4.40435205e-03, -2.60418491e-03,
          -3.47738597e-03, -6.15148479e-03, -2.14464890e-04,
          2.61795451e-03, 4.43944428e-03, 2.26331619e-03, 1.70844246e-03,
          -3.99725745e-03, 5.16766049e-05, 3.36039090e-03,
          -2.12027784e-03, 1.71830505e-03 ]
      - [ 1.03563734e-03, -5.18854382e-03, -1.97222224e-03,
          1.06757926e-03, -4.87799291e-03, -1.72075548e-03,
          2.66735582e-03, -3.77193186e-03, -5.95732452e-03,
          9.71274509e-04, 3.33058648e-03, -6.83543133e-03,
          2.43051350e-03, 5.40952431e-03, -7.80580915e-04,
          -1.72600895e-03, 4.17938968e-03, 2.28956412e-03,
          1.39396510e-03, 4.56437329e-03, 2.83361995e-03, 2.82702688e-03,
          -2.04828312e-03, 6.16612937e-03, -1.94534636e-03,
          2.22846633e-03, -9.20373805e-06 ]
      - [ -5.44221082e-04, -4.50004404e-03, -4.15489031e-03,
          5.03506628e-04, -6.94497256e-03, -5.49715105e-03,
          3.25553876e-04, -6.55101705e-03, -3.86604969e-03,
          -1.72959454e-03, 3.52897099e-03, -1.42570189e-03,
          4.97772708e-04, 2.60184030e-03, 4.33513988e-03,
          -3.85253690e-03, -2.33764201e-03, 4.94798692e-03,
          -1.72831852e-03, 7.34066823e-03, -1.84606540e-03,
          1.72538479e-04, -1.46626041e-03, 7.93652236e-03,
          -8.38570195e-05, 1.24797793e-04, -4.99928882e-03 ]
      - [ 1.90201018e-03, -3.00601916e-03, 4.24333895e-03,
          -5.15336171e-04, -2.73924437e-03, 1.94181420e-03,
          2.65477749e-04, -1.63768814e-03, 5.29676909e-04,
          -2.43723451e-04, 8.54153745e-03, -9.33997426e-03,
          3.46476538e-03, 3.73237720e-03, -2.18568719e-03,
          4.10257198e-04, 2.20704381e-03, 7.39068398e-03, 2.73154257e-03,
          7.37824058e-03, -1.64250284e-03, 5.85253816e-04,
          -4.91071085e-04, -4.58747428e-03, -1.91225990e-04,
          -2.67024501e-03, 2.54525663e-03 ]
      - [ 1.50342716e-03, -3.33316182e-03, -6.45137843e-05,
          1.33248710e-03, -2.75116041e-03, -6.64266245e-03,
          6.08500632e-05, -1.96818146e-03, 1.43970386e-03,
          1.01048243e-03, 9.96287912e-03, -5.05995611e-03,
          -1.67963677e-03, 5.04327053e-03, -1.10104925e-03,
          3.20371101e-03, 1.78960408e-03, 3.34655493e-03, 7.67955906e-04,
          4.40855045e-03, -5.51357807e-04, 1.37264107e-03,
          -4.69575357e-03, 2.27813120e-03, 8.26381322e-04,
          -5.29870251e-03, 6.59811450e-03 ]
      - [ -1.26520090e-03, -3.37592349e-03, -2.54943315e-03,
          -2.60472973e-03, -1.86469627e-03, 2.06460420e-04,
          -1.06983865e-03, -2.20511388e-03, -1.04309595e-03,
          -7.64230499e-04, 6.59293542e-03, -4.26137308e-03,
          3.20700114e-03, 3.57150077e-03, -1.99722871e-03,
          1.84491437e-04, 1.60852273e-03, 2.14042934e-03,
          -6.05620327e-04, 4.33916430e-04, 3.81685863e-03,
          -2.67934869e-03, 1.90830487e-03, 2.92002282e-04,
          -2.16440717e-03, 4.30465501e-04, -5.89327537e-04 ]
      - [ 5.37649728e-04, -1.68489118e-03, 6.98916381e-04,
          2.42914236e-03, -4.02039645e-04, 2.04718625e-03,
          -8.88491573e-04, -9.63918574e-04, -4.76161391e-03,
          -1.19004631e-04, 5.28640347e-03, -3.58697493e-03,
          1.63878477e-03, 3.32470611e-03, -2.54043285e-03,
          1.15677970e-03, 1.11557473e-03, 5.82911482e-04, 1.95768662e-03,
          3.95118073e-03, 6.16044854e-04, 1.14059087e-03,
          -1.86590303e-03, 9.06843707e-05, 6.18678809e-04,
          -1.73266232e-03, 2.60363217e-03 ]
      - [ 2.42385943e-03, 8.05365737e-04, -1.06613897e-03,
          1.69430961e-04, -4.95768478e-03, 7.05373334e-03,
          4.34798561e-03, 7.05324952e-03, -5.83257293e-03,
          3.30962148e-03, 3.38038732e-03, -4.76633757e-03,
          -2.56602792e-03, -4.89290291e-03, 1.44471452e-02,
          1.43320346e-03, 5.51885506e-03, -2.39152275e-03,
          2.46111117e-03, 9.21747833e-03, -9.71556082e-03,
          -7.50291767e-03, -7.38890329e-03, 6.59865933e-03,
          4.10380773e-03, 5.41513646e-03, -4.62371018e-03 ]
      - [ 4.65233289e-02, 1.13893434e-01, 2.85851266e-02,
          -3.55011374e-02, 4.15869914e-02, 2.94073652e-02,
          -9.23828483e-02, 7.45228976e-02, 6.69176877e-02,
          -2.24332381e-02, 6.42463416e-02, -3.34826820e-02,
          -6.11610003e-02, -3.90266553e-02, -1.11979432e-01,
          2.89276559e-02, -3.88043784e-02, -2.16946319e-01,
          1.82448386e-03, 2.64973938e-02, 1.26050115e-01, 4.12858883e-03,
          -9.21842605e-02, 3.22346948e-02, 2.94368807e-03,
          -1.20942824e-01, 7.78220668e-02 ]
      - [ 1.34135168e-02, -2.24748417e-03, -1.26640243e-03,
          4.34708595e-02, 5.69534081e-04, -9.21345502e-03,
          7.90491514e-03, -1.52983156e-03, -1.81953348e-02,
          -1.69759579e-02, -3.33560311e-04, -4.10722662e-03,
          -2.02218238e-02, -5.73822588e-04, -1.42591847e-02,
          3.79079743e-03, -4.27052518e-03, -1.99079681e-02,
          2.90209502e-02, 9.80735640e-04, -3.59964930e-03,
          -1.07479878e-02, 4.23122547e-04, -1.49353007e-02,
          -2.85058189e-02, 3.00529436e-03, -2.33666189e-02 ]
      - [ 2.14956459e-02, -2.15887818e-02, -1.32732084e-02,
          -9.66021419e-03, 1.28530124e-02, -2.35983692e-02,
          6.15939312e-02, 8.08855984e-04, -1.05357787e-03,
          -8.17311928e-03, 4.59238002e-03, -4.32960950e-02,
          1.53805362e-02, 5.40431775e-03, -4.00785990e-02,
          -1.16879037e-02, -9.74626280e-03, -1.93900149e-02,
          7.17039853e-02, -8.60758498e-03, -6.02497682e-02,
          -5.83028868e-02, -1.69130377e-02, -6.47078902e-02,
          -9.67167784e-03, 5.86594343e-02, -4.14244086e-02 ]
      - [ 6.20624807e-04, 1.02111259e-02, -5.82878571e-03,
          -3.13551776e-04, 4.12185770e-03, -2.22418439e-02,
          -3.19408742e-03, 8.83445982e-03, -6.61264360e-03,
          -5.21759549e-03, 7.04249414e-03, -3.63734900e-04,
          2.85378215e-03, -1.03260751e-03, -1.06108573e-03,
          -3.74897849e-03, -1.07939560e-02, 8.07773508e-03,
          -4.71759634e-03, -2.04533292e-03, -1.74237485e-03,
          -1.37320894e-03, -1.22168930e-02, 8.97346716e-03,
          -3.83542292e-03, -1.25515871e-02, 1.12294508e-02 ]
      - [ 2.15116632e-03, 5.02539985e-03, 2.38005025e-03, 3.38352897e-04,
          6.98072184e-03, -1.32681737e-02, -6.74312422e-03,
          1.04564168e-02, -1.04786325e-02, -1.08810849e-02,
          5.43065742e-03, -6.69637375e-05, 4.86377720e-03,
          -3.81317385e-03, -4.18181857e-03, 3.58014088e-03,
          -1.25967106e-02, -5.94905950e-03, 1.40822027e-03,
          -5.91615960e-03, 7.22525548e-03, -8.22183117e-03,
          -7.21568102e-03, 3.80093185e-03, -1.91427744e-03,
          -1.09825209e-02, 1.03132864e-02 ]
      - [ -1.72701839e-04, -5.55256521e-03, -5.04758814e-03,
          6.32645679e-04, -9.78722237e-04, -9.49740503e-03,
          -1.13424772e-04, 1.08393971e-02, -7.91970268e-03,
          -8.02550279e-03, 5.17040007e-06, -4.99950768e-03,
          1.42978877e-03, 1.77667581e-03, 2.04102209e-04,
          -3.90940951e-03, -4.24612872e-03, 3.34548368e-03,
          2.24928884e-03, -9.13819007e-04, -5.69530472e-04,
          -5.52815734e-04, -9.41188599e-04, 6.11196971e-03,
          -3.63595551e-03, -2.05690274e-03, 8.51800572e-03 ]
      - [ 1.32973294e-03, -2.43516988e-03, -8.16744100e-03,
          -2.63153668e-03, -4.57421760e-04, -9.12100263e-03,
          2.51806481e-03, 6.05652435e-03, -5.11127757e-04,
          -4.10775654e-03, 2.51427107e-03, 1.56417326e-03,
          -1.78595411e-03, 1.04312692e-03, 3.06097325e-03,
          -3.87267745e-03, -5.67747653e-03, 5.30686881e-03,
          -1.21343078e-03, 1.18765805e-03, 3.25780665e-03,
          -6.38224941e-04, -1.72326306e-03, 3.54438950e-03,
          -1.02134410e-03, -2.77073192e-03, -1.13416335e-03 ]
      - [ -1.96549762e-03, -5.55734499e-04, 4.37878119e-03,
          -3.46367527e-03, 4.22089221e-03, -1.00895651e-02,
          1.64035615e-03, 2.34727771e-03, -2.11294438e-03,
          1.88501761e-03, 8.89220973e-04, -7.26098544e-04,
          2.07602326e-03, 5.60269738e-03, -9.53105744e-03,
          -1.67171820e-03, 6.82689715e-04, 2.89601786e-03,
          -2.63989973e-03, -1.34839956e-03, 7.94774108e-03,
          -2.29818723e-03, 1.83665950e-03, -2.06484715e-03,
          -7.36116141e-04, -1.74330734e-03, 6.67933235e-03 ]
      - [ 1.44434231e-03, -3.64662637e-03, -3.47371097e-03,
          8.38491425e-04, -2.32477696e-03, -3.83803528e-03,
          5.65741386e-04, 4.58999583e-03, 2.90532433e-03, 1.38770568e-03,
          8.30033422e-03, -5.00272820e-03, -9.02272877e-04,
          2.15526065e-03, -8.60858802e-03, 3.43475514e-03,
          2.66489689e-03, -7.29489699e-03, 1.56996131e-03,
          2.02939217e-03, 6.03778521e-03, 5.21678536e-04,
          -6.18628692e-03, 5.10839606e-03, -2.86571943e-04,
          -4.95896116e-03, 1.30448267e-02 ]
      - [ -2.28913175e-03, -5.70959225e-03, 3.41420015e-03,
          -2.48675328e-03, -2.39836238e-03, -1.27643812e-03,
          -2.37512193e-03, -4.15157876e-04, -1.25592935e-03,
          9.19816433e-04, 5.05716447e-03, -2.55723833e-03,
          1.17684831e-03, 5.88088622e-03, -7.37964362e-03,
          1.75873144e-03, 4.58017364e-03, -1.03412499e-03,
          -3.86665598e-03, -9.97368828e-04, 5.36659267e-03,
          -1.72908057e-03, 5.37154078e-03, -1.88629347e-04,
          -2.17297859e-03, -4.01270622e-03, 3.02151963e-03 ]
      - [ 1.26613246e-03, -4.24891972e-04, 4.74201282e-03,
          1.49829488e-03, 3.13730648e-04, -2.63260538e-03,
          4.82792966e-04, 2.85193906e-03, 9.56108735e-04,
          -7.87503668e-05, 2.82818917e-03, -3.12754815e-03,
          3.02458415e-04, 2.16783397e-03, -7.38478173e-03,
          2.67544831e-03, 2.00562389e-03, 8.31420912e-05, 2.51602917e-03,
          -2.81868619e-03, 5.53247239e-03, -6.93348469e-04,
          -9.21783911e-04, -3.28914053e-03, 1.64733108e-04,
          -8.09556164e-04, 3.79839749e-03 ]
      - [ -2.17275904e-03, -2.17275904e-03, 1.99516825e-02,
          -3.35835130e-03, 1.26992306e-03, 1.49860848e-02,
          -8.63646902e-03, -4.37528174e-03, 2.03782972e-02,
          -7.16812070e-03, -5.98252844e-03, 2.08545178e-02,
          -1.11022302e-16, -1.26992306e-03, 7.45087676e-03,
          -7.81796407e-03, -6.09662291e-03, 1.08389920e-02,
          -6.34961575e-03, -1.14293080e-02, 3.21994945e-02,
          -1.26992306e-03, -2.53984611e-03, 1.91629417e-02,
          -4.91103064e-03, -8.63646902e-03, 2.33695619e-02 ]
      - [ -7.99854472e-03, -1.25291466e-03, -2.50500906e-03,
          4.80549820e-02, 2.51980172e-03, -5.23058278e-03,
          1.65184378e-03, 1.02570804e-03, -1.44123314e-02,
          -5.39119076e-03, -3.80882062e-03, -5.97073697e-03,
          -1.57206897e-02, -4.17974498e-03, -1.43557135e-02,
          5.74484220e-05, -5.76069532e-03, -1.91554446e-02,
          3.50670740e-02, -7.01249251e-03, -3.04342993e-03,
          -5.13231521e-03, -6.68860972e-03, -1.63253918e-02,
          -2.21201666e-02, -4.30240855e-03, -2.37129238e-02 ]
      - [ 2.50538290e-02, 1.00875413e-02, -1.35262385e-02,
          -2.91257184e-02, 1.84793267e-02, -1.55030971e-03,
          4.08986285e-02, 1.27539737e-02, 2.13013752e-03, 2.79962607e-02,
          4.76976362e-04, -3.13923992e-02, 4.20176610e-02,
          -2.25728727e-03, -2.02663504e-02, 5.16426340e-02,
          -7.38199195e-03, -1.62931718e-02, -3.00127231e-02,
          -3.50522697e-02, -4.58847061e-02, -2.70871148e-02,
          -3.52203846e-02, -6.43554926e-02, -3.04573234e-02,
          7.19599146e-03, -5.32805398e-02 ]
      - [ -5.51241264e-03, 7.80104194e-03, 2.90315456e-05,
          1.21049536e-03, 2.19976320e-03, -2.22947896e-02,
          -5.21889376e-03, 2.92393932e-04, -8.51974543e-03,
          -4.95046552e-04, 5.20440331e-03, 6.47090888e-03,
          4.24806913e-03, 2.07941118e-03, -9.72737558e-03,
          -1.55447097e-03, -7.14821462e-03, 1.03357257e-02,
          -1.16324285e-03, -3.64088733e-03, 1.06210224e-02,
          -3.49644781e-03, 5.12475474e-03, 3.74265108e-03,
          -2.88326584e-04, -1.58395562e-02, 1.09906578e-02 ]
      - [ 1.60243642e-03, 4.31117881e-03, 8.10254482e-04, 5.11151319e-03,
          9.52364039e-03, -1.58954952e-02, -5.28986473e-03,
          -4.29813424e-03, 3.12657258e-03, -6.19064504e-03,
          5.72557142e-03, 2.49372865e-03, 3.90537665e-03, 3.57586704e-03,
          -1.91557929e-02, 5.21198846e-03, -1.10684745e-02,
          -7.15851551e-03, 3.56942904e-03, -7.11117731e-03,
          1.78762488e-02, -4.48844908e-03, 9.73007269e-03,
          -8.55218153e-03, -4.40602051e-03, -1.64367054e-02,
          1.67955328e-02 ]
      - [ 4.02139686e-03, -4.24472662e-03, -5.79191651e-03,
          -2.85168440e-04, 3.06065660e-03, -1.06008397e-02,
          6.44833955e-04, -8.17749463e-03, -4.52151243e-03,
          -4.01113508e-03, 6.87085232e-03, -6.01388281e-03,
          1.59041199e-03, 9.23080184e-03, -1.93296280e-02,
          -9.08419210e-03, -1.20923156e-03, -6.60265144e-03,
          1.71163725e-03, -1.52863180e-02, 1.10824509e-02,
          -1.64693501e-03, 7.48990988e-03, 4.86237404e-04,
          -6.96447969e-04, -6.55119214e-03, 1.42139336e-02 ]
      - [ 2.91156489e-03, -3.70710739e-03, -6.72984589e-03,
          -3.51564214e-03, 5.22206351e-03, -4.71914886e-03,
          -6.56111108e-04, -8.47999472e-03, -1.31039007e-03,
          -5.45361405e-03, -6.07342226e-04, -4.12826287e-03,
          -5.55937513e-05, 5.70865488e-03, -1.22131323e-02,
          -6.58133673e-03, -8.98786262e-03, -3.68773425e-03,
          -1.81504816e-03, -5.56848804e-03, 1.48305921e-02,
          -1.71786500e-03, 8.95728357e-03, 4.50497400e-03,
          -1.15153159e-03, -1.11870756e-02, 4.96114278e-03 ]
      - [ 2.34676106e-03, 1.40444178e-03, 4.06823680e-03,
          -3.37975216e-03, 7.75432913e-03, -1.47953704e-02,
          2.24450589e-04, -8.23738892e-03, 7.66290957e-03,
          -1.86933286e-03, 3.86499487e-05, -1.69451395e-03,
          1.44194259e-04, 9.19317920e-03, -1.47850942e-02,
          -1.02977583e-03, -5.14791161e-03, 3.35187465e-03,
          -1.89539138e-03, -5.29165659e-03, 1.52280619e-02,
          -1.44717097e-03, 1.01165110e-02, -3.76575254e-03,
          8.27454824e-06, -7.68564548e-03, 2.70931842e-03 ]
      - [ -1.73665548e-03, -1.39336311e-03, -1.73011946e-03,
          -8.51106131e-04, 3.46414605e-03, -7.57701928e-03,
          2.08986021e-04, -3.31986044e-03, 7.67999003e-03,
          -9.33148025e-04, -1.15507655e-03, -3.87522130e-04,
          -4.00530780e-03, 6.77829795e-03, -2.20379457e-02,
          -4.14493406e-04, -4.21998696e-03, -1.81579799e-03,
          -2.15779874e-03, -6.05323724e-03, 1.72294080e-02,
          -3.85893742e-04, 6.20116713e-03, -6.89570885e-03,
          -1.92440976e-03, -7.38176797e-03, 1.02093238e-02 ]
      - [ -1.60833797e-03, -6.51417254e-03, 1.20308634e-03,
          -2.18792446e-03, -1.19538209e-03, -8.35102424e-03,
          -1.31667731e-03, -1.43025024e-02, 7.00395182e-03,
          2.72821938e-03, 1.26088923e-03, 3.02881678e-03, 1.58285059e-03,
          9.97138489e-03, -1.84693132e-02, 3.53914686e-04,
          -2.77999486e-03, -9.06131638e-04, -4.34782635e-03,
          -6.03465922e-03, 1.33033805e-02, -4.15442802e-04,
          1.14746625e-02, -4.38412791e-03, -2.36870185e-03,
          -4.47405875e-03, 7.07769813e-03 ]
      - [ -1.11205783e-03, -2.63866386e-03, 2.22003600e-03,
          -2.37757736e-03, 4.91758762e-03, -6.83795521e-03,
          3.22987180e-05, -8.18971358e-03, 4.09550592e-03,
          -1.37489347e-03, 6.02531189e-04, -7.49624625e-04,
          -3.06745945e-03, 8.28324351e-03, -1.56819448e-02,
          -4.79128794e-04, -7.16252206e-03, -3.91574949e-03,
          -1.17850711e-03, -5.33857290e-03, 1.14321709e-02,
          -9.76727228e-04, 9.51110944e-03, -5.66819962e-03,
          2.26817603e-04, -8.36785138e-03, 7.53983855e-03 ]
      - [ 1.28636346e-03, -6.32637748e-05, -7.73223946e-05,
          1.42694963e-03, -5.62344685e-05, -9.13810145e-05,
          1.35665655e-03, -6.32637748e-05, -1.05439627e-04,
          1.18092389e-03, -5.62344685e-05, -9.13810145e-05,
          1.16686523e-03, -5.62344685e-05, -1.05439627e-04,
          1.23012904e-03, -6.32637748e-05, -9.84103244e-05,
          1.27933419e-03, -4.92051622e-05, -1.19498247e-04,
          1.13874802e-03, -4.92051622e-05, -1.33556867e-04,
          1.08954287e-03, -4.92051622e-05, -1.47615487e-04 ]
      - [ 1.33995910e-03, -7.65690929e-05, -1.22510552e-04,
          1.37058680e-03, -6.89121807e-05, -1.22510552e-04,
          1.41652825e-03, -7.65690929e-05, -1.07196727e-04,
          1.26339006e-03, -6.89121807e-05, -1.37824361e-04,
          1.30933151e-03, -6.89121807e-05, -1.30167464e-04,
          1.34761597e-03, -7.65690929e-05, -9.95398223e-05,
          1.19447778e-03, -7.65690929e-05, -1.83765820e-04,
          1.17150706e-03, -7.65690929e-05, -1.76108908e-04,
          1.21744862e-03, -6.12552758e-05, -1.60795098e-04 ]
      - [ 2.31543113e-03, -1.81637643e-05, -5.41218324e-04,
          2.59090355e-03, -8.41911897e-05, -5.55250153e-04,
          1.83060416e-03, -1.48152671e-04, -4.88189777e-04,
          2.37569050e-03, -3.11626536e-05, -4.74157889e-04,
          2.74973270e-03, -9.51241309e-05, -4.34128247e-04,
          2.17081467e-03, -1.57019662e-04, -2.59977794e-04,
          2.78588687e-03, -5.50944860e-05, -5.16253465e-04,
          2.40505114e-03, -1.18022988e-04, -4.07097483e-04,
          2.27480591e-03, -2.20981135e-04, -3.41070059e-04 ]
      - [ 1.57674612e-03, -4.81423951e-04, -8.56978761e-04,
          2.07732269e-03, -4.97901579e-04, -9.07167036e-04,
          2.29475787e-03, -5.19871712e-04, -9.23644693e-04,
          1.63791957e-03, -4.61822347e-04, -8.37377098e-04,
          2.38178088e-03, -4.89285041e-04, -8.53854755e-04,
          2.26255809e-03, -5.11255173e-04, -8.45238217e-04,
          2.05222866e-03, -4.53205808e-04, -8.98550497e-04,
          2.45706341e-03, -4.61066869e-04, -9.20520688e-04,
          2.26255809e-03, -4.83037031e-04, -9.76201554e-04 ]
      - [ 7.20240315e-03, -7.03646801e-04, -2.57028290e-03,
          6.19527558e-03, -5.99335122e-04, -2.57790834e-03,
          4.76327585e-03, -5.38639026e-04, -2.42998102e-03,
          2.53673992e-03, -8.90604570e-05, -1.39997702e-03,
          1.30177068e-03, 3.23316890e-05, -1.11357705e-03,
          9.90664703e-04, 7.59473332e-05, -5.67312411e-04,
          2.01549032e-03, 1.36643415e-04, -5.67312411e-04,
          1.60556007e-03, 1.36643415e-04, -3.24528111e-04,
          1.58268318e-03, 1.36643415e-04, -1.76600734e-04 ]
      - [ 9.53315571e-03, -1.22831226e-03, -3.58078326e-03,
          7.55154062e-03, -1.00639439e-03, -3.14857485e-03,
          3.04579921e-03, -7.08296429e-04, -2.35719653e-03,
          2.45633093e-03, -4.67404607e-04, -2.08496698e-03,
          1.38044741e-03, -2.51954596e-04, -1.55381637e-03,
          1.43446669e-03, -2.15546592e-04, -1.16417580e-03,
          1.16727187e-03, 8.65389884e-05, -1.81134127e-03,
          1.53490389e-03, 9.33779738e-05, -1.45453517e-03,
          2.97476188e-03, 3.05716676e-04, -2.36236351e-03 ]
      - [ 1.49621803e-03, 1.38046418e-03, -3.50826862e-03,
          3.99236986e-03, 1.85088080e-03, -6.40507648e-03,
          7.89409131e-03, 1.02025573e-03, -3.81708425e-03,
          3.55653465e-03, 2.42273114e-03, -6.03754772e-03,
          6.23925729e-03, 3.16586136e-03, -7.28133041e-03,
          8.58351961e-03, 1.87068596e-03, -3.50400852e-03,
          4.41944972e-03, 3.37018282e-03, -7.34224962e-03,
          6.59505324e-03, 4.20812843e-03, -9.36807040e-03,
          9.26853623e-03, 2.61602225e-03, -6.63963379e-03 ]
      - [ 2.59911711e-03, 1.37865741e-03, -1.11719882e-02,
          3.60408728e-03, 6.24610868e-04, -7.76766753e-03,
          4.17789444e-03, -2.04961951e-04, -9.21342580e-04,
          4.10434976e-03, 4.53304872e-03, -1.21514937e-02,
          3.52412160e-03, 2.63241515e-03, -1.02091096e-02,
          4.90923878e-03, 6.52690185e-04, -3.36455833e-03,
          3.35708517e-03, 4.62077139e-03, -1.09360423e-02,
          3.77065782e-03, 2.62972666e-03, -8.62413179e-03,
          2.29395903e-03, 3.14783945e-04, -1.92836975e-03 ]
      - [ 6.76493766e-03, -4.15340671e-03, -6.22321246e-03,
          7.38729490e-03, -2.11254181e-03, -8.73216242e-03,
          4.76010563e-03, -1.75756763e-03, -5.94344875e-03,
          2.93443017e-02, 7.86635652e-03, -3.05042951e-03,
          5.51493503e-02, 1.08114509e-02, -4.52602981e-03,
          2.87375227e-02, 9.43001173e-03, 4.31617489e-03,
          -1.28528525e-04, 8.03595036e-03, -6.76660286e-03,
          4.06218739e-03, 1.08862929e-02, -6.36739889e-03,
          1.35932444e-03, 8.06752313e-03, -3.39798583e-03 ]
      - [ 3.78423324e-03, 1.82032643e-03, -6.43422036e-03,
          7.01163569e-03, 2.64482154e-03, -1.19969016e-02,
          5.68006095e-03, 1.36037462e-03, -7.54515361e-03,
          6.06085919e-03, 3.52011342e-03, -8.44524335e-03,
          7.37963524e-03, 4.26802970e-03, -1.36563554e-02,
          7.07815448e-03, 3.14508006e-03, -7.93573819e-03,
          7.07781874e-03, 3.79957096e-03, -1.00112660e-02,
          6.63639838e-03, 4.29918058e-03, -1.39074316e-02,
          9.20982193e-03, 3.14338226e-03, -9.65110213e-03 ]
      - [ -9.59808007e-03, -1.19976001e-03, -5.99880004e-03,
          -2.87942421e-02, -1.19976001e-03, -3.59928026e-03,
          -9.59808007e-03, -1.19976001e-03, 1.19976001e-03,
          -3.59928026e-03, -1.19976001e-03, -5.99880004e-03,
          5.99880004e-03, -1.19976001e-03, -2.39952002e-03,
          1.19976001e-03, -1.19976001e-03, 1.19976001e-03,
          -3.11937612e-02, -3.59928026e-03, -8.39832053e-03,
          -1.07978405e-02, -3.59928026e-03, -4.79904003e-03,
          4.79904003e-03, -1.19976001e-03, 0. ]
      - [ 1.34717003e-02, 3.43064801e-03, 6.62110688e-05,
          -2.93590482e-02, -2.50604423e-03, 4.68636019e-04,
          -2.14841664e-02, -1.91877340e-03, 5.72867319e-03,
          2.21152585e-02, -4.13291669e-03, 9.59293975e-04,
          1.91938505e-02, -5.95879043e-03, 4.21315851e-03,
          -1.46473022e-02, -4.97383252e-03, 7.22517166e-03,
          -3.05985846e-02, -6.83539221e-03, -2.76380713e-04,
          9.55054071e-03, -8.37162416e-03, 7.41020823e-03,
          2.36767195e-02, -1.02436654e-02, 1.25057362e-02 ]
      - [ -1.15039537e-03, 3.29094799e-03, -4.05035308e-03,
          -8.33681896e-02, -1.17852527e-03, 4.62996261e-03,
          -1.40833575e-02, 6.89291302e-03, 1.98146328e-02,
          4.22837697e-02, -9.55511234e-04, 4.02806792e-03,
          6.77157938e-02, 2.62302184e-03, 1.14508532e-02, 1.30132735e-02,
          1.06944600e-02, 1.26264319e-02, -3.37444022e-02,
          2.44232477e-03, 1.14800269e-02, 1.60046399e-03,
          -1.20127376e-03, 8.23686738e-03, -3.50933333e-05,
          -5.66092879e-03, 1.01739708e-02 ]
      - [ 3.04569919e-02, 8.43755249e-03, -6.40549557e-03,
          -7.77646750e-02, -9.67936590e-03, 6.29037898e-03,
          -2.05438696e-02, -4.31793090e-03, 2.09665745e-02,
          3.04333307e-02, -2.16756249e-03, -1.11576337e-02,
          7.54687935e-02, -1.17521780e-02, 4.77897655e-03,
          -1.27784079e-02, -5.84613997e-03, 9.62014869e-03,
          -7.60395676e-02, -1.65296602e-04, -1.12527814e-02,
          4.37669829e-03, -1.27148004e-02, 7.82169681e-03,
          1.85352564e-02, -1.53055089e-02, 1.67078748e-02 ]
      - [ 3.07473876e-02, 1.55889113e-02, -4.65476885e-03,
          -1.21086717e-01, -2.94346758e-03, 3.10659166e-02,
          1.65136661e-02, 3.01767234e-02, 6.88717589e-02, 2.57888436e-02,
          -3.13591547e-02, -2.54440529e-04, 7.17378482e-02,
          -8.45048763e-03, 3.29986177e-02, -3.54598910e-02,
          1.75627340e-02, 6.78209066e-02, -6.08819462e-02,
          -3.71884443e-02, 3.42713855e-03, -3.45043205e-02,
          -3.55339423e-02, 2.97867078e-02, 2.95198783e-02,
          -4.86886241e-02, 8.48068818e-02 ]
      - [ -2.02840697e-02, 3.88736837e-02, -1.32820308e-02,
          -5.76548129e-02, -1.01790773e-02, 4.89510000e-02,
          -1.42349321e-02, -7.99230766e-04, 9.70333815e-02,
          6.73092306e-02, 1.07070226e-02, -1.78442672e-02,
          6.09035902e-02, -8.98423791e-03, 3.63247730e-02,
          -4.11957875e-02, -1.75896343e-02, 4.57608365e-02,
          -7.84921497e-02, -1.40242195e-02, -6.26862142e-03,
          -2.53302734e-02, -4.39183749e-02, 4.22109365e-02,
          2.49792859e-02, -6.55117258e-02, 7.59786069e-02 ]
      - [ 1.62648428e-02, 4.61357944e-02, -3.11224032e-02,
          -7.92747140e-02, 7.63312727e-03, 3.74297649e-02,
          4.25868807e-03, -3.35541442e-02, 6.41207099e-02,
          4.14453745e-02, 4.73139202e-03, -2.11297628e-02,
          4.02531773e-02, -1.28596555e-02, 4.34617586e-02,
          -4.79711704e-02, -8.38549715e-03, 7.66995475e-02,
          -8.73729289e-02, -3.78205767e-03, 1.56111931e-02,
          4.07044264e-03, -5.09768650e-02, 6.33503199e-02,
          1.00297751e-02, -5.77216931e-02, 1.07647397e-01 ]
      - [ 1.24509893e-02, -3.96840181e-03, -3.49860974e-02,
          -3.04833557e-02, -1.25363106e-02, 2.21967418e-02,
          -9.28771868e-03, 5.96245693e-04, 5.82892373e-02,
          8.67196452e-03, -2.62616258e-02, -4.78668604e-03,
          2.49283668e-02, -2.09096391e-02, 2.88340114e-02,
          -1.14898914e-02, 1.48696378e-02, 6.13273419e-02,
          -2.62054838e-02, -1.95223838e-02, -1.74663216e-02,
          2.10552476e-03, -2.12910902e-02, 2.21020449e-02,
          5.93489688e-03, -3.99989039e-02, 6.24238327e-02 ]
      - [ 3.12900124e-03, 1.45858061e-02, -2.72771977e-02,
          -1.55345034e-02, -1.44238062e-02, 1.40182516e-02,
          3.75925913e-03, -3.60659417e-03, 9.04001109e-03,
          2.24556483e-04, 1.04102287e-02, 4.27954877e-03, 8.16590246e-03,
          -6.91151852e-03, 1.30999666e-02, -5.76757314e-03,
          8.27397685e-03, 8.81084707e-03, -6.36033434e-03,
          9.16386489e-04, -1.96098955e-03, -4.15801886e-04,
          -1.28526045e-02, 3.65882553e-03, 5.11612569e-04,
          -2.21629608e-02, 2.09720489e-02 ]
      - [ 1.34282038e-02, 1.39227845e-02, 1.75607204e-02, 3.66556458e-04,
          -2.92045134e-03, 5.95602952e-03, -3.75738628e-02,
          -2.32660747e-03, -3.77367763e-03, 6.21703221e-03,
          -7.43859122e-03, 1.78168453e-02, -3.75405140e-02,
          -1.26243932e-02, 8.54468718e-03, -5.62466234e-02,
          -1.16779907e-02, -1.11448625e-03, 7.24168774e-03,
          -3.32762417e-03, 2.85744071e-02, 4.75241132e-02,
          -8.40545725e-03, 2.82906070e-02, 2.86339577e-02,
          -2.72130519e-02, 1.85264442e-02 ]
      - [ -1.52554676e-01, -3.88426185e-02, 1.98218543e-02,
          1.10167511e-01, -9.58701968e-02, -5.73345926e-03,
          -7.24683795e-03, 1.06037250e-02, -7.59964511e-02,
          5.67851812e-02, -8.07731003e-02, 7.23655969e-02,
          -8.86393711e-02, -6.48528561e-02, 5.49327135e-02,
          -2.12680618e-03, 3.34349349e-02, -3.05132996e-02,
          -4.53857630e-02, 3.19465697e-02, 1.08934551e-01,
          8.93929005e-02, 4.45716865e-02, 1.17284782e-01,
          -1.03755295e-02, -7.93346241e-02, 3.46162952e-02 ]
      - [ -1.04754083e-02, 7.41774729e-03, 1.31772794e-02,
          7.09184865e-03, -2.73238886e-02, 1.23286806e-02,
          2.35753716e-03, 3.99574973e-02, -1.80562753e-02,
          7.90827908e-03, -3.64384018e-02, 1.09076602e-02,
          -1.16161276e-02, -3.64068337e-02, 1.24633508e-02,
          -2.82380206e-04, 3.45232412e-02, -1.46495076e-02,
          -1.43819191e-02, 2.60225832e-02, 2.28856225e-02,
          8.09597503e-03, 2.76197679e-02, 4.52380180e-02,
          -3.61119909e-03, -5.00154532e-02, -1.88057683e-02 ]
      - [ -1.47394079e-03, 7.40412390e-03, 7.10942736e-03,
          1.45016182e-02, -3.10288500e-02, 1.61024015e-02,
          -1.16771795e-02, 2.48181578e-02, -2.03955173e-02,
          1.67077910e-02, -4.28789258e-02, 1.58436038e-02,
          -9.25683882e-03, -3.14073712e-02, 1.11309635e-02,
          -8.13302293e-04, 3.26107964e-02, -7.90556427e-03,
          -3.99798946e-03, 1.42316362e-02, 9.47761349e-03,
          4.24686400e-03, 1.75062288e-02, 3.21758911e-02,
          -1.05957324e-02, -4.38370816e-02, 1.89150553e-02 ]
      - [ 2.66590295e-03, 1.70172565e-02, 1.02322502e-02, 7.72047881e-03,
          -1.85665041e-02, 4.10258025e-03, 6.73262682e-03,
          2.47069374e-02, -2.36989949e-02, 4.04518610e-03,
          -3.43989842e-02, 6.21115603e-03, -3.67823360e-03,
          -3.06905210e-02, 7.45462766e-03, 2.02481239e-03,
          2.84848157e-02, -1.00372871e-02, -4.50546853e-03,
          1.69285405e-02, 9.66595393e-03, 1.01635279e-02, 2.97868941e-02,
          3.81184742e-02, -1.89511594e-03, -4.29739542e-02,
          -1.14780408e-03 ]
      - [ -5.85022988e-03, 7.66258221e-03, 2.68087606e-03,
          2.48348527e-03, -1.27262240e-02, -6.20035501e-03,
          3.47180082e-03, 1.43908402e-02, -1.43273883e-02,
          6.43632491e-04, -1.39806988e-02, 2.59759231e-03,
          1.26648101e-03, -1.38906054e-02, 7.79277179e-03,
          -3.84012051e-03, 1.44838030e-02, -3.51867196e-03,
          -6.17787987e-03, 9.50531289e-03, 1.79877318e-02,
          4.89056204e-03, 1.20732393e-02, 1.85789727e-02,
          -1.12343801e-03, -3.27703878e-02, 4.40931460e-03 ]
      - [ -9.02113784e-03, 4.21432592e-03, -9.69430330e-05,
          -2.75953114e-03, -1.35527393e-02, -3.04950634e-03,
          -8.46706753e-05, 1.75320581e-02, -1.67263951e-02,
          -1.13261899e-03, -1.91558581e-02, 3.67131829e-03,
          -3.61852557e-03, -1.98471788e-02, 8.81571788e-03,
          -4.10486292e-03, 1.72138941e-02, -3.41904210e-03,
          -9.12083406e-03, 8.85474309e-03, 6.16632821e-03,
          4.45226062e-04, 1.63181853e-02, 2.03413572e-02,
          -1.30210246e-03, -2.83746850e-02, 6.58260286e-03 ]
      - [ -1.36398990e-03, 4.25202493e-03, 4.15081577e-03,
          1.46267563e-03, -7.46677676e-03, 4.81455121e-03,
          6.58750059e-06, 4.12556343e-03, -5.35740145e-03,
          5.66945295e-04, -1.50678577e-02, 2.33395584e-03,
          -1.34358485e-03, -3.49329459e-03, 9.94202308e-03,
          2.95257370e-04, 6.98167691e-03, -3.94762633e-03,
          -2.81604403e-03, 2.25281529e-03, 6.51408639e-03,
          -5.88167750e-04, 9.33710672e-03, 6.73273671e-03,
          -1.04822021e-03, -1.26533443e-02, 4.37664706e-03 ]
      - [ -1.63862272e-03, -3.22732562e-03, 1.94165502e-02,
          7.93447811e-03, -1.66975905e-03, 4.13342379e-03,
          1.28375413e-03, -7.81973638e-03, 5.79837477e-03,
          2.19282997e-03, -3.10861063e-03, 6.03015814e-03,
          7.17706233e-03, 1.71806698e-03, -1.23237465e-02,
          4.29255742e-04, -2.38220766e-03, -1.88526344e-02,
          -4.87574656e-03, 6.00707298e-03, 6.93541346e-03,
          -1.46642968e-03, 1.02294767e-02, -1.17906015e-02,
          5.74740116e-03, 1.68695524e-02, -1.98281892e-02 ]
      - [ 2.55695987e-03, -9.48795583e-03, -6.26904238e-03,
          -8.12625629e-04, -4.01413254e-03, 4.54621715e-03,
          9.46247298e-03, -1.43521116e-03, -2.28293648e-05,
          9.84995347e-03, 9.27825517e-04, -5.98900253e-03,
          -3.20434592e-05, 3.25870491e-03, 5.05012739e-03,
          -5.47982100e-03, 6.74762484e-03, 2.54707364e-03,
          -8.52246583e-03, 5.99959283e-04, 1.40062766e-02,
          7.67982518e-03, 2.92451447e-03, -2.68960162e-03,
          1.67378737e-03, 7.76106399e-03, -9.74097010e-03 ]
      - [ -3.21549363e-04, -1.25054969e-02, 1.32564723e-03,
          -1.50001200e-03, -1.05462577e-02, 6.66281953e-03,
          3.78481881e-03, -1.34818780e-03, 7.76770199e-03,
          -2.04263401e-04, -2.42038281e-03, -1.85171596e-03,
          -2.73794145e-03, -2.88366544e-04, 2.21695611e-03,
          -4.50089853e-03, 4.97676665e-03, -7.25357421e-03,
          -4.28675441e-03, 6.25031115e-03, 7.51675013e-03,
          2.77372543e-03, 2.06053141e-03, -2.70015036e-04,
          -4.31835745e-03, 1.43403057e-02, -1.67570859e-02 ]
      - [ -6.19906140e-03, -8.08818638e-03, 2.58591818e-03,
          -1.60673214e-03, 5.78221865e-04, 5.33637451e-03,
          2.42622453e-03, -9.18892212e-03, 8.65133945e-03,
          1.09695168e-02, 2.00517112e-04, -4.47323965e-03,
          -7.46132294e-03, 8.78067315e-03, -3.00737517e-03,
          9.63590108e-04, -8.78332823e-04, 1.62321085e-03,
          -8.27496406e-03, -8.82842753e-04, 2.92477151e-03,
          4.29482339e-03, 5.83694177e-03, -1.19355600e-02,
          -2.74325558e-03, 7.46675022e-03, 2.02050251e-05 ]
      - [ -3.51957115e-03, -1.33029623e-02, 3.34022945e-04,
          -6.65717712e-03, -6.72228681e-03, 7.14145135e-03,
          -4.77488880e-04, -1.63034839e-03, 9.86279827e-03,
          4.16159118e-03, 8.05696764e-04, -4.85179992e-03,
          -2.38417345e-03, 3.85157677e-04, -8.16808175e-03,
          -1.70955341e-03, 3.50861950e-03, -8.80544633e-03,
          -4.08305787e-03, 2.27596448e-03, 1.15014622e-02,
          3.50547605e-03, 1.75730023e-03, -6.35851361e-03,
          -1.27840636e-03, 1.07437940e-02, 3.12360935e-03 ]
      - [ 6.08913426e-04, -1.26527203e-02, 5.93939936e-03,
          -2.74234265e-03, -1.52465224e-03, 6.97604287e-03,
          5.76941576e-03, -3.94900650e-04, 4.00498603e-03,
          3.61225288e-03, -3.01501225e-03, -5.54511836e-03,
          -2.46046390e-03, 5.38194692e-03, -5.99283725e-03,
          2.30123661e-03, 2.90337857e-03, -3.45587125e-03,
          -3.87859344e-03, -3.48287774e-03, 9.21267923e-03,
          4.23323642e-03, 2.42168736e-03, 2.50131648e-04,
          -1.13560900e-03, 1.08816084e-02, -3.68517544e-03 ]
      - [ 3.72821139e-03, -1.07061863e-02, 2.09586136e-03,
          2.05679331e-03, -6.17279904e-03, 7.11139385e-03,
          9.28127614e-04, -6.50957832e-03, 1.19662369e-02,
          2.54022819e-03, 1.81280810e-03, -1.37044606e-03,
          -2.94115464e-03, 5.49498433e-03, -1.05173548e-03,
          3.00215418e-03, 2.56665074e-03, -6.27672067e-03,
          -6.15512603e-04, -8.45558185e-04, 6.98665809e-03,
          2.24848185e-03, 3.99223249e-03, -9.24437772e-03,
          -2.61307025e-04, 9.80377104e-03, -8.02562106e-03 ]
      - [ 6.41252566e-03, 2.91898934e-04, -8.32785293e-03,
          -7.55615393e-03, 2.80946447e-03, 3.12275696e-03,
          3.84247140e-03, 5.22798114e-03, 8.20075569e-04,
          -3.32677830e-03, 8.66167480e-04, -9.89504252e-03,
          1.03144422e-02, 4.34192223e-03, 5.20628970e-03, 3.38752451e-03,
          6.18683780e-03, 7.55108334e-03, 6.13536220e-03, 1.89056189e-03,
          -6.66831946e-03, -6.15496747e-03, 7.39707204e-04,
          -3.70172760e-03, -4.89096763e-03, -2.68693053e-04,
          1.33220013e-02 ]
      - [ -4.58326103e-05, -6.14867406e-03, -4.59202938e-03,
          -3.63727589e-03, -7.57179130e-03, 4.79235966e-03,
          -1.52335735e-03, 3.63732652e-05, 3.07032187e-03,
          -2.71366443e-03, 4.13305592e-03, -5.45169972e-03,
          -2.77628843e-03, 2.00793683e-03, 3.34445899e-03,
          2.27368483e-03, 6.52992073e-03, 3.94683657e-03, 3.32802534e-03,
          6.54588919e-03, -5.32105612e-03, -5.82379429e-03,
          -1.52402639e-03, -9.86742452e-05, -4.44252044e-03,
          1.78144407e-03, 7.28291692e-03 ]
      - [ -4.05877159e-04, -7.41560291e-03, 4.13992471e-04,
          1.91754429e-03, -2.17359420e-03, 4.42383485e-03,
          8.53403064e-04, -2.03712541e-03, 4.80227731e-03,
          2.34135217e-03, 1.89375679e-03, -2.42671208e-03,
          -2.45279958e-03, 6.47660578e-03, 2.08937825e-04,
          4.54820739e-03, 3.07217520e-03, 8.61596782e-03, 1.56283460e-03,
          2.01983890e-03, -5.32496255e-03, 2.24640360e-03,
          2.86903582e-03, -8.10025912e-03, -3.01404740e-03,
          2.87943985e-03, 9.23052989e-03 ]
      - [ 1.47417886e-03, -3.45715950e-03, -2.45108549e-03,
          1.21515768e-03, -3.57959326e-03, 1.93155464e-03,
          3.16142314e-03, 2.32543913e-03, 3.20017384e-03, 2.67334259e-03,
          4.24220553e-03, -2.24447320e-03, 7.05432103e-05,
          -8.46491312e-04, -8.70837364e-04, 1.50421751e-03,
          3.65113770e-03, 4.05178126e-03, 3.36195994e-03, 4.42716619e-03,
          -2.13850010e-03, 2.29766336e-03, -2.58896686e-03,
          -1.78529578e-03, -5.46261261e-04, 1.44672999e-03,
          9.33239702e-03 ]
      - [ -5.00463240e-04, -5.67935547e-03, 2.16059620e-03,
          -2.40072934e-03, 4.39875439e-04, -2.09913682e-03,
          -1.24505183e-04, 2.74617225e-03, 2.58836546e-03,
          5.49202552e-04, -2.03644484e-03, 2.11066939e-03,
          -1.49873691e-03, 5.45034977e-03, -2.01279018e-03,
          3.54471791e-04, 3.19182966e-03, 7.80259306e-03,
          -2.42007920e-03, -2.32605889e-04, -1.23698555e-03,
          -7.41664146e-04, 2.12081196e-03, -2.78771808e-03,
          -2.64499802e-03, 2.81309197e-03, 4.43560164e-03 ]
      - [ 1.95989455e-03, 6.38286874e-04, -2.79769953e-03,
          1.15154497e-03, 5.15568136e-05, 3.63531196e-03, 9.58303339e-04,
          -3.26704874e-04, 3.00125335e-03, 1.82226836e-03,
          2.13973457e-03, -1.42430724e-03, 1.03105267e-03,
          5.84178790e-03, 2.35733413e-03, 8.18467292e-04, 1.33468874e-03,
          2.66373856e-03, 2.29819794e-03, 2.06007203e-03,
          -2.77968938e-03, 2.37075665e-06, 3.35127185e-03,
          -5.60230343e-04, -5.92937577e-04, -1.56099370e-04,
          1.13542250e-03 ]
      - [ -7.63835269e-04, -1.02712940e-02, 4.14950727e-03,
          5.31556609e-04, -1.05315121e-02, 4.09483397e-03,
          -3.26623512e-03, -2.72998586e-03, 1.68193970e-02,
          -9.69600747e-04, 4.51206882e-03, -1.28270462e-02,
          -2.07269564e-03, 3.94205301e-04, -6.32205140e-03,
          -9.23118612e-04, 1.37288484e-03, -1.04805278e-02,
          -1.65611610e-03, 4.14622994e-03, -9.61651735e-04,
          -1.22497731e-03, 1.20859663e-03, 1.14948023e-02,
          1.76338863e-03, 7.18192523e-03, -4.47398890e-03 ]
      - [ -4.78453876e-04, -5.04308520e-03, 3.60884471e-03,
          -2.81546754e-03, 3.69983446e-03, 2.25622905e-04,
          1.97274191e-03, -2.81302258e-03, 9.05793719e-03,
          1.20708905e-03, 3.65031511e-03, -2.63226172e-03,
          4.93366458e-03, 5.18206228e-03, -9.27551556e-03,
          2.01037433e-03, -2.70862016e-03, -4.38959990e-03,
          4.56276233e-04, 7.19784759e-03, 3.00873257e-03,
          -1.47270865e-03, 1.75247248e-03, -5.57341520e-03,
          1.07076613e-03, -3.93409422e-03, 7.61712436e-03 ]
      - [ -3.18447617e-03, -1.27599584e-02, 8.52388144e-03,
          4.80212737e-03, -5.91738615e-03, 9.14358627e-03,
          -2.63384031e-03, 3.27053946e-03, 7.84167275e-03,
          2.42529530e-03, 2.05981173e-03, -9.26621631e-03,
          -2.30834400e-03, 3.04650748e-03, -9.14115272e-03,
          3.52954282e-03, 9.55716067e-04, -1.08480584e-02,
          4.80307615e-04, 2.65592360e-03, 8.31907964e-04, 3.97835532e-03,
          1.78756751e-03, 6.04818284e-04, 1.06350949e-03, 3.31973977e-04,
          7.33172987e-03 ]
      - [ -1.21829007e-03, -8.20388459e-03, 1.47915250e-02,
          2.63304054e-03, 3.77082103e-03, 5.76499675e-04,
          -1.88065914e-03, 3.05394409e-04, 8.68446939e-03,
          3.12533404e-04, 2.84275063e-03, -1.07280370e-02,
          8.91556614e-04, -5.02603827e-04, -6.50782883e-03,
          3.89429834e-03, -4.14164597e-03, -7.81230722e-03,
          -3.93179682e-04, 2.28578760e-03, 2.16198806e-03,
          2.44272966e-03, 2.47241906e-03, -1.45065284e-03,
          1.20866403e-03, 1.16223411e-03, 6.94450922e-03 ]
      - [ -4.21516801e-04, -8.82586278e-03, 7.37167336e-03,
          -2.09860191e-05, -2.56028981e-03, 6.08110428e-03,
          3.55266966e-04, 2.14246637e-03, 5.24423085e-03, 8.01343296e-04,
          1.31252327e-03, -7.79864285e-03, 2.22433172e-03,
          4.27881582e-03, -7.15962658e-03, 1.00806239e-03,
          2.97602353e-04, -9.13883839e-03, 5.53729304e-04,
          -6.63311803e-04, 2.44896929e-03, 1.90765259e-03,
          3.57114058e-03, 1.05789490e-03, 8.39294516e-04, 1.08395284e-03,
          1.31298543e-03 ]
      - [ 1.90874352e-03, 1.58382521e-03, 5.59230940e-03,
          -5.66074683e-04, 2.83144298e-03, -7.00789155e-04,
          6.76517375e-04, -1.25724589e-03, 2.23605675e-04,
          3.66472465e-04, 1.68427464e-03, 1.29891303e-03, 5.94372628e-03,
          5.71545213e-03, -4.00489522e-03, 1.26966217e-03,
          -2.04459997e-03, 1.81906880e-03, 7.59396120e-04,
          3.57607706e-03, -3.78411124e-03, -5.11967693e-04,
          9.48769157e-04, -6.91183144e-03, 1.31561526e-03,
          -4.99395235e-03, 8.17566738e-03 ]
      - [ -2.10176222e-03, -1.30110816e-03, 6.38526073e-03,
          2.91823782e-03, 2.94534909e-03, 3.51953856e-03,
          -1.06915378e-03, 4.78587393e-03, -3.77389533e-03,
          2.90763099e-04, 2.24549952e-03, 7.72435509e-04, 2.71216501e-03,
          4.24212264e-03, -3.48219671e-03, 2.33684550e-03,
          1.67277397e-03, -2.12941063e-03, 6.24572451e-04,
          -2.08889623e-03, 4.21063334e-04, 1.15290261e-03,
          -9.97240888e-04, -7.15573644e-03, -4.04821010e-04,
          -6.35542022e-03, 9.46110766e-03 ]
      - [ -5.73573227e-04, -3.92790232e-03, 1.05078630e-02,
          2.07609776e-03, 5.96630666e-03, 1.82407489e-03,
          -1.05633284e-03, 5.03293565e-03, -2.83554167e-04,
          1.15355954e-03, 2.69240700e-03, -8.97795241e-03,
          1.48387055e-03, 2.91963061e-03, -1.75442212e-04,
          3.34360939e-03, 2.64057703e-03, -3.73988785e-03,
          5.71371231e-04, -1.77679851e-03, 7.53598055e-04,
          9.91168199e-04, 1.52270158e-03, -9.39840544e-03,
          -2.43161936e-04, -7.62267876e-03, 1.01531539e-02 ]
      - [ 1.35785725e-03, -2.96289427e-03, 3.48740304e-03,
          -1.11843040e-03, 3.26682255e-03, 2.62507843e-03,
          3.79319332e-04, 4.79978556e-03, -1.93300738e-03,
          -2.43662813e-04, -9.03809501e-04, -4.65006009e-03,
          4.43809479e-03, 2.11904454e-03, -2.67937966e-03,
          1.28198357e-03, 1.07949926e-03, -6.89962617e-05,
          2.30611232e-03, -1.90435618e-03, 6.18121866e-03,
          3.65425803e-04, 2.07736879e-03, -6.82606874e-03,
          3.33715900e-04, -4.36999323e-03, 3.51786893e-03 ]
      - [ 1.36274169e-03, -7.26586487e-03, -7.67338264e-04,
          2.48970930e-03, -6.52798638e-03, 6.55132392e-03,
          -9.26006469e-04, 4.08896804e-03, 1.02455877e-02,
          1.67968668e-04, 6.18238002e-03, -5.76383341e-03,
          -1.49539171e-03, -3.47587233e-03, -4.10641218e-03,
          3.70907481e-03, 3.65982531e-03, -9.07526538e-03,
          1.00361428e-03, 3.37415677e-03, 1.26474549e-03, 2.41704867e-03,
          -6.48434646e-03, 2.66821729e-03, 1.36741891e-03,
          -2.80872826e-03, 2.59103905e-03 ]
      - [ -2.53397203e-03, 5.78316918e-04, -4.53088991e-03,
          -8.10699305e-04, 4.64925310e-03, -3.38918646e-03,
          -9.61187994e-04, 2.55893380e-03, -1.40554155e-03,
          9.32078459e-04, -1.49287086e-03, 3.29762860e-03,
          -8.16377520e-04, 2.07842211e-03, -2.91326316e-03,
          -7.45731057e-04, 2.13579717e-03, -3.06699239e-03,
          -7.26158614e-04, -9.54496861e-03, 1.04074134e-02,
          -1.62207859e-03, -1.50872697e-03, 7.78128952e-03,
          -8.43945658e-04, 6.20799663e-04, -6.99193729e-03 ]
      - [ 1.62165344e-03, -2.60892184e-03, -1.24132412e-03,
          4.26595943e-04, 1.44933746e-03, -5.81051398e-04,
          1.66040671e-03, -3.96897690e-03, 3.14164138e-03,
          -1.11555611e-03, 8.44501948e-04, 9.03188484e-04,
          -3.26794718e-04, -1.07389479e-03, 2.69113574e-03,
          1.01555034e-03, 3.07066273e-03, -5.05753374e-03,
          2.34394218e-03, -1.22340024e-03, 7.91987986e-04,
          1.15216046e-03, -1.39148964e-03, 1.57359056e-03,
          7.89768528e-04, -4.32876451e-03, -4.07964311e-04 ]
      - [ -1.43088412e-03, -7.64401280e-04, 8.46645422e-03,
          -9.66590422e-04, 6.22365391e-03, -5.76563005e-04,
          -1.84112822e-03, 4.14349081e-04, -6.03647530e-03,
          -1.57679932e-03, -5.31839766e-03, -6.28331536e-03,
          -4.30457498e-04, 8.42208625e-04, 2.37422017e-03,
          -2.19670721e-04, 2.73315446e-03, 3.03617097e-03,
          -1.42745860e-03, -5.39731607e-03, 4.45265276e-03,
          -3.41575273e-04, 1.23164570e-03, 1.68846990e-03,
          -2.40651643e-04, 1.98001158e-03, -4.38411254e-03 ]
      - [ 1.64478330e-03, 6.41122879e-03, 2.62609962e-03,
          -5.03359188e-04, 6.15152065e-03, -3.61193088e-03,
          1.78355200e-04, -5.10312943e-03, -4.32462618e-03,
          -1.38122146e-03, -5.64000057e-03, 3.16950143e-03,
          4.09463001e-03, -1.27334369e-03, 3.26437526e-03,
          5.92556084e-04, -7.73086795e-05, 1.85168721e-03,
          7.34015193e-04, -5.14947530e-03, 8.11565726e-04,
          8.04402458e-04, 1.95674761e-03, 2.49264087e-03, 7.08601496e-04,
          2.31108977e-03, -6.98185340e-03 ]
      - [ 7.21464807e-04, 5.14662010e-04, -1.64986728e-03,
          7.68101134e-04, 1.73280179e-03, 1.15451613e-03, 1.37351523e-03,
          -1.18473195e-03, 9.34731797e-04, -1.53059693e-04,
          -6.67176151e-04, 9.51002876e-04, 9.06859816e-04,
          -1.53206103e-03, 1.88137358e-03, 4.63016040e-04,
          1.06624654e-03, -4.03199904e-03, 8.25154711e-04,
          -4.52927168e-04, -6.04187546e-04, 8.21583613e-04,
          -1.74800644e-03, -1.85265869e-03, 2.32840213e-03,
          -2.34394590e-03, 2.75554019e-03 ]
   uncompressed_sv_total: 3548
   uncompressed_support_vectors:
      - [ 32., 94., 136., 33., 94., 136., 35., 93., 138., 33., 94., 136.,
          33., 94., 136., 34., 93., 138., 35., 94., 136., 35., 94., 136.,
          34., 93., 138. ]
      - [ 57., 100., 145., 58., 100., 145., 74., 100., 146., 81., 100.,
          146., 62., 100., 145., 41., 100., 144., 61., 101., 147., 62.,
          101., 147., 62., 101., 147. ]
      - [ 74., 101., 149., 57., 100., 148., 60., 100., 149., 104., 102.,
          150., 99., 102., 151., 66., 102., 150., 75., 103., 149., 87.,
          103., 150., 74., 103., 150. ]
      - [ 71., 104., 148., 56., 104., 147., 44., 103., 146., 87., 103.,
          150., 88., 103., 150., 100., 103., 151., 72., 105., 148., 73.,
          105., 148., 82., 105., 149. ]
      - [ 26., 101., 143., 41., 101., 145., 52., 102., 147., 85., 102.,
          147., 89., 103., 147., 88., 103., 147., 68., 103., 145., 61.,
          103., 146., 58., 104., 146. ]
      - [ 100., 91., 156., 106., 91., 156., 106., 91., 156., 101., 91.,
          156., 106., 91., 156., 107., 91., 156., 102., 91., 155., 106.,
          91., 155., 107., 91., 155. ]
      - [ 40., 104., 142., 56., 104., 144., 54., 104., 144., 55., 105.,
          145., 60., 105., 145., 56., 105., 146., 52., 106., 147., 57.,
          106., 147., 69., 107., 148. ]
      - [ 101., 92., 153., 102., 92., 154., 107., 91., 155., 104., 92.,
          153., 103., 92., 153., 107., 91., 155., 104., 92., 153., 102.,
          92., 153., 105., 91., 155. ]
      - [ 51., 107., 148., 106., 107., 152., 77., 109., 150., 80., 107.,
          152., 115., 107., 153., 73., 110., 151., 102., 109., 154., 98.,
          109., 154., 55., 109., 149. ]
      - [ 128., 109., 166., 146., 107., 166., 140., 106., 164., 114.,
          109., 165., 116., 107., 164., 126., 105., 164., 108., 109.,
          164., 117., 106., 164., 107., 105., 163. ]
      - [ 227., 105., 184., 227., 103., 176., 207., 105., 184., 193.,
          106., 182., 252., 98., 175., 249., 100., 171., 184., 106.,
          182., 230., 97., 177., 252., 98., 165. ]
      - [ 227., 103., 176., 207., 105., 184., 196., 107., 180., 252.,
          98., 175., 249., 100., 171., 177., 104., 179., 230., 97., 177.,
          252., 98., 165., 220., 103., 180. ]
      - [ 205., 103., 183., 193., 106., 182., 252., 98., 175., 212.,
          103., 184., 184., 106., 182., 230., 97., 177., 207., 103.,
          183., 180., 107., 181., 196., 101., 179. ]
      - [ 252., 98., 175., 249., 100., 171., 177., 104., 179., 230., 97.,
          177., 252., 98., 165., 220., 103., 180., 196., 101., 179.,
          216., 103., 178., 240., 106., 179. ]
      - [ 199., 106., 182., 241., 102., 185., 251., 99., 185., 193.,
          106., 182., 243., 102., 185., 249., 100., 185., 171., 107.,
          181., 196., 102., 184., 227., 100., 185. ]
      - [ 243., 102., 185., 249., 100., 185., 207., 103., 183., 196.,
          102., 184., 227., 100., 185., 229., 103., 184., 167., 105.,
          181., 223., 105., 185., 226., 106., 184. ]
      - [ 125., 105., 160., 90., 104., 158., 94., 103., 158., 126., 105.,
          160., 137., 105., 160., 97., 104., 157., 95., 105., 159., 126.,
          105., 160., 123., 104., 160. ]
      - [ 171., 107., 181., 196., 102., 184., 227., 100., 185., 166.,
          105., 181., 167., 105., 181., 223., 105., 185., 227., 105.,
          184., 218., 105., 183., 188., 105., 182. ]
      - [ 167., 105., 181., 223., 105., 185., 226., 106., 184., 218.,
          105., 183., 188., 105., 182., 211., 105., 183., 213., 104.,
          182., 177., 105., 180., 218., 105., 182. ]
      - [ 112., 104., 165., 91., 105., 161., 85., 106., 160., 147., 104.,
          166., 110., 105., 163., 82., 105., 159., 125., 104., 165.,
          127., 104., 164., 131., 104., 163. ]
      - [ 182., 105., 182., 224., 104., 184., 227., 104., 182., 173.,
          105., 182., 192., 104., 181., 228., 104., 182., 185., 104.,
          181., 188., 104., 181., 179., 105., 180. ]
      - [ 210., 110., 182., 173., 109., 181., 172., 109., 181., 191.,
          110., 181., 211., 108., 183., 167., 109., 180., 166., 110.,
          180., 219., 108., 183., 212., 108., 183. ]
      - [ 116., 107., 164., 124., 105., 164., 105., 104., 163., 116.,
          107., 164., 145., 105., 165., 108., 105., 163., 101., 107.,
          163., 127., 106., 164., 136., 105., 164. ]
      - [ 136., 105., 164., 101., 104., 162., 88., 107., 159., 127.,
          105., 164., 149., 105., 165., 91., 104., 160., 115., 106.,
          163., 141., 106., 164., 128., 102., 162. ]
      - [ 80., 109., 156., 102., 107., 156., 81., 107., 155., 75., 109.,
          155., 107., 107., 157., 104., 107., 157., 82., 109., 156.,
          107., 107., 158., 94., 107., 156. ]
      - [ 38., 100., 136., 42., 101., 144., 46., 102., 144., 11., 97.,
          136., 6., 97., 137., 16., 98., 137., 12., 96., 134., 11., 96.,
          132., 3., 96., 134. ]
      - [ 11., 97., 136., 11., 97., 136., 6., 97., 137., 13., 96., 134.,
          12., 96., 134., 11., 96., 132., 10., 96., 133., 9., 96., 133.,
          10., 96., 131. ]
      - [ 11., 97., 136., 6., 97., 137., 16., 98., 137., 12., 96., 134.,
          11., 96., 132., 3., 96., 134., 9., 96., 133., 10., 96., 131.,
          18., 96., 130. ]
      - [ 6., 97., 137., 16., 98., 137., 25., 99., 138., 11., 96., 132.,
          3., 96., 134., 11., 96., 134., 10., 96., 131., 18., 96., 130.,
          8., 96., 133. ]
      - [ 25., 99., 138., 30., 100., 138., 35., 101., 139., 11., 96.,
          134., 10., 97., 135., 11., 97., 136., 8., 96., 133., 9., 96.,
          134., 8., 96., 135. ]
      - [ 13., 96., 134., 16., 96., 134., 12., 96., 134., 13., 96., 134.,
          13., 96., 133., 10., 96., 134., 16., 96., 133., 14., 96., 132.,
          14., 96., 132. ]
      - [ 12., 96., 134., 11., 96., 132., 3., 96., 134., 9., 96., 133.,
          10., 96., 131., 18., 96., 130., 8., 96., 132., 9., 96., 133.,
          8., 96., 134. ]
      - [ 11., 96., 132., 3., 96., 134., 11., 96., 134., 10., 96., 131.,
          18., 96., 130., 8., 96., 133., 9., 96., 133., 8., 96., 134.,
          13., 96., 134. ]
      - [ 3., 96., 134., 11., 96., 134., 10., 97., 135., 18., 96., 130.,
          8., 96., 133., 9., 96., 134., 8., 96., 134., 13., 96., 134.,
          4., 96., 136. ]
      - [ 8., 96., 134., 13., 96., 134., 4., 96., 136., 12., 96., 135.,
          16., 95., 138., 18., 95., 138., 3., 96., 136., 85., 95., 139.,
          254., 95., 140. ]
      - [ 4., 96., 136., 14., 96., 135., 11., 96., 135., 18., 95., 138.,
          16., 96., 137., 12., 96., 135., 254., 95., 140., 126., 95.,
          141., 3., 96., 137. ]
      - [ 24., 99., 138., 34., 101., 142., 45., 104., 144., 19., 98.,
          136., 16., 99., 137., 25., 101., 139., 16., 97., 135., 15.,
          97., 135., 20., 99., 136. ]
      - [ 11., 96., 135., 12., 96., 135., 16., 95., 138., 10., 96., 134.,
          3., 96., 136., 85., 95., 139., 8., 96., 133., 2., 96., 136.,
          97., 94., 137. ]
      - [ 16., 95., 138., 18., 95., 138., 16., 96., 137., 85., 95., 139.,
          254., 95., 140., 126., 95., 141., 97., 94., 137., 253., 95.,
          141., 120., 93., 143. ]
      - [ 18., 95., 138., 16., 96., 137., 12., 96., 135., 254., 95.,
          140., 126., 95., 141., 3., 96., 137., 253., 95., 141., 120.,
          93., 143., 12., 95., 138. ]
      - [ 3., 96., 136., 85., 95., 139., 254., 95., 140., 2., 96., 136.,
          97., 94., 137., 253., 95., 141., 10., 95., 134., 12., 95.,
          135., 19., 95., 137. ]
      - [ 85., 95., 139., 254., 95., 140., 126., 95., 141., 97., 94.,
          137., 253., 95., 141., 120., 93., 143., 12., 95., 135., 19.,
          95., 137., 33., 95., 138. ]
      - [ 254., 95., 140., 126., 95., 141., 3., 96., 137., 253., 95.,
          141., 120., 93., 143., 12., 95., 138., 19., 95., 137., 33.,
          95., 138., 40., 95., 138. ]
