%YAML:1.0
---
opencv_ml_svm:
   format: 3
   svmType: C_SVC
   kernel:
      type: POLY
      degree: 2.
      gamma: 5.3830000000000000e+00
      coef0: 1.
   C: 2.6699999999999999e+00
   term_criteria: { epsilon:1.1920928955078125e-07, iterations:1000 }
   var_count: 27
   class_count: 19
   class_labels: !!opencv-matrix
      rows: 19
      cols: 1
      dt: i
      data: [ 0, 1, 2, 3, 4, 5, 6, 7, 8, 246, 247, 248, 249, 250, 251,
          252, 253, 254, 255 ]
   sv_total: 6024
   support_vectors:
      - [ 32., 94., 136., 33., 94., 136., 35., 93., 138., 33., 94., 136.,
          33., 94., 136., 34., 93., 138., 35., 94., 136., 35., 94., 136.,
          34., 93., 138. ]
      - [ 108., 91., 155., 108., 91., 155., 108., 91., 155., 107., 91.,
          154., 108., 91., 154., 108., 91., 155., 109., 91., 154., 109.,
          91., 154., 110., 91., 154. ]
      - [ 105., 91., 156., 107., 91., 156., 110., 92., 153., 105., 91.,
          156., 107., 91., 156., 107., 92., 153., 105., 91., 156., 106.,
          91., 156., 107., 92., 153. ]
      - [ 46., 98., 144., 47., 98., 142., 29., 98., 140., 60., 98., 144.,
          54., 98., 144., 46., 98., 142., 48., 98., 144., 54., 99., 143.,
          56., 100., 143. ]
      - [ 66., 98., 147., 58., 98., 146., 38., 97., 143., 54., 98., 146.,
          66., 98., 145., 55., 98., 144., 54., 97., 147., 36., 98., 144.,
          39., 97., 143. ]
      - [ 25., 99., 140., 25., 99., 138., 25., 99., 138., 46., 99., 142.,
          43., 99., 140., 32., 99., 140., 53., 100., 143., 62., 100.,
          143., 60., 100., 143. ]
      - [ 57., 100., 145., 58., 100., 145., 74., 100., 146., 81., 100.,
          146., 62., 100., 145., 41., 100., 144., 61., 101., 147., 62.,
          101., 147., 62., 101., 147. ]
      - [ 74., 100., 146., 73., 100., 146., 47., 100., 145., 41., 100.,
          144., 63., 100., 145., 81., 100., 146., 62., 101., 147., 60.,
          101., 146., 71., 101., 147. ]
      - [ 54., 98., 150., 45., 98., 145., 54., 98., 146., 91., 98., 152.,
          80., 98., 150., 54., 97., 147., 92., 98., 151., 100., 97.,
          153., 95., 98., 151. ]
      - [ 54., 97., 147., 36., 98., 144., 39., 97., 143., 95., 98., 151.,
          72., 98., 149., 48., 97., 147., 94., 97., 153., 95., 98., 151.,
          82., 98., 150. ]
      - [ 64., 101., 147., 61., 101., 147., 62., 101., 147., 62., 101.,
          147., 49., 100., 146., 47., 100., 146., 68., 102., 148., 61.,
          102., 147., 39., 101., 145. ]
      - [ 74., 101., 149., 57., 100., 148., 60., 100., 149., 104., 102.,
          150., 99., 102., 151., 66., 102., 150., 75., 103., 149., 87.,
          103., 150., 74., 103., 150. ]
      - [ 60., 101., 146., 52., 101., 144., 34., 100., 142., 63., 102.,
          147., 52., 101., 146., 43., 101., 144., 63., 102., 150., 71.,
          102., 149., 71., 102., 148. ]
      - [ 62., 102., 145., 72., 102., 147., 64., 102., 146., 48., 102.,
          144., 55., 102., 145., 59., 103., 146., 52., 102., 143., 52.,
          103., 144., 57., 103., 146. ]
      - [ 81., 103., 148., 60., 101., 146., 53., 101., 147., 69., 104.,
          148., 92., 102., 150., 66., 102., 149., 51., 104., 146., 90.,
          102., 151., 110., 102., 152. ]
      - [ 51., 104., 146., 90., 102., 151., 110., 102., 152., 60., 104.,
          149., 52., 105., 148., 76., 106., 149., 63., 105., 150., 63.,
          106., 150., 61., 105., 150. ]
      - [ 46., 99., 146., 44., 100., 146., 60., 101., 146., 89., 100.,
          148., 80., 101., 147., 65., 102., 146., 78., 101., 147., 72.,
          102., 147., 57., 102., 146. ]
      - [ 73., 103., 146., 62., 103., 147., 52., 102., 147., 85., 104.,
          147., 91., 104., 149., 77., 104., 148., 53., 104., 146., 64.,
          104., 148., 78., 105., 149. ]
      - [ 71., 104., 148., 56., 104., 147., 44., 103., 146., 87., 103.,
          150., 88., 103., 150., 100., 103., 151., 72., 105., 148., 73.,
          105., 148., 82., 105., 149. ]
      - [ 44., 103., 146., 47., 103., 146., 47., 103., 146., 100., 103.,
          151., 91., 103., 151., 73., 103., 150., 82., 105., 149., 79.,
          105., 149., 75., 105., 149. ]
      - [ 26., 101., 143., 41., 101., 145., 52., 102., 147., 85., 102.,
          147., 89., 103., 147., 88., 103., 147., 68., 103., 145., 61.,
          103., 146., 58., 104., 146. ]
      - [ 103., 91., 155., 107., 91., 155., 109., 91., 155., 100., 91.,
          156., 106., 91., 156., 106., 91., 156., 101., 91., 156., 106.,
          91., 156., 107., 91., 156. ]
      - [ 100., 91., 156., 106., 91., 156., 106., 91., 156., 101., 91.,
          156., 106., 91., 156., 107., 91., 156., 102., 91., 155., 106.,
          91., 155., 107., 91., 155. ]
      - [ 40., 104., 142., 56., 104., 144., 54., 104., 144., 55., 105.,
          145., 60., 105., 145., 56., 105., 146., 52., 106., 147., 57.,
          106., 147., 69., 107., 148. ]
      - [ 51., 106., 146., 74., 109., 150., 68., 109., 150., 81., 107.,
          151., 86., 109., 152., 72., 109., 151., 94., 109., 154., 73.,
          112., 152., 67., 112., 152. ]
      - [ 79., 109., 150., 94., 108., 151., 72., 109., 151., 89., 110.,
          152., 68., 110., 151., 64., 110., 151., 63., 110., 150., 68.,
          110., 152., 83., 110., 153. ]
      - [ 101., 92., 153., 102., 92., 154., 107., 91., 155., 104., 92.,
          153., 103., 92., 153., 107., 91., 155., 104., 92., 153., 102.,
          92., 153., 105., 91., 155. ]
      - [ 94., 106., 149., 60., 105., 148., 100., 107., 152., 71., 107.,
          150., 83., 107., 151., 91., 108., 150., 71., 107., 151., 102.,
          107., 152., 66., 107., 150. ]
      - [ 51., 107., 148., 106., 107., 152., 77., 109., 150., 80., 107.,
          152., 115., 107., 153., 73., 110., 151., 102., 109., 154., 98.,
          109., 154., 55., 109., 149. ]
      - [ 102., 92., 154., 107., 91., 155., 110., 91., 155., 104., 91.,
          155., 106., 91., 155., 108., 91., 155., 105., 91., 155., 105.,
          91., 155., 107., 91., 156. ]
      - [ 77., 98., 147., 60., 98., 147., 60., 98., 149., 63., 98., 144.,
          80., 98., 148., 52., 98., 148., 31., 98., 144., 65., 98., 147.,
          103., 98., 150. ]
      - [ 80., 98., 148., 52., 98., 148., 62., 98., 149., 65., 98., 147.,
          103., 98., 150., 56., 98., 149., 49., 98., 147., 107., 98.,
          150., 155., 98., 152. ]
      - [ 52., 98., 148., 62., 98., 149., 80., 98., 150., 103., 98.,
          150., 56., 98., 149., 69., 98., 150., 107., 98., 150., 155.,
          98., 152., 61., 98., 149. ]
      - [ 103., 98., 150., 56., 98., 149., 69., 98., 150., 107., 98.,
          150., 155., 98., 152., 61., 98., 149., 66., 98., 149., 119.,
          98., 150., 104., 98., 150. ]
      - [ 104., 98., 150., 54., 98., 149., 81., 98., 150., 93., 98.,
          150., 99., 98., 150., 62., 98., 148., 60., 96., 149., 97., 96.,
          151., 92., 96., 151. ]
      - [ 79., 98., 148., 54., 97., 147., 57., 97., 147., 133., 98.,
          150., 93., 98., 149., 57., 98., 146., 50., 97., 146., 93., 97.,
          147., 90., 98., 146. ]
      - [ 109., 91., 156., 111., 91., 158., 113., 91., 158., 109., 91.,
          156., 112., 91., 156., 113., 91., 158., 110., 91., 156., 113.,
          91., 157., 113., 91., 158. ]
      - [ 106., 95., 154., 85., 98., 149., 51., 101., 147., 112., 95.,
          154., 64., 100., 148., 47., 102., 146., 115., 96., 154., 58.,
          101., 147., 53., 103., 145. ]
      - [ 114., 91., 157., 130., 93., 155., 108., 96., 153., 122., 91.,
          157., 134., 94., 155., 95., 98., 151., 128., 93., 155., 120.,
          96., 154., 82., 99., 150. ]
      - [ 80., 98., 154., 76., 98., 152., 60., 99., 150., 86., 98., 156.,
          86., 98., 156., 57., 98., 152., 104., 98., 160., 102., 98.,
          160., 73., 98., 155. ]
      - [ 213., 103., 184., 204., 104., 183., 227., 105., 184., 235.,
          101., 185., 205., 103., 183., 193., 106., 182., 251., 99.,
          185., 212., 103., 184., 184., 106., 182. ]
      - [ 227., 105., 184., 227., 103., 176., 207., 105., 184., 193.,
          106., 182., 252., 98., 175., 249., 100., 171., 184., 106.,
          182., 230., 97., 177., 252., 98., 165. ]
      - [ 227., 103., 176., 207., 105., 184., 196., 107., 180., 252.,
          98., 175., 249., 100., 171., 177., 104., 179., 230., 97., 177.,
          252., 98., 165., 220., 103., 180. ]
      - [ 207., 105., 184., 196., 107., 180., 210., 110., 182., 249.,
          100., 171., 177., 104., 179., 202., 108., 181., 252., 98.,
          165., 220., 103., 180., 179., 108., 179. ]
      - [ 217., 103., 184., 235., 101., 185., 205., 103., 183., 241.,
          102., 185., 251., 99., 185., 212., 103., 184., 243., 102.,
          185., 249., 100., 185., 207., 103., 183. ]
      - [ 252., 98., 175., 249., 100., 171., 177., 104., 179., 230., 97.,
          177., 252., 98., 165., 220., 103., 180., 196., 101., 179.,
          216., 103., 178., 240., 106., 179. ]
      - [ 249., 100., 171., 177., 104., 179., 202., 108., 181., 252.,
          98., 165., 220., 103., 180., 179., 108., 179., 216., 103.,
          178., 240., 106., 179., 170., 111., 177. ]
      - [ 101., 105., 160., 122., 104., 161., 135., 101., 163., 109.,
          105., 160., 90., 104., 159., 101., 102., 160., 124., 105.,
          162., 125., 105., 160., 90., 104., 158. ]
      - [ 230., 97., 177., 252., 98., 165., 220., 103., 180., 196., 101.,
          179., 216., 103., 178., 240., 106., 179., 196., 105., 181.,
          208., 107., 189., 185., 110., 177. ]
      - [ 125., 105., 160., 90., 104., 158., 94., 103., 158., 126., 105.,
          160., 137., 105., 160., 97., 104., 157., 95., 105., 159., 126.,
          105., 160., 123., 104., 160. ]
      - [ 49., 96., 143., 63., 96., 143., 46., 97., 140., 50., 96., 143.,
          69., 96., 143., 67., 97., 142., 32., 97., 142., 49., 98., 143.,
          73., 96., 144. ]
      - [ 112., 104., 165., 91., 105., 161., 85., 106., 160., 147., 104.,
          166., 110., 105., 163., 82., 105., 159., 125., 104., 165.,
          127., 104., 164., 131., 104., 163. ]
      - [ 107., 107., 159., 96., 106., 158., 73., 105., 154., 116., 105.,
          160., 97., 105., 158., 86., 105., 155., 106., 104., 160., 103.,
          104., 159., 90., 105., 155. ]
      - [ 66., 98., 151., 60., 97., 149., 91., 98., 149., 65., 96., 151.,
          71., 96., 150., 50., 96., 148., 104., 96., 151., 73., 96.,
          150., 74., 96., 150. ]
      - [ 116., 107., 164., 124., 105., 164., 105., 104., 163., 116.,
          107., 164., 145., 105., 165., 108., 105., 163., 101., 107.,
          163., 127., 106., 164., 136., 105., 164. ]
      - [ 108., 105., 163., 99., 104., 162., 87., 109., 158., 136., 105.,
          164., 101., 104., 162., 88., 107., 159., 127., 105., 164.,
          149., 105., 165., 91., 104., 160. ]
      - [ 110., 106., 163., 127., 105., 164., 149., 105., 165., 109.,
          107., 162., 115., 106., 163., 141., 106., 164., 103., 107.,
          162., 120., 106., 163., 104., 106., 162. ]
      - [ 114., 95., 155., 92., 98., 153., 76., 103., 150., 119., 96.,
          155., 87., 99., 153., 67., 104., 150., 101., 96., 154., 67.,
          100., 152., 67., 104., 150. ]
      - [ 93., 112., 157., 83., 110., 156., 87., 110., 156., 80., 112.,
          156., 88., 112., 156., 93., 112., 156., 80., 112., 156., 74.,
          112., 155., 89., 112., 156. ]
      - [ 54., 96., 143., 77., 96., 141., 25., 96., 139., 35., 96., 141.,
          76., 96., 141., 25., 95., 139., 29., 96., 140., 85., 96., 141.,
          35., 95., 138. ]
      - [ 88., 108., 154., 72., 106., 153., 69., 106., 153., 88., 109.,
          155., 82., 108., 154., 75., 107., 154., 78., 109., 155., 88.,
          108., 154., 75., 107., 154. ]
      - [ 37., 100., 140., 42., 100., 140., 38., 100., 140., 37., 99.,
          140., 42., 99., 140., 43., 100., 140., 30., 99., 140., 30.,
          99., 139., 38., 99., 139. ]
      - [ 80., 109., 156., 102., 107., 156., 81., 107., 155., 75., 109.,
          155., 107., 107., 157., 104., 107., 157., 82., 109., 156.,
          107., 107., 158., 94., 107., 156. ]
      - [ 117., 92., 155., 115., 93., 150., 57., 95., 145., 106., 92.,
          152., 102., 93., 149., 59., 95., 145., 99., 92., 152., 83.,
          93., 148., 53., 95., 145. ]
      - [ 106., 92., 152., 102., 93., 149., 59., 95., 145., 99., 92.,
          152., 83., 93., 148., 53., 95., 145., 111., 92., 152., 82.,
          94., 148., 54., 95., 145. ]
      - [ 83., 93., 148., 53., 95., 145., 54., 96., 143., 82., 94., 148.,
          54., 95., 145., 43., 96., 143., 75., 94., 148., 59., 95., 145.,
          51., 96., 143. ]
      - [ 75., 94., 148., 59., 95., 145., 51., 96., 143., 74., 94., 148.,
          64., 95., 146., 64., 96., 143., 76., 94., 148., 53., 95., 145.,
          59., 96., 143. ]
      - [ 86., 110., 156., 72., 110., 154., 77., 109., 155., 94., 112.,
          156., 82., 110., 155., 72., 109., 154., 102., 112., 158., 93.,
          110., 156., 84., 109., 155. ]
      - [ 30., 95., 134., 15., 96., 135., 11., 96., 135., 57., 95., 135.,
          45., 95., 135., 6., 96., 136., 42., 95., 135., 41., 95., 135.,
          5., 96., 136. ]
      - [ 59., 103., 146., 57., 102., 146., 56., 102., 146., 34., 100.,
          139., 34., 100., 138., 34., 100., 138., 19., 99., 138., 21.,
          99., 138., 22., 99., 138. ]
      - [ 38., 96., 136., 23., 96., 137., 11., 96., 137., 31., 96., 135.,
          42., 96., 136., 19., 96., 136., 13., 96., 136., 28., 96., 135.,
          44., 96., 137. ]
      - [ 16., 96., 134., 14., 96., 135., 12., 97., 135., 10., 96., 133.,
          8., 96., 134., 7., 96., 134., 14., 95., 132., 12., 95., 132.,
          9., 96., 133. ]
      - [ 11., 97., 136., 11., 97., 136., 6., 97., 137., 13., 96., 134.,
          12., 96., 134., 11., 96., 132., 10., 96., 133., 9., 96., 133.,
          10., 96., 131. ]
      - [ 11., 97., 136., 6., 97., 137., 16., 98., 137., 12., 96., 134.,
          11., 96., 132., 3., 96., 134., 9., 96., 133., 10., 96., 131.,
          18., 96., 130. ]
      - [ 6., 97., 137., 16., 98., 137., 25., 99., 138., 11., 96., 132.,
          3., 96., 134., 11., 96., 134., 10., 96., 131., 18., 96., 130.,
          8., 96., 133. ]
      - [ 25., 99., 138., 30., 100., 138., 35., 101., 139., 11., 96.,
          134., 10., 97., 135., 11., 97., 136., 8., 96., 133., 9., 96.,
          134., 8., 96., 135. ]
      - [ 10., 96., 137., 11., 96., 136., 14., 96., 135., 38., 96., 135.,
          16., 96., 136., 9., 96., 135., 48., 96., 135., 50., 96., 135.,
          34., 96., 135. ]
      - [ 23., 98., 135., 19., 97., 135., 15., 97., 134., 28., 97., 134.,
          20., 96., 134., 13., 96., 134., 18., 96., 134., 13., 96., 134.,
          11., 96., 134. ]
      - [ 13., 96., 134., 16., 96., 134., 12., 96., 134., 13., 96., 134.,
          13., 96., 133., 10., 96., 134., 16., 96., 133., 14., 96., 132.,
          14., 96., 132. ]
      - [ 10., 96., 133., 8., 96., 134., 7., 96., 134., 14., 95., 132.,
          12., 95., 132., 9., 96., 133., 10., 95., 132., 10., 95., 132.,
          9., 96., 133. ]
      - [ 13., 96., 134., 12., 96., 134., 11., 96., 132., 10., 96., 133.,
          9., 96., 133., 10., 96., 131., 8., 96., 132., 8., 96., 132.,
          9., 96., 133. ]
      - [ 12., 96., 134., 11., 96., 132., 3., 96., 134., 9., 96., 133.,
          10., 96., 131., 18., 96., 130., 8., 96., 132., 9., 96., 133.,
          8., 96., 134. ]
      - [ 11., 96., 132., 3., 96., 134., 11., 96., 134., 10., 96., 131.,
          18., 96., 130., 8., 96., 133., 9., 96., 133., 8., 96., 134.,
          13., 96., 134. ]
      - [ 3., 96., 134., 11., 96., 134., 10., 97., 135., 18., 96., 130.,
          8., 96., 133., 9., 96., 134., 8., 96., 134., 13., 96., 134.,
          4., 96., 136. ]
      - [ 43., 99., 140., 47., 103., 142., 64., 104., 143., 11., 97.,
          135., 22., 99., 137., 31., 100., 138., 9., 96., 133., 15., 97.,
          135., 11., 97., 135. ]
      - [ 13., 96., 133., 10., 96., 134., 14., 95., 132., 14., 96., 132.,
          14., 96., 132., 10., 95., 132., 8., 96., 134., 11., 96., 133.,
          9., 96., 133. ]
      - [ 10., 96., 134., 14., 95., 132., 12., 95., 132., 14., 96., 132.,
          10., 95., 132., 10., 95., 132., 11., 96., 133., 9., 96., 133.,
          10., 96., 133. ]
      - [ 14., 95., 132., 12., 95., 132., 9., 96., 133., 10., 95., 132.,
          10., 95., 132., 9., 96., 133., 9., 96., 133., 10., 96., 133.,
          10., 96., 133. ]
      - [ 10., 96., 133., 9., 96., 133., 10., 96., 131., 8., 96., 132.,
          8., 96., 132., 9., 96., 133., 10., 96., 132., 11., 96., 132.,
          11., 96., 135. ]
      - [ 9., 96., 133., 10., 96., 131., 18., 96., 130., 8., 96., 132.,
          9., 96., 133., 8., 96., 134., 11., 96., 132., 11., 96., 135.,
          12., 96., 135. ]
      - [ 15., 96., 134., 16., 96., 133., 14., 96., 132., 17., 96., 133.,
          14., 96., 133., 8., 96., 134., 18., 96., 134., 16., 96., 133.,
          9., 96., 134. ]
      - [ 8., 96., 133., 8., 96., 133., 8., 96., 132., 9., 96., 133.,
          10., 96., 132., 10., 96., 132., 13., 95., 133., 13., 95., 132.,
          11., 95., 133. ]
      - [ 8., 96., 133., 8., 96., 132., 8., 96., 132., 10., 96., 132.,
          10., 96., 132., 11., 96., 132., 13., 95., 132., 11., 95., 133.,
          10., 95., 133. ]
      - [ 13., 96., 134., 4., 96., 136., 14., 96., 135., 16., 95., 138.,
          18., 95., 138., 16., 96., 137., 85., 95., 139., 254., 95.,
          140., 126., 95., 141. ]
      - [ 4., 96., 136., 14., 96., 135., 11., 96., 135., 18., 95., 138.,
          16., 96., 137., 12., 96., 135., 254., 95., 140., 126., 95.,
          141., 3., 96., 137. ]
      - [ 14., 96., 135., 11., 96., 135., 8., 96., 134., 16., 96., 137.,
          12., 96., 135., 12., 96., 133., 126., 95., 141., 3., 96., 137.,
          6., 96., 135. ]
      - [ 24., 99., 138., 34., 101., 142., 45., 104., 144., 19., 98.,
          136., 16., 99., 137., 25., 101., 139., 16., 97., 135., 15.,
          97., 135., 20., 99., 136. ]
      - [ 83., 105., 155., 78., 105., 154., 91., 105., 154., 83., 107.,
          154., 85., 106., 154., 83., 105., 154., 75., 107., 154., 80.,
          106., 153., 83., 105., 154. ]
      - [ 9., 96., 133., 10., 96., 133., 10., 96., 133., 12., 95., 134.,
          12., 95., 133., 13., 95., 133., 16., 95., 135., 18., 95., 135.,
          22., 94., 133. ]
      - [ 11., 96., 135., 12., 96., 135., 16., 95., 138., 10., 96., 134.,
          3., 96., 136., 85., 95., 139., 8., 96., 133., 2., 96., 136.,
          97., 94., 137. ]
      - [ 12., 96., 135., 16., 95., 138., 18., 95., 138., 3., 96., 136.,
          85., 95., 139., 254., 95., 140., 2., 96., 136., 97., 94., 137.,
          253., 95., 141. ]
      - [ 16., 95., 138., 18., 95., 138., 16., 96., 137., 85., 95., 139.,
          254., 95., 140., 126., 95., 141., 97., 94., 137., 253., 95.,
          141., 120., 93., 143. ]
      - [ 18., 95., 138., 16., 96., 137., 12., 96., 135., 254., 95.,
          140., 126., 95., 141., 3., 96., 137., 253., 95., 141., 120.,
          93., 143., 12., 95., 138. ]
      - [ 16., 96., 137., 12., 96., 135., 12., 96., 133., 126., 95.,
          141., 3., 96., 137., 6., 96., 135., 120., 93., 143., 12., 95.,
          138., 25., 94., 136. ]
      - [ 38., 98., 139., 29., 97., 139., 17., 97., 138., 60., 102.,
          143., 51., 102., 143., 44., 101., 143., 49., 105., 146., 60.,
          105., 147., 72., 105., 148. ]
      - [ 17., 97., 138., 17., 97., 138., 20., 97., 138., 44., 101.,
          143., 44., 101., 144., 35., 100., 143., 72., 105., 148., 85.,
          104., 151., 91., 104., 151. ]
      - [ 3., 96., 136., 85., 95., 139., 254., 95., 140., 2., 96., 136.,
          97., 94., 137., 253., 95., 141., 10., 95., 134., 12., 95.,
          135., 19., 95., 137. ]
      - [ 254., 95., 140., 126., 95., 141., 3., 96., 137., 253., 95.,
          141., 120., 93., 143., 12., 95., 138., 19., 95., 137., 33.,
          95., 138., 40., 95., 138. ]
      - [ 126., 95., 141., 3., 96., 137., 6., 96., 135., 120., 93., 143.,
          12., 95., 138., 25., 94., 136., 33., 95., 138., 40., 95., 138.,
          34., 95., 137. ]
      - [ 3., 96., 137., 6., 96., 135., 15., 96., 133., 12., 95., 138.,
          25., 94., 136., 19., 95., 134., 40., 95., 138., 34., 95., 137.,
          30., 94., 136. ]
      - [ 98., 110., 159., 92., 107., 157., 75., 107., 154., 92., 110.,
          158., 105., 107., 158., 86., 107., 154., 92., 110., 158., 107.,
          107., 157., 84., 105., 155. ]
      - [ 30., 98., 142., 35., 97., 143., 40., 97., 142., 58., 99., 146.,
          59., 98., 144., 66., 98., 144., 82., 105., 156., 70., 104.,
          153., 57., 101., 147. ]
      - [ 35., 97., 143., 40., 97., 142., 38., 97., 141., 59., 98., 144.,
          66., 98., 144., 62., 97., 143., 70., 104., 153., 57., 101.,
          147., 59., 100., 143. ]
      - [ 14., 95., 134., 9., 95., 134., 8., 96., 133., 9., 95., 133.,
          10., 95., 132., 10., 95., 133., 8., 95., 133., 8., 96., 133.,
          8., 95., 133. ]
      - [ 2., 96., 136., 97., 94., 137., 253., 95., 141., 10., 95., 134.,
          12., 95., 135., 19., 95., 137., 11., 95., 134., 9., 95., 135.,
          10., 96., 137. ]
      - [ 15., 100., 139., 14., 101., 139., 20., 101., 140., 11., 97.,
          135., 11., 97., 136., 12., 98., 137., 17., 97., 136., 8., 97.,
          137., 2., 97., 137. ]
      - [ 44., 105., 144., 52., 106., 146., 62., 107., 147., 16., 99.,
          135., 12., 99., 135., 17., 100., 136., 10., 97., 135., 10.,
          97., 135., 13., 98., 135. ]
      - [ 52., 106., 146., 62., 107., 147., 59., 109., 148., 12., 99.,
          135., 17., 100., 136., 21., 101., 138., 10., 97., 135., 13.,
          98., 135., 12., 98., 137. ]
      - [ 41., 95., 134., 25., 95., 135., 10., 96., 135., 20., 96., 137.,
          34., 96., 137., 25., 95., 135., 8., 96., 136., 29., 96., 137.,
          38., 96., 135. ]
      - [ 70., 101., 148., 58., 99., 146., 59., 98., 144., 92., 108.,
          158., 82., 105., 156., 70., 104., 153., 129., 109., 163., 125.,
          108., 163., 108., 107., 159. ]
      - [ 58., 99., 146., 59., 98., 144., 66., 98., 144., 82., 105.,
          156., 70., 104., 153., 57., 101., 147., 125., 108., 163., 108.,
          107., 159., 81., 105., 154. ]
      - [ 23., 97., 134., 33., 96., 134., 25., 95., 135., 27., 97., 134.,
          34., 97., 134., 26., 95., 135., 33., 97., 135., 40., 96., 135.,
          28., 96., 135. ]
      - [ 25., 95., 135., 17., 95., 134., 17., 95., 134., 26., 95., 135.,
          24., 95., 135., 29., 94., 134., 28., 96., 135., 24., 95., 135.,
          29., 94., 135. ]
      - [ 16., 96., 133., 18., 97., 133., 12., 96., 134., 9., 96., 134.,
          10., 96., 135., 12., 96., 134., 10., 96., 134., 14., 96., 135.,
          16., 96., 134. ]
      - [ 12., 97., 133., 12., 97., 134., 11., 97., 135., 6., 96., 135.,
          8., 96., 135., 17., 97., 136., 10., 96., 135., 11., 96., 136.,
          8., 97., 137. ]
      - [ 11., 97., 135., 11., 97., 136., 12., 98., 137., 17., 97., 136.,
          8., 97., 137., 2., 97., 137., 8., 97., 137., 41., 98., 139.,
          129., 98., 142. ]
      - [ 11., 97., 136., 12., 98., 137., 12., 98., 137., 8., 97., 137.,
          2., 97., 137., 12., 98., 136., 41., 98., 139., 129., 98., 142.,
          37., 96., 135. ]
      - [ 12., 98., 137., 12., 98., 137., 17., 99., 136., 2., 97., 137.,
          12., 98., 136., 13., 97., 135., 129., 98., 142., 37., 96.,
          135., 5., 96., 135. ]
      - [ 57., 101., 147., 59., 100., 143., 54., 98., 139., 81., 105.,
          154., 61., 102., 149., 42., 100., 145., 133., 108., 165., 115.,
          108., 159., 92., 105., 156. ]
      - [ 59., 100., 143., 54., 98., 139., 43., 96., 142., 61., 102.,
          149., 42., 100., 145., 33., 97., 142., 115., 108., 159., 92.,
          105., 156., 50., 102., 146. ]
      - [ 46., 96., 141., 22., 96., 138., 13., 96., 137., 48., 96., 141.,
          49., 96., 139., 32., 96., 138., 31., 96., 140., 41., 96., 139.,
          38., 95., 138. ]
      - [ 17., 97., 136., 8., 97., 137., 2., 97., 137., 8., 97., 137.,
          41., 98., 139., 129., 98., 142., 4., 96., 136., 62., 97., 139.,
          179., 97., 140. ]
      - [ 8., 97., 137., 2., 97., 137., 12., 98., 136., 41., 98., 139.,
          129., 98., 142., 37., 96., 135., 62., 97., 139., 179., 97.,
          140., 45., 97., 133. ]
      - [ 2., 97., 137., 12., 98., 136., 13., 97., 135., 129., 98., 142.,
          37., 96., 135., 5., 96., 135., 179., 97., 140., 45., 97., 133.,
          7., 96., 135. ]
      - [ 12., 98., 136., 13., 97., 135., 10., 97., 135., 37., 96., 135.,
          5., 96., 135., 9., 96., 135., 45., 97., 133., 7., 96., 135.,
          15., 96., 135. ]
      - [ 12., 98., 137., 23., 100., 138., 17., 100., 139., 12., 97.,
          135., 12., 97., 136., 20., 97., 137., 13., 96., 134., 8., 96.,
          135., 17., 96., 135. ]
      - [ 23., 100., 138., 17., 100., 139., 27., 102., 141., 12., 97.,
          136., 20., 97., 137., 27., 99., 137., 8., 96., 135., 17., 96.,
          135., 14., 97., 135. ]
      - [ 13., 98., 136., 11., 98., 137., 17., 100., 137., 16., 101.,
          139., 25., 103., 140., 46., 106., 142., 46., 108., 145., 73.,
          110., 148., 95., 113., 150. ]
      - [ 27., 94., 136., 23., 95., 134., 11., 95., 133., 34., 94., 136.,
          27., 94., 135., 15., 95., 135., 36., 94., 136., 30., 94., 136.,
          20., 95., 135. ]
      - [ 16., 96., 134., 10., 96., 135., 11., 96., 136., 12., 96., 134.,
          14., 96., 133., 13., 96., 135., 12., 96., 133., 6., 96., 133.,
          7., 96., 134. ]
      - [ 10., 96., 135., 11., 96., 136., 8., 97., 137., 14., 96., 133.,
          13., 96., 135., 4., 96., 136., 6., 96., 133., 7., 96., 134.,
          12., 96., 135. ]
      - [ 11., 96., 136., 8., 97., 137., 41., 98., 139., 13., 96., 135.,
          4., 96., 136., 62., 97., 139., 7., 96., 134., 12., 96., 135.,
          12., 96., 136. ]
      - [ 8., 97., 137., 41., 98., 139., 129., 98., 142., 4., 96., 136.,
          62., 97., 139., 179., 97., 140., 12., 96., 135., 12., 96.,
          136., 9., 96., 136. ]
      - [ 41., 98., 139., 129., 98., 142., 37., 96., 135., 62., 97.,
          139., 179., 97., 140., 45., 97., 133., 12., 96., 136., 9., 96.,
          136., 13., 97., 134. ]
      - [ 129., 98., 142., 37., 96., 135., 5., 96., 135., 179., 97.,
          140., 45., 97., 133., 7., 96., 135., 9., 96., 136., 13., 97.,
          134., 10., 96., 135. ]
      - [ 37., 96., 135., 5., 96., 135., 9., 96., 135., 45., 97., 133.,
          7., 96., 135., 15., 96., 135., 13., 97., 134., 10., 96., 135.,
          10., 96., 134. ]
      - [ 50., 102., 146., 35., 100., 143., 31., 98., 142., 110., 107.,
          156., 71., 104., 152., 49., 101., 147., 151., 109., 165., 123.,
          107., 162., 94., 104., 157. ]
      - [ 35., 100., 143., 31., 98., 142., 31., 96., 140., 71., 104.,
          152., 49., 101., 147., 37., 97., 143., 123., 107., 162., 94.,
          104., 157., 60., 100., 150. ]
      - [ 27., 94., 135., 15., 95., 135., 6., 96., 135., 30., 94., 136.,
          20., 95., 135., 13., 96., 135., 32., 94., 136., 31., 95., 136.,
          28., 95., 137. ]
      - [ 61., 99., 145., 40., 99., 141., 30., 100., 138., 82., 99.,
          150., 68., 99., 145., 55., 100., 140., 82., 100., 151., 78.,
          100., 149., 69., 101., 145. ]
      - [ 62., 97., 139., 179., 97., 140., 45., 97., 133., 12., 96.,
          136., 9., 96., 136., 13., 97., 134., 8., 96., 134., 4., 96.,
          135., 7., 96., 134. ]
      - [ 13., 96., 134., 8., 96., 135., 17., 96., 135., 13., 96., 134.,
          17., 96., 133., 11., 96., 134., 14., 96., 133., 17., 96., 133.,
          15., 96., 133. ]
      - [ 17., 96., 135., 14., 97., 135., 19., 97., 135., 11., 96., 134.,
          12., 97., 135., 18., 97., 135., 15., 96., 133., 26., 96., 134.,
          17., 96., 136. ]
      - [ 42., 108., 145., 56., 111., 148., 70., 112., 152., 42., 106.,
          141., 37., 107., 143., 35., 108., 144., 38., 103., 138., 34.,
          104., 139., 28., 105., 140. ]
      - [ 71., 104., 152., 49., 101., 147., 37., 97., 143., 123., 107.,
          162., 94., 104., 157., 60., 100., 150., 150., 110., 168., 129.,
          108., 165., 99., 105., 158. ]
      - [ 49., 101., 147., 37., 97., 143., 28., 96., 139., 94., 104.,
          157., 60., 100., 150., 35., 98., 143., 129., 108., 165., 99.,
          105., 158., 69., 102., 150. ]
      - [ 30., 94., 136., 20., 95., 135., 13., 96., 135., 32., 94., 136.,
          31., 95., 136., 28., 95., 137., 34., 95., 137., 34., 95., 138.,
          31., 95., 138. ]
      - [ 11., 95., 133., 9., 95., 134., 17., 95., 135., 22., 95., 135.,
          27., 95., 134., 29., 94., 136., 34., 95., 138., 41., 95., 138.,
          44., 94., 139. ]
      - [ 9., 95., 134., 17., 95., 135., 29., 94., 136., 27., 95., 134.,
          29., 94., 136., 32., 94., 138., 41., 95., 138., 44., 94., 139.,
          41., 93., 139. ]
      - [ 22., 104., 138., 25., 104., 137., 30., 104., 136., 26., 105.,
          139., 36., 105., 139., 45., 106., 139., 38., 107., 141., 47.,
          107., 142., 52., 107., 142. ]
      - [ 13., 96., 134., 17., 96., 133., 11., 96., 134., 14., 96., 133.,
          17., 96., 133., 15., 96., 133., 28., 96., 134., 15., 96., 135.,
          24., 97., 134. ]
      - [ 94., 104., 157., 60., 100., 150., 35., 98., 143., 129., 108.,
          165., 99., 105., 158., 69., 102., 150., 143., 111., 169., 141.,
          109., 166., 115., 107., 160. ]
      - [ 60., 100., 150., 35., 98., 143., 31., 97., 139., 99., 105.,
          158., 69., 102., 150., 45., 99., 143., 141., 109., 166., 115.,
          107., 160., 68., 102., 150. ]
      - [ 31., 95., 136., 28., 95., 137., 22., 95., 135., 34., 95., 138.,
          31., 95., 138., 34., 95., 138., 40., 95., 138., 36., 94., 140.,
          35., 95., 140. ]
      - [ 21., 96., 133., 11., 96., 133., 12., 96., 132., 35., 95., 135.,
          16., 95., 135., 7., 96., 134., 27., 95., 138., 24., 95., 136.,
          15., 95., 135. ]
      - [ 161., 118., 171., 154., 119., 171., 151., 119., 172., 164.,
          116., 173., 162., 116., 173., 158., 117., 173., 169., 115.,
          175., 165., 115., 175., 162., 116., 174. ]
      - [ 45., 99., 143., 24., 98., 138., 26., 96., 135., 68., 102.,
          150., 26., 98., 142., 20., 97., 138., 109., 104., 157., 68.,
          100., 148., 24., 97., 141. ]
      - [ 84., 94., 151., 67., 95., 149., 47., 96., 144., 64., 94., 151.,
          76., 95., 150., 103., 96., 148., 99., 94., 155., 126., 94.,
          156., 128., 93., 155. ]
      - [ 26., 94., 136., 37., 94., 136., 37., 94., 136., 31., 94., 136.,
          35., 93., 137., 31., 94., 136., 34., 95., 138., 30., 95., 134.,
          30., 95., 134. ]
      - [ 63., 103., 145., 39., 102., 142., 33., 103., 140., 80., 104.,
          149., 62., 104., 146., 49., 104., 142., 73., 105., 148., 69.,
          107., 148., 126., 107., 148. ]
      - [ 39., 102., 142., 33., 103., 140., 35., 103., 140., 62., 104.,
          146., 49., 104., 142., 38., 104., 140., 69., 107., 148., 126.,
          107., 148., 83., 105., 148. ]
      - [ 16., 95., 135., 7., 96., 134., 6., 96., 134., 24., 95., 136.,
          15., 95., 135., 8., 95., 134., 25., 95., 137., 26., 95., 136.,
          16., 96., 135. ]
      - [ 103., 104., 159., 86., 102., 155., 77., 105., 151., 106., 104.,
          159., 75., 102., 156., 82., 105., 151., 98., 103., 157., 90.,
          102., 157., 94., 104., 155. ]
      - [ 26., 98., 142., 20., 97., 138., 20., 96., 137., 68., 100.,
          148., 24., 97., 141., 15., 96., 137., 109., 105., 160., 54.,
          102., 150., 20., 97., 139. ]
      - [ 42., 109., 146., 55., 111., 149., 82., 113., 153., 30., 106.,
          141., 34., 107., 143., 45., 110., 145., 37., 106., 141., 37.,
          107., 141., 32., 108., 143. ]
      - [ 81., 103., 152., 81., 102., 152., 79., 101., 152., 73., 104.,
          151., 88., 103., 153., 96., 102., 154., 97., 106., 153., 145.,
          105., 156., 128., 104., 154. ]
      - [ 118., 93., 152., 94., 95., 146., 48., 97., 142., 115., 92.,
          153., 111., 94., 149., 83., 97., 145., 102., 91., 155., 101.,
          94., 152., 87., 97., 147. ]
      - [ 97., 104., 156., 44., 98., 143., 20., 97., 139., 127., 105.,
          161., 84., 99., 150., 36., 98., 143., 145., 108., 166., 120.,
          102., 157., 67., 100., 149. ]
      - [ 44., 98., 143., 20., 97., 139., 14., 97., 137., 84., 99., 150.,
          36., 98., 143., 10., 97., 137., 120., 102., 157., 67., 100.,
          149., 16., 98., 139. ]
      - [ 115., 92., 153., 111., 94., 149., 83., 97., 145., 102., 91.,
          155., 101., 94., 152., 87., 97., 147., 121., 91., 157., 109.,
          94., 152., 75., 96., 150. ]
      - [ 38., 107., 141., 33., 108., 142., 33., 108., 143., 42., 107.,
          140., 37., 107., 141., 34., 107., 141., 35., 107., 141., 32.,
          107., 140., 38., 107., 140. ]
      - [ 36., 98., 143., 10., 97., 137., 11., 96., 135., 67., 100.,
          149., 16., 98., 139., 10., 97., 136., 98., 104., 156., 35.,
          100., 143., 11., 97., 137. ]
      - [ 54., 110., 146., 50., 110., 145., 45., 111., 145., 55., 111.,
          146., 52., 112., 146., 54., 112., 146., 49., 113., 147., 55.,
          113., 147., 65., 114., 148. ]
      - [ 53., 104., 146., 58., 104., 144., 45., 104., 142., 53., 107.,
          148., 43., 107., 147., 52., 107., 147., 88., 111., 155., 117.,
          111., 155., 69., 110., 152. ]
      - [ 120., 102., 157., 67., 100., 149., 16., 98., 139., 137., 105.,
          163., 98., 104., 156., 35., 100., 143., 142., 109., 167., 122.,
          107., 161., 67., 102., 151. ]
      - [ 109., 94., 152., 75., 96., 150., 57., 102., 143., 126., 95.,
          154., 73., 98., 150., 59., 103., 146., 130., 96., 154., 85.,
          98., 151., 68., 103., 148. ]
      - [ 63., 109., 151., 60., 107., 150., 53., 107., 148., 76., 112.,
          153., 65., 111., 153., 88., 111., 155., 86., 115., 155., 67.,
          114., 155., 135., 114., 159. ]
      - [ 53., 107., 148., 43., 107., 147., 52., 107., 147., 88., 111.,
          155., 117., 111., 155., 69., 110., 152., 135., 114., 159.,
          200., 112., 161., 84., 113., 157. ]
      - [ 52., 107., 147., 50., 108., 144., 48., 108., 143., 69., 110.,
          152., 42., 109., 147., 50., 111., 147., 84., 113., 157., 87.,
          114., 154., 52., 113., 150. ]
      - [ 88., 111., 155., 117., 111., 155., 69., 110., 152., 135., 114.,
          159., 200., 112., 161., 84., 113., 157., 148., 115., 162.,
          153., 114., 162., 85., 115., 158. ]
      - [ 69., 110., 152., 42., 109., 147., 50., 111., 147., 84., 113.,
          157., 87., 114., 154., 52., 113., 150., 85., 115., 158., 121.,
          115., 158., 91., 116., 155. ]
      - [ 42., 109., 144., 41., 109., 144., 32., 108., 143., 50., 113.,
          147., 46., 111., 147., 38., 111., 146., 84., 115., 152., 87.,
          115., 153., 84., 114., 152. ]
      - [ 87., 114., 154., 52., 113., 150., 50., 113., 147., 121., 115.,
          158., 91., 116., 155., 81., 116., 152., 103., 114., 162., 107.,
          113., 162., 111., 110., 162. ]
      - [ 46., 111., 147., 38., 111., 146., 42., 111., 146., 87., 115.,
          153., 84., 114., 152., 73., 113., 150., 128., 109., 163., 157.,
          109., 163., 137., 109., 160. ]
      - [ 85., 115., 158., 121., 115., 158., 91., 116., 155., 112., 115.,
          162., 103., 114., 162., 107., 113., 162., 122., 114., 163.,
          121., 114., 163., 115., 113., 164. ]
      - [ 45., 95., 140., 52., 95., 140., 52., 96., 143., 52., 98., 144.,
          51., 98., 144., 43., 98., 145., 50., 102., 147., 56., 102.,
          148., 88., 102., 151. ]
      - [ 52., 95., 140., 52., 96., 143., 63., 96., 143., 51., 98., 144.,
          43., 98., 145., 56., 98., 146., 56., 102., 148., 88., 102.,
          151., 99., 103., 153. ]
      - [ 52., 96., 143., 63., 96., 143., 58., 97., 143., 43., 98., 145.,
          56., 98., 146., 53., 99., 145., 88., 102., 151., 99., 103.,
          153., 83., 104., 152. ]
      - [ 93., 109., 160., 87., 107., 157., 87., 107., 154., 89., 109.,
          158., 60., 107., 154., 108., 107., 155., 79., 109., 157., 83.,
          107., 156., 94., 107., 156. ]
      - [ 96., 111., 158., 80., 110., 156., 55., 111., 151., 114., 109.,
          165., 115., 110., 163., 88., 112., 159., 112., 110., 167.,
          112., 111., 166., 110., 112., 164. ]
      - [ 80., 110., 156., 55., 111., 151., 61., 112., 151., 115., 110.,
          163., 88., 112., 159., 87., 113., 157., 112., 111., 166., 110.,
          112., 164., 98., 113., 161. ]
      - [ 133., 107., 166., 96., 104., 156., 35., 99., 145., 140., 109.,
          167., 115., 105., 161., 49., 100., 149., 139., 112., 168.,
          128., 107., 165., 68., 102., 153. ]
      - [ 136., 91., 159., 113., 94., 154., 69., 97., 148., 116., 91.,
          158., 96., 93., 154., 83., 96., 149., 113., 89., 159., 112.,
          92., 155., 121., 95., 150. ]
      - [ 141., 115., 168., 115., 116., 166., 119., 115., 166., 117.,
          118., 165., 121., 118., 166., 136., 116., 168., 119., 119.,
          165., 127., 119., 165., 129., 118., 167. ]
      - [ 112., 92., 155., 121., 95., 150., 69., 100., 146., 131., 92.,
          155., 125., 95., 150., 65., 99., 146., 138., 92., 155., 123.,
          92., 154., 74., 97., 148. ]
      - [ 91., 104., 156., 26., 98., 142., 20., 96., 135., 105., 105.,
          160., 40., 99., 144., 20., 97., 135., 114., 109., 162., 48.,
          102., 149., 20., 96., 139. ]
      - [ 134., 114., 167., 114., 109., 162., 48., 102., 149., 132.,
          114., 167., 123., 109., 164., 67., 102., 152., 130., 114.,
          166., 127., 110., 164., 88., 103., 154. ]
      - [ 114., 109., 162., 48., 102., 149., 20., 96., 139., 123., 109.,
          164., 67., 102., 152., 26., 97., 140., 127., 110., 164., 88.,
          103., 154., 35., 98., 141. ]
      - [ 34., 95., 138., 50., 95., 140., 38., 95., 136., 32., 95., 139.,
          56., 95., 140., 46., 95., 137., 35., 95., 139., 73., 95., 140.,
          67., 94., 138. ]
      - [ 29., 95., 138., 35., 95., 139., 73., 95., 140., 29., 95., 138.,
          40., 95., 139., 91., 95., 141., 34., 96., 138., 41., 96., 140.,
          87., 96., 142. ]
      - [ 45., 96., 138., 38., 96., 140., 68., 96., 143., 45., 96., 138.,
          37., 96., 140., 59., 96., 143., 43., 96., 138., 38., 96., 141.,
          57., 96., 143. ]
      - [ 35., 97., 141., 56., 98., 146., 49., 101., 144., 38., 98.,
          141., 46., 100., 144., 56., 102., 145., 34., 98., 140., 39.,
          100., 144., 60., 103., 146. ]
      - [ 80., 107., 155., 81., 105., 154., 80., 105., 151., 84., 107.,
          155., 82., 106., 153., 84., 105., 151., 77., 107., 155., 83.,
          106., 153., 74., 106., 149. ]
      - [ 42., 100., 142., 31., 103., 144., 65., 107., 147., 46., 101.,
          143., 35., 103., 145., 74., 109., 150., 53., 103., 145., 48.,
          104., 148., 84., 110., 153. ]
      - [ 139., 128., 167., 144., 125., 169., 139., 123., 168., 140.,
          128., 167., 145., 125., 169., 144., 123., 168., 140., 128.,
          165., 140., 126., 168., 143., 124., 168. ]
      - [ 75., 107., 155., 101., 105., 157., 89., 105., 155., 83., 109.,
          156., 105., 107., 156., 87., 105., 155., 85., 109., 155., 108.,
          107., 157., 76., 105., 154. ]
      - [ 123., 92., 156., 105., 95., 154., 84., 98., 150., 111., 94.,
          156., 94., 96., 152., 83., 98., 151., 96., 95., 155., 80., 97.,
          152., 76., 100., 151. ]
      - [ 80., 97., 152., 76., 100., 151., 79., 101., 151., 87., 98.,
          153., 79., 100., 152., 75., 102., 151., 79., 99., 153., 75.,
          100., 153., 82., 102., 153. ]
      - [ 70., 109., 150., 53., 109., 150., 97., 113., 159., 66., 111.,
          150., 49., 110., 148., 110., 112., 161., 59., 111., 150., 64.,
          112., 149., 93., 112., 160. ]
      - [ 22., 97., 139., 50., 98., 141., 41., 96., 140., 31., 98., 139.,
          47., 98., 140., 25., 96., 139., 31., 98., 137., 37., 98., 138.,
          23., 97., 137. ]
      - [ 85., 101., 146., 21., 97., 139., 16., 96., 135., 68., 101.,
          144., 15., 97., 138., 16., 96., 135., 46., 100., 142., 12.,
          97., 137., 15., 96., 134. ]
      - [ 117., 108., 155., 68., 101., 144., 15., 97., 138., 104., 107.,
          153., 46., 100., 142., 12., 97., 137., 86., 105., 151., 26.,
          99., 140., 10., 96., 136. ]
      - [ 54., 103., 144., 57., 100., 143., 27., 99., 141., 63., 103.,
          144., 55., 100., 143., 25., 99., 140., 56., 102., 143., 47.,
          100., 141., 29., 99., 140. ]
      - [ 42., 105., 140., 45., 108., 142., 45., 111., 145., 34., 105.,
          140., 34., 107., 141., 34., 109., 142., 25., 105., 138., 33.,
          107., 140., 37., 109., 141. ]
      - [ 37., 112., 143., 48., 114., 145., 57., 117., 150., 31., 109.,
          141., 30., 110., 142., 45., 114., 146., 31., 107., 139., 32.,
          108., 140., 26., 108., 141. ]
      - [ 107., 107., 155., 59., 101., 146., 11., 97., 136., 106., 106.,
          155., 50., 100., 145., 8., 96., 136., 89., 103., 147., 35.,
          98., 139., 8., 96., 136. ]
      - [ 106., 106., 155., 50., 100., 145., 8., 96., 136., 89., 103.,
          147., 35., 98., 139., 8., 96., 136., 79., 102., 146., 19., 97.,
          138., 9., 96., 135. ]
      - [ 50., 100., 145., 8., 96., 136., 12., 96., 132., 35., 98., 139.,
          8., 96., 136., 14., 95., 135., 19., 97., 138., 9., 96., 135.,
          16., 95., 134. ]
      - [ 45., 104., 145., 56., 105., 148., 63., 105., 150., 51., 106.,
          146., 63., 107., 148., 78., 108., 150., 65., 109., 148., 68.,
          110., 151., 68., 110., 151. ]
      - [ 114., 110., 155., 79., 102., 146., 19., 97., 138., 111., 107.,
          153., 63., 101., 143., 9., 97., 136., 97., 106., 150., 48.,
          99., 141., 8., 96., 135. ]
      - [ 78., 108., 150., 69., 108., 150., 59., 107., 149., 68., 110.,
          151., 56., 109., 150., 63., 109., 150., 64., 112., 152., 76.,
          111., 154., 70., 110., 153. ]
      - [ 97., 106., 150., 48., 99., 141., 8., 96., 135., 80., 104.,
          147., 32., 98., 138., 10., 96., 135., 55., 103., 142., 17.,
          97., 136., 10., 96., 134. ]
      - [ 51., 102., 143., 53., 102., 143., 61., 102., 143., 58., 102.,
          146., 51., 103., 145., 60., 103., 145., 54., 103., 145., 41.,
          102., 145., 52., 103., 145. ]
      - [ 83., 113., 157., 78., 112., 156., 79., 114., 156., 93., 113.,
          159., 87., 113., 158., 86., 114., 157., 98., 112., 163., 98.,
          112., 163., 106., 113., 163. ]
      - [ 79., 109., 148., 31., 100., 139., 10., 96., 135., 54., 107.,
          145., 15., 99., 138., 11., 96., 135., 35., 100., 138., 10.,
          96., 135., 13., 95., 134. ]
      - [ 15., 99., 138., 11., 96., 135., 10., 95., 134., 10., 96., 135.,
          13., 95., 134., 17., 95., 134., 8., 96., 135., 13., 95., 134.,
          22., 95., 134. ]
      - [ 43., 104., 144., 51., 105., 146., 81., 110., 153., 59., 105.,
          147., 68., 107., 149., 99., 111., 154., 60., 107., 149., 81.,
          109., 153., 112., 110., 157. ]
      - [ 44., 101., 142., 31., 100., 140., 35., 101., 142., 44., 102.,
          143., 32., 102., 142., 33., 103., 143., 36., 103., 144., 33.,
          103., 143., 57., 105., 147. ]
      - [ 43., 102., 142., 12., 97., 136., 12., 96., 134., 26., 99.,
          140., 8., 96., 135., 12., 95., 133., 16., 97., 137., 7., 96.,
          135., 12., 95., 133. ]
      - [ 7., 96., 135., 12., 95., 133., 19., 95., 132., 10., 96., 134.,
          14., 95., 132., 19., 95., 132., 11., 96., 134., 22., 95., 132.,
          27., 95., 133. ]
      - [ 110., 124., 158., 108., 118., 154., 90., 112., 149., 108.,
          120., 157., 100., 114., 151., 68., 107., 144., 110., 117.,
          155., 86., 110., 149., 42., 102., 142. ]
      - [ 100., 114., 151., 68., 107., 144., 28., 100., 138., 86., 110.,
          149., 42., 102., 142., 21., 98., 137., 67., 107., 147., 24.,
          99., 139., 18., 96., 136. ]
      - [ 125., 130., 164., 129., 128., 165., 134., 126., 165., 133.,
          128., 165., 136., 127., 167., 137., 126., 167., 138., 127.,
          167., 142., 125., 167., 137., 124., 167. ]
      - [ 26., 96., 136., 55., 97., 138., 67., 95., 141., 45., 97., 139.,
          77., 96., 140., 62., 95., 140., 69., 97., 139., 66., 96., 140.,
          43., 95., 139. ]
      - [ 142., 126., 165., 143., 125., 166., 148., 124., 168., 144.,
          125., 164., 141., 125., 165., 138., 124., 167., 142., 125.,
          163., 141., 124., 164., 130., 123., 165. ]
      - [ 26., 98., 139., 18., 96., 137., 12., 96., 135., 17., 96., 136.,
          14., 95., 135., 11., 95., 134., 15., 96., 134., 12., 95., 134.,
          11., 95., 134. ]
      - [ 11., 95., 134., 21., 96., 133., 23., 96., 134., 11., 95., 134.,
          21., 96., 133., 21., 96., 134., 10., 95., 134., 18., 96., 133.,
          17., 96., 134. ]
      - [ 33., 97., 138., 25., 97., 134., 16., 96., 134., 21., 96., 136.,
          24., 96., 133., 15., 96., 134., 13., 96., 135., 14., 96., 134.,
          11., 96., 135. ]
      - [ 21., 101., 138., 7., 97., 136., 13., 96., 135., 9., 97., 136.,
          11., 96., 133., 14., 95., 132., 10., 96., 135., 15., 96., 133.,
          15., 95., 132. ]
      - [ 129., 123., 163., 116., 120., 159., 106., 115., 154., 118.,
          122., 161., 106., 118., 157., 87., 113., 151., 105., 120.,
          159., 95., 115., 155., 72., 107., 148. ]
      - [ 9., 97., 136., 11., 96., 133., 14., 95., 132., 10., 96., 135.,
          15., 96., 133., 15., 95., 132., 22., 96., 134., 20., 95., 134.,
          13., 96., 135. ]
      - [ 16., 100., 136., 7., 99., 136., 11., 100., 136., 13., 98.,
          134., 12., 97., 134., 9., 97., 134., 14., 98., 133., 17., 96.,
          132., 10., 96., 133. ]
      - [ 87., 113., 151., 48., 105., 144., 13., 98., 137., 72., 107.,
          148., 37., 101., 141., 18., 97., 136., 53., 104., 144., 24.,
          98., 138., 16., 96., 135. ]
      - [ 9., 97., 134., 8., 97., 135., 9., 98., 135., 10., 96., 133.,
          11., 96., 132., 11., 97., 133., 13., 98., 133., 15., 98., 132.,
          12., 97., 133. ]
      - [ 28., 102., 140., 38., 102., 139., 39., 102., 140., 22., 103.,
          141., 22., 102., 140., 33., 103., 139., 60., 109., 147., 29.,
          106., 142., 18., 102., 140. ]
      - [ 92., 112., 153., 51., 105., 145., 25., 99., 140., 64., 106.,
          149., 24., 100., 141., 16., 97., 138., 40., 100., 144., 29.,
          97., 139., 17., 96., 136. ]
      - [ 110., 114., 157., 75., 107., 151., 40., 100., 144., 89., 109.,
          152., 50., 102., 145., 29., 97., 140., 57., 104., 145., 30.,
          99., 140., 18., 96., 137. ]
      - [ 40., 100., 144., 29., 97., 139., 17., 96., 136., 29., 97.,
          140., 29., 96., 137., 19., 96., 135., 18., 96., 137., 13., 96.,
          135., 16., 96., 134. ]
      - [ 121., 115., 156., 96., 111., 152., 57., 104., 145., 97., 109.,
          151., 64., 105., 147., 27., 100., 141., 69., 105., 148., 24.,
          101., 142., 13., 98., 138. ]
      - [ 141., 120., 167., 148., 120., 167., 141., 119., 167., 137.,
          122., 167., 137., 120., 167., 129., 117., 166., 137., 122.,
          165., 133., 119., 164., 121., 115., 161. ]
      - [ 22., 96., 135., 21., 95., 134., 16., 95., 134., 16., 96., 134.,
          15., 95., 134., 12., 95., 133., 9., 96., 134., 9., 95., 134.,
          8., 95., 134. ]
      - [ 60., 103., 146., 31., 99., 140., 15., 96., 136., 30., 98.,
          140., 16., 97., 137., 12., 96., 135., 15., 96., 137., 16., 96.,
          136., 18., 96., 135. ]
      - [ 54., 100., 146., 30., 98., 140., 16., 97., 137., 21., 97.,
          140., 15., 96., 137., 16., 96., 136., 12., 96., 138., 16., 96.,
          137., 22., 96., 134. ]
      - [ 72., 107., 149., 53., 102., 147., 25., 97., 142., 47., 97.,
          139., 36., 97., 139., 22., 96., 137., 26., 96., 139., 22., 96.,
          137., 18., 96., 137. ]
      - [ 37., 98., 140., 23., 98., 137., 13., 97., 135., 21., 96., 137.,
          13., 96., 135., 10., 96., 135., 11., 96., 135., 13., 96., 134.,
          16., 96., 133. ]
      - [ 110., 114., 155., 88., 110., 153., 55., 104., 147., 84., 107.,
          148., 50., 104., 145., 23., 99., 140., 36., 100., 141., 22.,
          99., 138., 17., 97., 137. ]
      - [ 88., 110., 153., 55., 104., 147., 31., 99., 142., 50., 104.,
          145., 23., 99., 140., 14., 97., 138., 22., 99., 138., 17., 97.,
          137., 17., 96., 135. ]
      - [ 11., 96., 134., 10., 96., 134., 11., 96., 133., 8., 95., 134.,
          9., 95., 134., 8., 95., 134., 8., 95., 133., 7., 95., 134., 9.,
          95., 133. ]
      - [ 6., 96., 134., 8., 95., 134., 9., 95., 134., 9., 95., 134., 8.,
          95., 133., 7., 95., 134., 9., 95., 133., 9., 95., 133., 8.,
          95., 133. ]
      - [ 36., 100., 141., 22., 99., 138., 17., 97., 137., 12., 97.,
          137., 19., 97., 136., 18., 96., 135., 11., 96., 134., 11., 96.,
          134., 9., 96., 134. ]
      - [ 9., 95., 133., 8., 95., 133., 10., 95., 133., 8., 96., 133.,
          12., 95., 131., 8., 96., 133., 9., 95., 133., 10., 95., 132.,
          8., 96., 133. ]
      - [ 94., 114., 154., 69., 109., 150., 44., 102., 144., 49., 108.,
          146., 23., 102., 141., 16., 99., 139., 19., 100., 138., 8.,
          98., 136., 11., 97., 135. ]
      - [ 8., 95., 134., 8., 96., 133., 12., 95., 131., 8., 95., 134.,
          9., 95., 133., 10., 95., 132., 9., 96., 135., 8., 95., 134.,
          9., 95., 133. ]
      - [ 77., 114., 152., 49., 108., 146., 23., 102., 141., 49., 106.,
          142., 19., 100., 138., 8., 98., 136., 21., 99., 137., 11., 97.,
          135., 11., 96., 134. ]
      - [ 19., 100., 138., 8., 98., 136., 11., 97., 135., 11., 97., 135.,
          11., 96., 134., 12., 96., 134., 15., 95., 134., 15., 95., 133.,
          12., 95., 134. ]
      - [ 8., 98., 136., 11., 97., 135., 18., 96., 134., 11., 96., 134.,
          12., 96., 134., 12., 96., 134., 15., 95., 133., 12., 95., 134.,
          10., 96., 135. ]
      - [ 25., 95., 135., 34., 95., 135., 29., 95., 137., 38., 95., 138.,
          53., 95., 138., 46., 95., 138., 50., 95., 140., 68., 95., 141.,
          62., 95., 140. ]
      - [ 97., 116., 154., 82., 113., 153., 56., 105., 143., 66., 109.,
          148., 44., 105., 146., 29., 100., 139., 36., 102., 142., 17.,
          100., 140., 14., 97., 138. ]
      - [ 10., 96., 133., 8., 96., 133., 9., 96., 133., 9., 96., 133.,
          11., 96., 131., 7., 96., 133., 10., 95., 134., 7., 95., 134.,
          10., 95., 133. ]
      - [ 34., 99., 140., 13., 98., 136., 9., 97., 134., 33., 100., 140.,
          12., 98., 136., 9., 97., 134., 33., 100., 141., 12., 98., 137.,
          10., 97., 134. ]
      - [ 142., 89., 158., 143., 91., 158., 132., 93., 155., 142., 89.,
          158., 146., 90., 158., 140., 93., 155., 144., 89., 160., 144.,
          91., 159., 146., 93., 157. ]
      - [ 42., 96., 137., 38., 96., 137., 29., 96., 137., 28., 96., 135.,
          21., 96., 136., 13., 96., 136., 12., 96., 134., 11., 96., 135.,
          8., 96., 135. ]
      - [ 106., 96., 152., 56., 99., 148., 54., 102., 146., 127., 93.,
          158., 62., 96., 151., 51., 100., 146., 135., 93., 158., 79.,
          96., 152., 53., 100., 146. ]
      - [ 23., 108., 140., 23., 108., 140., 30., 108., 140., 44., 113.,
          143., 35., 111., 143., 28., 109., 141., 114., 116., 148., 129.,
          116., 149., 96., 115., 147. ]
      - [ 23., 108., 140., 30., 108., 140., 24., 106., 138., 35., 111.,
          143., 28., 109., 141., 19., 107., 140., 129., 116., 149., 96.,
          115., 147., 40., 112., 144. ]
      - [ 16., 97., 134., 12., 97., 135., 11., 97., 135., 17., 98., 134.,
          15., 97., 134., 14., 97., 135., 30., 100., 138., 39., 100.,
          139., 40., 100., 139. ]
      - [ 140., 93., 155., 85., 96., 151., 47., 99., 147., 148., 92.,
          155., 108., 95., 154., 52., 98., 148., 150., 91., 158., 126.,
          94., 155., 62., 98., 149. ]
      - [ 79., 93., 130., 86., 92., 129., 96., 91., 129., 78., 93., 130.,
          85., 92., 130., 95., 91., 129., 78., 94., 131., 86., 92., 131.,
          93., 91., 130. ]
      - [ 102., 107., 160., 88., 105., 155., 64., 104., 148., 102., 107.,
          160., 87., 105., 155., 64., 104., 148., 101., 107., 160., 88.,
          105., 155., 67., 102., 150. ]
      - [ 106., 91., 153., 95., 93., 147., 83., 93., 145., 69., 92.,
          147., 57., 93., 141., 45., 93., 141., 34., 94., 140., 22., 94.,
          137., 15., 95., 136. ]
      - [ 95., 93., 147., 83., 93., 145., 55., 94., 141., 57., 93., 141.,
          45., 93., 141., 27., 95., 139., 22., 94., 137., 15., 95., 136.,
          10., 96., 136. ]
      - [ 22., 94., 137., 15., 95., 136., 10., 96., 136., 8., 95., 134.,
          8., 95., 134., 8., 95., 135., 8., 95., 133., 9., 96., 133.,
          10., 95., 132. ]
      - [ 8., 95., 134., 8., 95., 134., 8., 95., 135., 8., 95., 133., 9.,
          96., 133., 10., 95., 132., 9., 96., 133., 8., 96., 132., 10.,
          95., 132. ]
      - [ 10., 95., 132., 9., 95., 133., 9., 96., 134., 10., 95., 132.,
          10., 95., 132., 8., 96., 133., 7., 95., 133., 9., 95., 132.,
          9., 96., 133. ]
      - [ 9., 96., 133., 8., 96., 132., 10., 95., 132., 7., 96., 133.,
          8., 95., 133., 7., 95., 133., 8., 96., 133., 10., 95., 133.,
          8., 95., 133. ]
      - [ 8., 96., 132., 10., 95., 132., 10., 95., 132., 8., 95., 133.,
          7., 95., 133., 9., 95., 132., 10., 95., 133., 8., 95., 133.,
          6., 95., 133. ]
      - [ 7., 96., 133., 8., 95., 133., 7., 95., 133., 8., 96., 133.,
          10., 95., 133., 8., 95., 133., 8., 95., 133., 8., 95., 133.,
          9., 95., 132. ]
      - [ 9., 95., 132., 9., 96., 133., 7., 96., 134., 6., 95., 133., 9.,
          95., 133., 9., 95., 133., 9., 95., 133., 9., 95., 133., 9.,
          95., 133. ]
      - [ 28., 98., 138., 45., 99., 139., 59., 101., 140., 31., 98.,
          138., 44., 99., 139., 53., 101., 140., 27., 98., 139., 44.,
          99., 140., 54., 101., 141. ]
      - [ 9., 95., 134., 16., 96., 134., 30., 96., 136., 7., 95., 134.,
          9., 95., 134., 19., 96., 135., 8., 95., 133., 7., 96., 134.,
          9., 96., 135. ]
      - [ 107., 109., 163., 108., 108., 163., 97., 107., 159., 112.,
          108., 164., 111., 107., 162., 96., 105., 157., 114., 109.,
          165., 113., 107., 161., 98., 105., 158. ]
      - [ 7., 95., 134., 9., 95., 133., 7., 95., 134., 9., 95., 133., 8.,
          95., 133., 8., 95., 133., 9., 95., 133., 8., 95., 133., 9.,
          95., 133. ]
      - [ 9., 95., 133., 8., 95., 133., 9., 95., 133., 7., 95., 134., 9.,
          95., 133., 9., 95., 133., 11., 95., 133., 8., 95., 135., 10.,
          95., 134. ]
      - [ 8., 95., 133., 9., 95., 133., 8., 95., 134., 9., 95., 133., 9.,
          95., 133., 10., 95., 133., 8., 95., 135., 10., 95., 134., 11.,
          95., 133. ]
      - [ 7., 96., 135., 13., 96., 135., 26., 96., 137., 11., 95., 134.,
          10., 96., 135., 12., 96., 137., 12., 95., 132., 11., 95., 133.,
          9., 96., 135. ]
      - [ 84., 106., 157., 82., 106., 157., 85., 109., 155., 94., 105.,
          159., 85., 105., 158., 76., 109., 154., 89., 108., 154., 92.,
          108., 154., 80., 107., 154. ]
      - [ 70., 101., 149., 30., 98., 141., 9., 97., 137., 63., 101.,
          148., 23., 98., 139., 10., 97., 137., 53., 98., 143., 20., 97.,
          136., 11., 97., 135. ]
      - [ 63., 101., 148., 23., 98., 139., 10., 97., 137., 53., 98.,
          143., 20., 97., 136., 11., 97., 135., 45., 98., 142., 13., 97.,
          135., 10., 97., 135. ]
      - [ 7., 96., 134., 13., 96., 134., 21., 97., 134., 8., 95., 133.,
          8., 96., 135., 13., 96., 135., 9., 95., 133., 7., 95., 134.,
          12., 96., 133. ]
      - [ 66., 100., 147., 29., 98., 141., 11., 96., 136., 51., 100.,
          145., 21., 97., 139., 11., 96., 136., 37., 98., 138., 16., 97.,
          137., 7., 97., 136. ]
      - [ 11., 96., 136., 8., 96., 135., 29., 97., 134., 11., 96., 136.,
          11., 96., 135., 44., 97., 133., 7., 97., 136., 18., 97., 135.,
          67., 97., 136. ]
      - [ 8., 95., 133., 8., 96., 135., 13., 96., 135., 9., 95., 133.,
          7., 95., 134., 12., 96., 133., 9., 95., 133., 8., 95., 133.,
          9., 96., 133. ]
      - [ 84., 104., 157., 51., 100., 145., 21., 97., 139., 70., 102.,
          150., 37., 98., 138., 16., 97., 137., 59., 102., 147., 28.,
          98., 138., 12., 97., 137. ]
      - [ 51., 100., 145., 21., 97., 139., 11., 96., 136., 37., 98.,
          138., 16., 97., 137., 7., 97., 136., 28., 98., 138., 12., 97.,
          137., 11., 97., 136. ]
      - [ 11., 96., 136., 11., 96., 135., 44., 97., 133., 7., 97., 136.,
          18., 97., 135., 67., 97., 136., 11., 97., 136., 34., 98., 136.,
          80., 97., 136. ]
      - [ 11., 96., 135., 44., 97., 133., 99., 96., 137., 18., 97., 135.,
          67., 97., 136., 113., 96., 138., 34., 98., 136., 80., 97.,
          136., 117., 95., 139. ]
      - [ 9., 95., 133., 8., 95., 133., 9., 96., 133., 8., 95., 133., 9.,
          95., 133., 7., 96., 133., 9., 95., 133., 9., 95., 133., 8.,
          95., 133. ]
      - [ 8., 95., 133., 9., 96., 133., 14., 96., 134., 9., 95., 133.,
          7., 96., 133., 8., 96., 134., 9., 95., 133., 8., 95., 133., 8.,
          96., 133. ]
      - [ 107., 106., 162., 98., 105., 158., 75., 103., 150., 105., 105.,
          160., 90., 104., 155., 62., 101., 147., 101., 105., 158., 79.,
          103., 152., 46., 100., 142. ]
      - [ 45., 101., 144., 17., 97., 137., 8., 97., 137., 32., 99., 140.,
          13., 97., 137., 9., 97., 137., 20., 99., 137., 12., 97., 137.,
          13., 98., 137. ]
      - [ 16., 97., 136., 51., 98., 136., 95., 96., 136., 24., 98., 137.,
          65., 98., 136., 106., 96., 137., 36., 99., 137., 79., 97.,
          138., 114., 94., 137. ]
      - [ 9., 95., 133., 9., 95., 133., 8., 95., 133., 11., 95., 133.,
          9., 95., 133., 8., 96., 133., 11., 95., 133., 7., 95., 134.,
          8., 95., 133. ]
      - [ 62., 101., 147., 32., 99., 140., 13., 97., 137., 46., 100.,
          142., 20., 99., 137., 12., 97., 137., 34., 99., 140., 14., 98.,
          134., 9., 97., 136. ]
      - [ 9., 97., 137., 24., 98., 137., 65., 98., 136., 13., 98., 137.,
          36., 99., 137., 79., 97., 138., 20., 99., 137., 50., 100.,
          137., 91., 97., 138. ]
      - [ 11., 95., 132., 11., 95., 133., 9., 95., 133., 9., 96., 133.,
          11., 95., 133., 7., 95., 134., 8., 95., 133., 8., 95., 133.,
          7., 96., 133. ]
      - [ 12., 97., 137., 13., 98., 137., 36., 99., 137., 9., 97., 136.,
          20., 99., 137., 50., 100., 137., 10., 97., 136., 27., 99.,
          137., 65., 100., 137. ]
      - [ 9., 96., 133., 11., 95., 133., 7., 95., 134., 8., 95., 133.,
          8., 95., 133., 7., 96., 133., 7., 95., 134., 5., 96., 134., 7.,
          95., 133. ]
      - [ 65., 102., 149., 34., 99., 140., 14., 98., 134., 47., 100.,
          146., 21., 98., 138., 13., 97., 134., 30., 100., 143., 12.,
          98., 137., 10., 97., 134. ]
      - [ 5., 96., 134., 10., 95., 134., 7., 95., 134., 6., 96., 134.,
          10., 95., 134., 7., 95., 134., 12., 95., 133., 8., 95., 133.,
          9., 95., 133. ]
      - [ 8., 95., 133., 7., 96., 133., 8., 95., 133., 5., 96., 134., 7.,
          95., 133., 9., 95., 133., 10., 95., 133., 9., 95., 133., 8.,
          95., 134. ]
      - [ 9., 95., 133., 7., 95., 134., 8., 95., 135., 10., 95., 132.,
          9., 95., 133., 6., 96., 134., 9., 95., 133., 10., 95., 133.,
          8., 95., 134. ]
      - [ 21., 96., 136., 27., 96., 139., 33., 98., 138., 17., 95., 135.,
          27., 96., 139., 28., 98., 138., 10., 95., 133., 14., 95., 135.,
          31., 96., 134. ]
      - [ 96., 105., 156., 73., 104., 152., 47., 100., 146., 88., 105.,
          155., 59., 104., 150., 30., 100., 143., 70., 103., 148., 36.,
          100., 141., 18., 98., 138. ]
      - [ 26., 94., 139., 27., 94., 138., 17., 95., 135., 13., 95., 133.,
          13., 95., 133., 11., 95., 132., 12., 95., 133., 10., 95., 133.,
          9., 95., 133. ]
      - [ 9., 95., 133., 11., 96., 134., 28., 96., 134., 11., 95., 133.,
          6., 96., 134., 14., 96., 134., 10., 95., 133., 9., 95., 133.,
          7., 96., 134. ]
      - [ 100., 88., 138., 63., 89., 138., 26., 94., 136., 97., 88.,
          138., 60., 89., 138., 20., 94., 135., 95., 88., 138., 57., 90.,
          138., 18., 94., 135. ]
      - [ 12., 98., 136., 11., 97., 135., 18., 97., 135., 12., 97., 135.,
          12., 97., 135., 24., 97., 136., 11., 97., 135., 16., 97., 136.,
          35., 98., 137. ]
      - [ 7., 96., 134., 12., 96., 134., 21., 96., 135., 8., 95., 133.,
          14., 95., 134., 20., 96., 135., 11., 95., 133., 19., 95., 132.,
          22., 95., 134. ]
      - [ 7., 95., 134., 12., 95., 134., 20., 95., 133., 10., 95., 134.,
          9., 95., 134., 12., 95., 134., 8., 96., 133., 4., 96., 134.,
          11., 95., 133. ]
      - [ 20., 95., 133., 30., 95., 132., 31., 95., 134., 12., 95., 134.,
          30., 94., 133., 34., 95., 134., 11., 95., 133., 18., 95., 133.,
          32., 94., 132. ]
      - [ 12., 95., 134., 30., 94., 133., 34., 95., 134., 11., 95., 133.,
          18., 95., 133., 32., 94., 132., 9., 95., 133., 14., 95., 134.,
          30., 94., 133. ]
      - [ 4., 96., 134., 11., 95., 133., 18., 95., 133., 6., 96., 134.,
          9., 95., 133., 14., 95., 134., 8., 95., 134., 7., 95., 134.,
          11., 95., 134. ]
      - [ 8., 96., 133., 6., 96., 134., 9., 95., 133., 9., 95., 133., 8.,
          95., 134., 7., 95., 134., 9., 95., 133., 10., 95., 133., 7.,
          95., 134. ]
      - [ 6., 96., 134., 9., 95., 133., 14., 95., 134., 8., 95., 134.,
          7., 95., 134., 11., 95., 134., 10., 95., 133., 7., 95., 134.,
          12., 95., 133. ]
      - [ 9., 95., 133., 14., 95., 134., 30., 94., 133., 7., 95., 134.,
          11., 95., 134., 29., 94., 133., 7., 95., 134., 12., 95., 133.,
          29., 94., 132. ]
      - [ 7., 95., 134., 11., 95., 134., 29., 94., 133., 7., 95., 134.,
          12., 95., 133., 29., 94., 132., 7., 95., 134., 12., 95., 133.,
          25., 94., 133. ]
      - [ 45., 100., 142., 18., 98., 137., 13., 97., 135., 34., 99.,
          140., 14., 97., 136., 13., 97., 135., 23., 98., 138., 16., 97.,
          135., 15., 97., 135. ]
      - [ 8., 95., 133., 10., 95., 133., 10., 95., 133., 7., 95., 133.,
          9., 95., 133., 9., 95., 133., 7., 95., 133., 8., 95., 133., 7.,
          96., 133. ]
      - [ 7., 95., 134., 12., 95., 133., 25., 94., 133., 7., 95., 133.,
          10., 95., 133., 16., 95., 132., 7., 96., 133., 8., 96., 133.,
          10., 95., 133. ]
      - [ 16., 95., 132., 31., 94., 133., 51., 93., 134., 10., 95., 133.,
          20., 94., 133., 43., 92., 133., 8., 95., 134., 17., 95., 133.,
          38., 93., 133. ]
      - [ 51., 93., 134., 58., 92., 135., 44., 95., 137., 43., 92., 133.,
          58., 92., 134., 58., 94., 136., 38., 93., 133., 58., 92., 134.,
          66., 93., 136. ]
      - [ 8., 95., 133., 7., 96., 133., 7., 96., 133., 8., 96., 133., 8.,
          96., 133., 10., 96., 132., 6., 96., 133., 7., 96., 133., 7.,
          96., 133. ]
      - [ 43., 92., 133., 58., 92., 134., 58., 94., 136., 38., 93., 133.,
          58., 92., 134., 66., 93., 136., 35., 93., 133., 56., 91., 135.,
          64., 93., 132. ]
      - [ 83., 103., 153., 54., 101., 146., 26., 98., 139., 79., 103.,
          152., 44., 100., 144., 18., 97., 138., 68., 101., 147., 33.,
          98., 139., 14., 97., 136. ]
      - [ 6., 95., 133., 7., 95., 133., 9., 95., 131., 9., 95., 132.,
          10., 95., 132., 8., 95., 132., 9., 95., 132., 10., 95., 132.,
          9., 95., 131. ]
      - [ 15., 97., 136., 17., 97., 136., 19., 97., 135., 15., 96., 135.,
          19., 96., 134., 17., 96., 135., 11., 96., 134., 13., 96., 134.,
          13., 97., 135. ]
      - [ 33., 100., 139., 40., 101., 141., 46., 102., 142., 45., 101.,
          141., 52., 102., 143., 60., 102., 145., 35., 101., 142., 48.,
          102., 143., 65., 102., 145. ]
      - [ 20., 99., 138., 11., 97., 136., 16., 97., 135., 14., 98., 137.,
          15., 98., 136., 38., 98., 136., 11., 97., 137., 29., 98., 136.,
          69., 97., 136. ]
      - [ 15., 98., 136., 38., 98., 136., 81., 96., 136., 29., 98., 136.,
          69., 97., 136., 106., 95., 139., 52., 97., 136., 98., 97.,
          138., 120., 93., 141. ]
      - [ 105., 103., 159., 75., 102., 151., 33., 100., 142., 97., 103.,
          157., 64., 101., 150., 23., 99., 141., 88., 104., 155., 50.,
          100., 148., 26., 99., 140. ]
      - [ 5., 95., 134., 7., 95., 133., 7., 95., 133., 7., 95., 133.,
          10., 95., 133., 8., 95., 133., 5., 95., 134., 9., 95., 133.,
          7., 95., 133. ]
      - [ 39., 100., 140., 34., 100., 140., 37., 100., 140., 70., 101.,
          144., 61., 101., 144., 52., 101., 143., 72., 102., 145., 66.,
          102., 145., 61., 102., 145. ]
      - [ 23., 99., 141., 16., 97., 137., 52., 97., 136., 26., 99., 140.,
          45., 98., 137., 86., 96., 136., 37., 99., 141., 78., 97., 138.,
          116., 96., 137. ]
      - [ 52., 92., 133., 68., 92., 134., 63., 93., 135., 51., 92., 133.,
          69., 92., 134., 67., 93., 134., 46., 94., 131., 64., 93., 132.,
          67., 92., 134. ]
      - [ 57., 99., 144., 50., 99., 144., 45., 101., 142., 51., 99.,
          145., 45., 99., 145., 34., 100., 142., 51., 99., 144., 56.,
          99., 144., 40., 100., 142. ]
      - [ 53., 95., 134., 28., 96., 137., 27., 98., 138., 60., 93., 134.,
          46., 95., 134., 23., 95., 137., 61., 93., 132., 64., 94., 134.,
          39., 95., 135. ]
      - [ 42., 100., 142., 39., 100., 142., 47., 100., 142., 31., 99.,
          140., 49., 99., 142., 56., 99., 142., 14., 98., 138., 29., 99.,
          139., 42., 99., 140. ]
      - [ 97., 88., 138., 63., 90., 139., 25., 93., 135., 87., 89., 139.,
          52., 90., 139., 15., 95., 135., 78., 89., 139., 41., 91., 137.,
          14., 95., 135. ]
      - [ 23., 95., 137., 29., 96., 139., 41., 98., 141., 39., 95., 135.,
          21., 96., 137., 33., 97., 139., 60., 94., 134., 36., 95., 137.,
          28., 96., 138. ]
      - [ 87., 89., 139., 52., 90., 139., 15., 95., 135., 78., 89., 139.,
          41., 91., 137., 14., 95., 135., 70., 90., 137., 34., 92., 137.,
          10., 95., 134. ]
      - [ 62., 93., 132., 60., 93., 132., 61., 93., 132., 62., 93., 132.,
          62., 92., 131., 57., 93., 132., 60., 93., 132., 63., 92., 131.,
          57., 92., 133. ]
      - [ 64., 94., 134., 39., 95., 135., 21., 96., 137., 68., 93., 134.,
          60., 94., 134., 36., 95., 137., 62., 93., 134., 70., 93., 134.,
          62., 93., 136. ]
      - [ 78., 89., 139., 41., 91., 137., 14., 95., 135., 70., 90., 137.,
          34., 92., 137., 10., 95., 134., 54., 91., 136., 22., 93., 136.,
          9., 95., 135. ]
      - [ 44., 99., 142., 42., 99., 142., 57., 99., 144., 31., 98., 139.,
          32., 98., 141., 47., 98., 143., 19., 97., 138., 19., 98., 138.,
          28., 98., 140. ]
      - [ 62., 93., 136., 38., 95., 136., 18., 96., 137., 70., 93., 135.,
          59., 94., 134., 34., 94., 136., 64., 93., 134., 70., 93., 135.,
          60., 93., 135. ]
      - [ 43., 101., 140., 45., 100., 140., 38., 100., 140., 40., 98.,
          137., 30., 98., 137., 28., 98., 137., 19., 97., 135., 14., 97.,
          135., 20., 97., 135. ]
      - [ 45., 98., 141., 31., 98., 141., 25., 98., 141., 53., 98., 140.,
          45., 98., 141., 29., 98., 140., 33., 98., 138., 30., 97., 139.,
          27., 97., 139. ]
      - [ 36., 98., 138., 35., 98., 137., 25., 98., 136., 47., 98., 139.,
          52., 98., 137., 38., 98., 136., 30., 98., 138., 40., 98., 137.,
          39., 98., 136. ]
      - [ 89., 104., 156., 81., 102., 152., 105., 98., 147., 82., 103.,
          153., 96., 99., 150., 121., 96., 146., 90., 100., 150., 117.,
          97., 146., 133., 94., 144. ]
      - [ 56., 92., 133., 62., 91., 133., 67., 92., 133., 50., 92., 133.,
          61., 92., 134., 68., 92., 134., 40., 93., 131., 60., 92., 135.,
          62., 92., 135. ]
      - [ 34., 94., 136., 18., 95., 136., 24., 96., 137., 60., 93., 135.,
          39., 94., 134., 16., 96., 136., 70., 93., 134., 63., 93., 134.,
          41., 95., 133. ]
      - [ 24., 96., 137., 33., 96., 137., 39., 96., 139., 16., 96., 136.,
          16., 96., 136., 24., 96., 137., 41., 95., 133., 21., 95., 134.,
          9., 96., 135. ]
      - [ 50., 92., 133., 61., 92., 134., 68., 92., 134., 40., 93., 131.,
          60., 92., 135., 62., 92., 135., 32., 93., 132., 55., 92., 137.,
          61., 92., 135. ]
      - [ 61., 92., 134., 68., 92., 134., 68., 92., 134., 60., 92., 135.,
          62., 92., 135., 64., 92., 135., 55., 92., 137., 61., 92., 135.,
          64., 92., 135. ]
      - [ 16., 96., 136., 24., 96., 137., 33., 96., 137., 21., 95., 134.,
          9., 96., 135., 19., 96., 135., 61., 95., 132., 32., 95., 134.,
          11., 96., 135. ]
      - [ 60., 92., 135., 62., 92., 135., 64., 92., 135., 55., 92., 137.,
          61., 92., 135., 64., 92., 135., 48., 92., 133., 59., 92., 133.,
          65., 91., 135. ]
      - [ 41., 95., 133., 21., 95., 134., 9., 96., 135., 70., 94., 131.,
          61., 95., 132., 32., 95., 134., 65., 92., 135., 73., 93., 135.,
          69., 93., 135. ]
      - [ 10., 96., 134., 7., 96., 135., 10., 96., 134., 10., 96., 133.,
          6., 96., 133., 10., 96., 133., 9., 96., 133., 7., 96., 133.,
          11., 96., 133. ]
      - [ 8., 96., 132., 8., 96., 132., 4., 96., 133., 8., 96., 132., 8.,
          96., 132., 7., 96., 133., 8., 96., 132., 9., 96., 132., 8.,
          95., 133. ]
      - [ 4., 96., 133., 8., 95., 133., 10., 95., 132., 7., 96., 133.,
          10., 95., 132., 11., 95., 132., 8., 95., 133., 9., 95., 132.,
          10., 95., 132. ]
      - [ 23., 94., 133., 48., 92., 133., 59., 92., 133., 15., 95., 133.,
          35., 93., 133., 52., 92., 133., 8., 95., 134., 19., 94., 133.,
          39., 92., 133. ]
      - [ 48., 92., 133., 59., 92., 133., 65., 91., 135., 35., 93., 133.,
          52., 92., 133., 62., 91., 135., 19., 94., 133., 39., 92., 133.,
          55., 92., 134. ]
      - [ 12., 96., 133., 8., 96., 133., 9., 96., 133., 8., 96., 133.,
          7., 96., 133., 11., 96., 133., 8., 96., 133., 8., 96., 133.,
          11., 96., 133. ]
      - [ 35., 96., 136., 36., 96., 135., 21., 97., 134., 18., 96., 136.,
          23., 97., 134., 20., 96., 134., 12., 96., 134., 10., 96., 135.,
          13., 96., 134. ]
      - [ 8., 95., 134., 19., 94., 133., 39., 92., 133., 7., 95., 134.,
          9., 95., 134., 27., 93., 134., 10., 95., 133., 9., 95., 134.,
          18., 94., 134. ]
      - [ 9., 95., 132., 10., 95., 132., 7., 95., 133., 6., 95., 133.,
          9., 95., 132., 6., 95., 133., 8., 95., 133., 8., 95., 133., 9.,
          95., 132. ]
      - [ 67., 92., 135., 67., 92., 135., 66., 92., 135., 71., 92., 135.,
          69., 92., 135., 66., 92., 134., 70., 92., 135., 68., 92., 135.,
          66., 92., 134. ]
      - [ 9., 95., 134., 18., 94., 134., 41., 92., 135., 11., 95., 134.,
          13., 95., 134., 32., 93., 133., 11., 95., 134., 9., 95., 134.,
          22., 94., 134. ]
      - [ 18., 94., 134., 41., 92., 135., 62., 92., 135., 13., 95., 134.,
          32., 93., 133., 58., 93., 134., 9., 95., 134., 22., 94., 134.,
          48., 93., 134. ]
      - [ 9., 95., 134., 22., 94., 134., 48., 93., 134., 7., 95., 134.,
          16., 95., 134., 38., 93., 134., 7., 95., 133., 10., 95., 133.,
          15., 95., 132. ]
      - [ 148., 108., 172., 150., 106., 172., 149., 106., 171., 145.,
          109., 173., 144., 106., 172., 138., 105., 169., 140., 109.,
          174., 137., 107., 171., 128., 104., 166. ]
      - [ 43., 99., 140., 32., 99., 139., 25., 99., 138., 59., 100.,
          143., 49., 99., 142., 31., 99., 140., 57., 100., 144., 54.,
          100., 143., 50., 100., 143. ]
      - [ 33., 97., 136., 39., 98., 137., 36., 98., 137., 21., 97., 135.,
          31., 97., 136., 28., 97., 136., 17., 96., 134., 10., 96., 135.,
          18., 97., 134. ]
      - [ 132., 107., 169., 124., 103., 164., 123., 99., 157., 123.,
          104., 165., 118., 100., 159., 131., 96., 152., 113., 102.,
          159., 121., 98., 154., 139., 94., 149. ]
      - [ 7., 95., 134., 7., 95., 134., 8., 95., 133., 9., 95., 133., 8.,
          95., 134., 6., 95., 133., 7., 95., 133., 6., 95., 133., 10.,
          95., 132. ]
      - [ 10., 95., 132., 10., 95., 132., 9., 95., 132., 6., 95., 133.,
          8., 95., 133., 8., 95., 133., 7., 95., 133., 6., 95., 133., 6.,
          95., 133. ]
      - [ 23., 97., 135., 29., 97., 136., 35., 98., 138., 18., 97., 134.,
          33., 97., 135., 48., 97., 138., 10., 96., 135., 17., 97., 135.,
          28., 97., 136. ]
      - [ 73., 109., 155., 54., 107., 151., 56., 103., 149., 55., 107.,
          151., 61., 104., 149., 86., 101., 148., 74., 104., 148., 107.,
          100., 148., 137., 97., 145. ]
      - [ 146., 85., 139., 105., 87., 138., 30., 92., 137., 122., 88.,
          140., 63., 90., 138., 13., 94., 137., 80., 90., 139., 20., 93.,
          137., 6., 95., 136. ]
      - [ 137., 97., 145., 150., 94., 141., 152., 92., 138., 155., 93.,
          142., 155., 90., 139., 150., 89., 136., 155., 89., 141., 156.,
          88., 138., 152., 87., 136. ]
      - [ 135., 85., 139., 80., 90., 139., 20., 93., 137., 91., 87.,
          140., 32., 93., 137., 11., 95., 136., 44., 91., 140., 5., 95.,
          136., 9., 95., 135. ]
      - [ 80., 90., 139., 20., 93., 137., 6., 95., 136., 32., 93., 137.,
          11., 95., 136., 6., 95., 135., 5., 95., 136., 9., 95., 135.,
          9., 95., 133. ]
      - [ 134., 85., 141., 91., 87., 140., 32., 93., 137., 106., 88.,
          140., 44., 91., 140., 5., 95., 136., 65., 90., 141., 14., 94.,
          139., 9., 95., 134. ]
      - [ 106., 88., 140., 44., 91., 140., 5., 95., 136., 65., 90., 141.,
          14., 94., 139., 9., 95., 134., 21., 94., 135., 6., 95., 136.,
          10., 95., 133. ]
      - [ 5., 95., 136., 9., 95., 135., 9., 95., 133., 9., 95., 134., 6.,
          95., 134., 9., 95., 133., 10., 95., 133., 7., 95., 134., 8.,
          95., 133. ]
      - [ 9., 95., 135., 9., 95., 133., 6., 96., 133., 6., 95., 134., 9.,
          95., 133., 7., 95., 133., 7., 95., 134., 8., 95., 133., 5.,
          95., 134. ]
      - [ 99., 88., 140., 65., 90., 141., 14., 94., 139., 51., 93., 137.,
          21., 94., 135., 6., 95., 136., 20., 94., 135., 8., 95., 136.,
          5., 96., 135. ]
      - [ 7., 95., 134., 8., 95., 133., 5., 95., 134., 7., 95., 133., 9.,
          95., 133., 6., 95., 133., 6., 95., 133., 8., 95., 133., 5.,
          95., 134. ]
      - [ 9., 95., 132., 6., 95., 133., 8., 95., 133., 7., 95., 133., 6.,
          95., 133., 9., 95., 132., 7., 95., 133., 6., 95., 133., 10.,
          95., 132. ]
      - [ 24., 93., 136., 21., 93., 136., 14., 94., 135., 9., 95., 135.,
          12., 95., 135., 9., 95., 134., 9., 95., 134., 7., 95., 134.,
          7., 95., 134. ]
      - [ 8., 96., 133., 9., 96., 133., 11., 96., 133., 12., 95., 133.,
          7., 96., 133., 7., 96., 133., 72., 94., 128., 32., 95., 130.,
          8., 96., 133. ]
      - [ 126., 86., 137., 107., 87., 138., 71., 89., 138., 104., 88.,
          138., 49., 91., 137., 10., 94., 137., 44., 91., 138., 10., 94.,
          138., 9., 95., 136. ]
      - [ 6., 95., 135., 7., 95., 134., 5., 96., 134., 7., 95., 133., 8.,
          95., 132., 8., 96., 132., 9., 96., 132., 6., 96., 132., 10.,
          95., 131. ]
      - [ 7., 95., 134., 5., 96., 134., 9., 95., 133., 8., 95., 132., 8.,
          96., 132., 9., 96., 132., 6., 96., 132., 10., 95., 131., 7.,
          96., 132. ]
      - [ 6., 95., 136., 11., 95., 134., 7., 95., 133., 9., 95., 135.,
          9., 95., 133., 9., 96., 132., 9., 95., 133., 7., 96., 133., 6.,
          96., 134. ]
      - [ 7., 95., 133., 8., 95., 132., 8., 96., 132., 9., 96., 132., 6.,
          96., 132., 10., 95., 131., 6., 96., 134., 9., 95., 133., 7.,
          96., 133. ]
      - [ 10., 94., 138., 9., 95., 136., 9., 95., 135., 7., 95., 134.,
          10., 95., 133., 9., 95., 133., 11., 95., 133., 9., 95., 133.,
          5., 95., 134. ]
      - [ 9., 95., 136., 9., 95., 135., 9., 95., 133., 10., 95., 133.,
          9., 95., 133., 7., 96., 133., 9., 95., 133., 5., 95., 134., 8.,
          96., 133. ]
      - [ 8., 96., 132., 8., 96., 132., 6., 96., 133., 8., 96., 132., 8.,
          96., 132., 7., 96., 133., 8., 96., 132., 8., 96., 132., 8.,
          96., 132. ]
      - [ 37., 100., 142., 43., 102., 143., 47., 102., 143., 26., 99.,
          138., 31., 100., 138., 35., 100., 139., 23., 99., 135., 26.,
          99., 135., 28., 100., 135. ]
      - [ 5., 95., 134., 8., 96., 133., 9., 95., 133., 15., 95., 132.,
          10., 95., 133., 8., 95., 134., 55., 93., 128., 22., 94., 131.,
          7., 95., 134. ]
      - [ 126., 96., 151., 158., 93., 147., 175., 88., 141., 121., 94.,
          145., 151., 90., 142., 158., 87., 138., 123., 92., 142., 141.,
          89., 139., 147., 87., 136. ]
      - [ 6., 95., 136., 11., 95., 134., 8., 95., 134., 12., 96., 133.,
          9., 95., 133., 15., 95., 132., 8., 96., 133., 12., 95., 131.,
          45., 94., 128. ]
      - [ 7., 95., 134., 8., 95., 134., 9., 95., 133., 14., 95., 133.,
          10., 95., 133., 9., 95., 133., 40., 92., 131., 8., 95., 134.,
          8., 95., 134. ]
      - [ 9., 95., 132., 6., 95., 133., 10., 95., 132., 9., 95., 132.,
          6., 95., 133., 8., 95., 132., 9., 95., 132., 7., 95., 133., 8.,
          95., 132. ]
      - [ 6., 95., 133., 10., 95., 132., 9., 95., 132., 6., 95., 133.,
          8., 95., 132., 8., 95., 132., 7., 95., 133., 8., 95., 132., 9.,
          95., 131. ]
      - [ 14., 95., 133., 10., 95., 133., 9., 95., 133., 40., 92., 131.,
          8., 95., 134., 8., 95., 134., 70., 90., 132., 16., 94., 132.,
          8., 95., 134. ]
      - [ 6., 96., 133., 8., 95., 133., 7., 95., 133., 6., 96., 133., 8.,
          95., 133., 7., 95., 133., 8., 96., 132., 6., 95., 133., 7.,
          95., 133. ]
      - [ 7., 96., 133., 11., 95., 132., 47., 93., 126., 16., 95., 131.,
          45., 93., 126., 91., 90., 124., 46., 93., 126., 90., 92., 124.,
          114., 88., 123. ]
      - [ 7., 95., 133., 8., 95., 132., 9., 95., 131., 10., 95., 132.,
          8., 95., 132., 9., 95., 131., 9., 95., 131., 6., 95., 133.,
          10., 95., 132. ]
      - [ 8., 95., 132., 9., 95., 131., 8., 95., 132., 8., 95., 132., 9.,
          95., 131., 10., 95., 131., 6., 95., 133., 10., 95., 132., 9.,
          95., 132. ]
      - [ 70., 90., 132., 16., 94., 132., 8., 95., 134., 89., 90., 131.,
          40., 92., 131., 9., 95., 133., 99., 89., 130., 58., 91., 130.,
          12., 95., 134. ]
      - [ 68., 90., 135., 114., 87., 136., 131., 87., 136., 24., 93.,
          134., 52., 91., 133., 94., 89., 133., 12., 95., 134., 13., 94.,
          135., 38., 92., 134. ]
      - [ 16., 95., 131., 12., 95., 130., 9., 95., 131., 15., 95., 132.,
          11., 95., 132., 8., 95., 132., 29., 94., 132., 23., 95., 131.,
          12., 95., 132. ]
      - [ 12., 95., 130., 9., 95., 131., 9., 95., 131., 11., 95., 132.,
          8., 95., 132., 9., 95., 131., 23., 95., 131., 12., 95., 132.,
          7., 95., 133. ]
      - [ 131., 109., 166., 127., 109., 166., 129., 107., 163., 131.,
          106., 165., 124., 105., 164., 127., 104., 161., 130., 102.,
          162., 135., 100., 159., 143., 98., 155. ]
      - [ 108., 87., 142., 103., 87., 142., 99., 87., 140., 99., 88.,
          140., 91., 88., 140., 66., 90., 138., 54., 91., 136., 36., 92.,
          136., 13., 94., 136. ]
      - [ 6., 95., 133., 8., 95., 133., 9., 95., 133., 9., 95., 133.,
          16., 95., 132., 17., 95., 132., 11., 95., 132., 21., 94., 132.,
          22., 94., 131. ]
      - [ 11., 95., 132., 8., 95., 132., 9., 95., 131., 23., 95., 131.,
          12., 95., 132., 7., 95., 133., 38., 94., 131., 22., 94., 131.,
          9., 95., 133. ]
      - [ 31., 100., 135., 31., 101., 136., 28., 101., 136., 26., 99.,
          135., 25., 101., 136., 32., 101., 136., 75., 96., 135., 48.,
          98., 136., 35., 99., 137. ]
      - [ 48., 98., 136., 35., 99., 137., 41., 100., 138., 118., 94.,
          136., 75., 95., 137., 54., 97., 138., 164., 89., 136., 142.,
          90., 137., 102., 93., 139. ]
      - [ 16., 95., 132., 9., 95., 133., 6., 95., 133., 15., 95., 133.,
          9., 95., 132., 8., 95., 132., 12., 95., 133., 7., 95., 133.,
          9., 95., 131. ]
      - [ 7., 95., 133., 9., 95., 133., 6., 95., 133., 7., 95., 133., 9.,
          95., 133., 13., 95., 132., 9., 95., 133., 10., 95., 133., 25.,
          94., 130. ]
      - [ 102., 108., 162., 113., 107., 162., 129., 106., 163., 118.,
          107., 162., 132., 105., 161., 139., 104., 161., 118., 106.,
          162., 137., 105., 161., 138., 102., 160. ]
      - [ 65., 90., 139., 53., 90., 139., 54., 91., 136., 89., 91., 132.,
          54., 91., 133., 32., 93., 135., 72., 91., 134., 54., 92., 134.,
          36., 92., 133. ]
      - [ 106., 107., 164., 113., 104., 166., 115., 112., 164., 108.,
          107., 161., 110., 104., 162., 111., 105., 159., 115., 104.,
          156., 121., 101., 157., 128., 96., 151. ]
      - [ 38., 101., 141., 52., 102., 141., 51., 102., 142., 45., 98.,
          139., 39., 98., 139., 46., 100., 140., 90., 94., 137., 51.,
          96., 138., 73., 97., 139. ]
      - [ 108., 86., 137., 108., 86., 137., 109., 87., 139., 115., 87.,
          136., 119., 87., 136., 119., 88., 135., 116., 87., 136., 105.,
          88., 135., 93., 89., 135. ]
      - [ 14., 95., 134., 14., 95., 134., 10., 95., 133., 20., 95., 134.,
          22., 94., 133., 9., 95., 133., 24., 94., 133., 22., 94., 133.,
          10., 95., 133. ]
      - [ 94., 93., 138., 45., 98., 139., 39., 98., 139., 144., 89.,
          136., 90., 94., 137., 51., 96., 138., 168., 85., 135., 145.,
          90., 135., 106., 92., 136. ]
      - [ 123., 88., 140., 102., 88., 138., 76., 89., 138., 91., 90.,
          139., 75., 90., 139., 56., 91., 137., 53., 92., 137., 50., 92.,
          137., 40., 93., 135. ]
      - [ 40., 92., 135., 35., 92., 135., 18., 94., 135., 18., 94., 134.,
          16., 94., 135., 13., 94., 135., 11., 95., 134., 11., 95., 134.,
          10., 95., 133. ]
      - [ 59., 96., 143., 88., 97., 146., 100., 98., 147., 50., 95.,
          140., 40., 98., 141., 48., 98., 142., 98., 94., 139., 48., 98.,
          140., 34., 100., 140. ]
      - [ 130., 89., 141., 130., 87., 140., 129., 85., 141., 84., 89.,
          138., 88., 88., 138., 74., 88., 138., 30., 93., 136., 28., 93.,
          135., 32., 93., 137. ]
      - [ 127., 86., 141., 125., 86., 139., 131., 87., 139., 65., 90.,
          138., 65., 89., 136., 77., 89., 136., 23., 93., 137., 30., 93.,
          135., 33., 92., 134. ]
      - [ 102., 88., 138., 90., 89., 138., 88., 90., 139., 61., 91.,
          135., 58., 91., 136., 64., 91., 137., 22., 94., 134., 31., 94.,
          134., 40., 93., 134. ]
      - [ 88., 90., 139., 99., 89., 138., 101., 89., 138., 64., 91.,
          137., 70., 91., 135., 64., 91., 135., 40., 93., 134., 39., 93.,
          130., 33., 93., 132. ]
      - [ 101., 89., 138., 99., 89., 139., 91., 90., 139., 64., 91.,
          135., 55., 91., 136., 53., 92., 137., 33., 93., 132., 27., 93.,
          134., 26., 94., 135. ]
      - [ 99., 89., 139., 91., 90., 139., 75., 90., 139., 55., 91., 136.,
          53., 92., 137., 50., 92., 137., 27., 93., 134., 26., 94., 135.,
          25., 94., 135. ]
      - [ 91., 90., 139., 75., 90., 139., 56., 91., 137., 53., 92., 137.,
          50., 92., 137., 40., 93., 135., 26., 94., 135., 25., 94., 135.,
          17., 94., 134. ]
      - [ 40., 92., 135., 42., 92., 135., 40., 93., 133., 17., 95., 133.,
          21., 94., 133., 19., 94., 133., 13., 95., 134., 7., 95., 134.,
          10., 95., 134. ]
      - [ 42., 92., 135., 40., 93., 133., 32., 93., 134., 21., 94., 133.,
          19., 94., 133., 11., 95., 134., 7., 95., 134., 10., 95., 134.,
          14., 95., 133. ]
      - [ 16., 94., 135., 13., 94., 135., 11., 95., 133., 11., 95., 134.,
          10., 95., 133., 8., 95., 133., 7., 95., 134., 7., 95., 134.,
          11., 95., 132. ]
      - [ 74., 88., 138., 70., 89., 139., 65., 90., 138., 32., 93., 137.,
          23., 93., 138., 23., 93., 137., 14., 95., 132., 13., 95., 133.,
          13., 95., 133. ]
      - [ 77., 89., 136., 82., 89., 135., 61., 91., 135., 33., 92., 134.,
          33., 92., 134., 22., 94., 134., 13., 95., 133., 11., 95., 134.,
          12., 95., 134. ]
      - [ 58., 91., 136., 64., 91., 137., 70., 91., 135., 31., 94., 134.,
          40., 93., 134., 39., 93., 130., 17., 95., 133., 19., 94., 133.,
          16., 95., 133. ]
      - [ 32., 93., 135., 22., 94., 134., 17., 95., 133., 14., 94., 134.,
          10., 95., 133., 13., 95., 134., 9., 95., 133., 10., 95., 133.,
          7., 95., 133. ]
      - [ 12., 95., 132., 9., 95., 133., 9., 95., 132., 8., 95., 133.,
          9., 95., 133., 8., 95., 132., 7., 96., 132., 11., 95., 131.,
          18., 95., 128. ]
      - [ 9., 95., 133., 9., 95., 132., 12., 95., 131., 9., 95., 133.,
          8., 95., 132., 21., 95., 130., 11., 95., 131., 18., 95., 128.,
          46., 93., 123. ]
      - [ 9., 95., 132., 12., 95., 131., 27., 94., 129., 8., 95., 132.,
          21., 95., 130., 55., 94., 126., 18., 95., 128., 46., 93., 123.,
          59., 92., 126. ]
      - [ 6., 95., 133., 6., 95., 133., 10., 95., 132., 8., 95., 133.,
          9., 95., 132., 6., 95., 133., 7., 95., 133., 7., 95., 133., 6.,
          95., 133. ]
      - [ 5., 95., 134., 8., 95., 133., 9., 95., 133., 9., 95., 132., 7.,
          96., 132., 11., 95., 131., 8., 95., 132., 17., 95., 130., 39.,
          94., 126. ]
      - [ 8., 95., 133., 9., 95., 133., 8., 95., 132., 7., 96., 132.,
          11., 95., 131., 18., 95., 128., 17., 95., 130., 39., 94., 126.,
          65., 92., 123. ]
      - [ 88., 102., 154., 103., 98., 150., 127., 94., 145., 116., 98.,
          149., 127., 94., 145., 133., 92., 142., 129., 94., 142., 131.,
          90., 139., 124., 88., 136. ]
      - [ 9., 95., 132., 9., 95., 132., 7., 96., 132., 8., 95., 133., 8.,
          95., 132., 17., 95., 130., 8., 96., 132., 16., 95., 130., 43.,
          93., 126. ]
      - [ 5., 95., 135., 6., 95., 134., 7., 95., 134., 16., 95., 132.,
          25., 94., 131., 21., 94., 132., 25., 94., 131., 48., 93., 129.,
          49., 93., 129. ]
      - [ 63., 90., 132., 60., 91., 132., 59., 92., 133., 67., 90., 133.,
          25., 93., 134., 14., 95., 134., 62., 91., 135., 11., 94., 135.,
          12., 95., 134. ]
      - [ 39., 98., 139., 38., 101., 141., 51., 104., 142., 95., 95.,
          137., 45., 98., 139., 37., 101., 139., 147., 91., 135., 97.,
          95., 137., 50., 98., 139. ]
      - [ 67., 90., 133., 25., 93., 134., 14., 95., 134., 62., 91., 135.,
          11., 94., 135., 12., 95., 134., 26., 93., 135., 19., 94., 134.,
          11., 95., 134. ]
      - [ 24., 95., 130., 17., 95., 132., 9., 95., 133., 31., 94., 131.,
          23., 94., 131., 12., 95., 133., 28., 94., 131., 21., 94., 132.,
          10., 95., 133. ]
      - [ 45., 98., 139., 37., 101., 139., 44., 103., 142., 97., 95.,
          137., 50., 98., 139., 39., 100., 140., 143., 91., 135., 109.,
          94., 137., 61., 98., 139. ]
      - [ 25., 94., 130., 12., 95., 132., 8., 95., 133., 35., 94., 128.,
          15., 95., 131., 8., 95., 133., 52., 93., 129., 31., 94., 130.,
          13., 95., 132. ]
      - [ 22., 94., 131., 26., 94., 131., 24., 94., 131., 49., 92., 130.,
          59., 92., 129., 57., 93., 129., 56., 94., 131., 58., 93., 132.,
          66., 93., 131. ]
      - [ 26., 94., 131., 24., 94., 131., 17., 95., 132., 59., 92., 129.,
          57., 93., 129., 46., 93., 129., 58., 93., 132., 66., 93., 131.,
          64., 92., 131. ]
      - [ 11., 95., 132., 14., 95., 132., 12., 95., 131., 13., 95., 133.,
          14., 95., 133., 13., 95., 133., 12., 95., 133., 10., 95., 133.,
          11., 95., 133. ]
      - [ 14., 95., 132., 12., 95., 131., 13., 95., 131., 14., 95., 133.,
          13., 95., 133., 15., 95., 132., 10., 95., 133., 11., 95., 133.,
          12., 95., 132. ]
      - [ 19., 95., 130., 16., 95., 131., 15., 95., 130., 17., 95., 132.,
          17., 95., 132., 17., 95., 132., 15., 95., 132., 15., 95., 132.,
          15., 95., 131. ]
      - [ 15., 95., 130., 17., 95., 131., 14., 95., 133., 17., 95., 132.,
          22., 94., 131., 19., 94., 131., 15., 95., 131., 19., 94., 131.,
          19., 94., 131. ]
      - [ 12., 95., 132., 13., 95., 133., 11., 95., 133., 42., 93., 129.,
          30., 94., 131., 18., 95., 132., 67., 92., 129., 57., 92., 129.,
          41., 93., 130. ]
      - [ 13., 95., 133., 11., 95., 133., 13., 95., 133., 30., 94., 131.,
          18., 95., 132., 12., 95., 133., 57., 92., 129., 41., 93., 130.,
          26., 94., 131. ]
      - [ 17., 95., 132., 22., 94., 131., 19., 94., 131., 15., 95., 131.,
          19., 94., 131., 19., 94., 131., 15., 95., 131., 17., 95., 131.,
          20., 94., 130. ]
      - [ 29., 94., 131., 43., 93., 130., 42., 93., 130., 30., 94., 130.,
          40., 93., 130., 37., 93., 130., 28., 94., 130., 34., 94., 130.,
          35., 93., 131. ]
      - [ 8., 96., 133., 6., 96., 134., 8., 95., 133., 25., 94., 130.,
          17., 95., 132., 14., 95., 132., 80., 90., 127., 82., 91., 126.,
          77., 92., 126. ]
      - [ 8., 95., 133., 8., 95., 133., 9., 95., 133., 14., 95., 132.,
          10., 95., 133., 9., 95., 133., 77., 92., 126., 55., 92., 127.,
          43., 93., 128. ]
      - [ 8., 95., 133., 9., 95., 133., 6., 96., 133., 10., 95., 133.,
          9., 95., 133., 9., 96., 133., 55., 92., 127., 43., 93., 128.,
          51., 93., 129. ]
      - [ 7., 96., 132., 8., 96., 132., 8., 96., 132., 10., 95., 133.,
          13., 95., 131., 17., 95., 131., 62., 93., 129., 52., 93., 129.,
          33., 94., 130. ]
      - [ 8., 96., 132., 8., 96., 132., 13., 95., 131., 13., 95., 131.,
          17., 95., 131., 20., 95., 131., 52., 93., 129., 33., 94., 130.,
          22., 94., 131. ]
      - [ 30., 94., 131., 18., 95., 132., 12., 95., 133., 57., 92., 129.,
          41., 93., 130., 26., 94., 131., 71., 91., 130., 63., 91., 130.,
          54., 92., 130. ]
      - [ 15., 95., 132., 15., 95., 132., 15., 95., 131., 11., 95., 132.,
          12., 95., 132., 15., 95., 131., 15., 95., 132., 11., 95., 132.,
          13., 95., 132. ]
      - [ 15., 95., 131., 19., 94., 131., 19., 94., 131., 15., 95., 131.,
          17., 95., 131., 20., 94., 130., 13., 95., 132., 14., 95., 131.,
          20., 94., 130. ]
      - [ 19., 94., 131., 19., 94., 131., 30., 94., 130., 17., 95., 131.,
          20., 94., 130., 28., 94., 130., 14., 95., 131., 20., 94., 130.,
          28., 94., 130. ]
      - [ 30., 94., 130., 40., 93., 130., 37., 93., 130., 28., 94., 130.,
          34., 94., 130., 35., 93., 131., 28., 94., 130., 33., 94., 130.,
          37., 94., 130. ]
      - [ 53., 103., 142., 53., 105., 144., 52., 104., 145., 62., 100.,
          139., 43., 102., 142., 57., 104., 143., 99., 96., 138., 50.,
          99., 139., 45., 101., 141. ]
      - [ 67., 92., 129., 57., 92., 129., 41., 93., 130., 77., 91., 131.,
          71., 91., 130., 63., 91., 130., 77., 91., 133., 72., 91., 130.,
          75., 91., 130. ]
      - [ 41., 93., 130., 26., 94., 131., 19., 94., 131., 63., 91., 130.,
          54., 92., 130., 47., 92., 129., 75., 91., 130., 77., 91., 130.,
          74., 92., 129. ]
      - [ 26., 94., 131., 19., 94., 131., 15., 95., 132., 54., 92., 130.,
          47., 92., 129., 37., 94., 129., 77., 91., 130., 74., 92., 129.,
          65., 93., 129. ]
      - [ 15., 95., 132., 12., 95., 132., 11., 95., 132., 37., 94., 129.,
          24., 95., 130., 15., 95., 132., 65., 93., 129., 51., 93., 129.,
          35., 94., 129. ]
      - [ 11., 95., 132., 12., 95., 132., 15., 95., 131., 15., 95., 132.,
          11., 95., 132., 13., 95., 132., 35., 94., 129., 25., 94., 130.,
          18., 94., 130. ]
      - [ 12., 95., 132., 15., 95., 131., 17., 95., 131., 11., 95., 132.,
          13., 95., 132., 14., 95., 131., 25., 94., 130., 18., 94., 130.,
          18., 94., 130. ]
      - [ 15., 95., 131., 17., 95., 131., 20., 94., 130., 13., 95., 132.,
          14., 95., 131., 20., 94., 130., 18., 94., 130., 18., 94., 130.,
          27., 94., 130. ]
      - [ 77., 91., 131., 71., 91., 130., 63., 91., 130., 77., 91., 133.,
          72., 91., 130., 75., 91., 130., 61., 91., 133., 54., 92., 131.,
          62., 91., 131. ]
      - [ 63., 91., 130., 54., 92., 130., 47., 92., 129., 75., 91., 130.,
          77., 91., 130., 74., 92., 129., 62., 91., 131., 68., 91., 131.,
          70., 92., 131. ]
      - [ 54., 92., 130., 47., 92., 129., 37., 94., 129., 77., 91., 130.,
          74., 92., 129., 65., 93., 129., 68., 91., 131., 70., 92., 131.,
          71., 92., 131. ]
      - [ 47., 92., 129., 37., 94., 129., 24., 95., 130., 74., 92., 129.,
          65., 93., 129., 51., 93., 129., 70., 92., 131., 71., 92., 131.,
          69., 92., 131. ]
      - [ 24., 95., 130., 15., 95., 132., 11., 95., 132., 51., 93., 129.,
          35., 94., 129., 25., 94., 130., 69., 92., 131., 63., 93., 129.,
          58., 93., 129. ]
      - [ 11., 95., 132., 13., 95., 132., 14., 95., 131., 25., 94., 130.,
          18., 94., 130., 18., 94., 130., 58., 93., 129., 46., 92., 129.,
          42., 93., 129. ]
      - [ 28., 94., 130., 33., 94., 130., 37., 94., 130., 34., 94., 130.,
          38., 94., 130., 42., 93., 130., 40., 93., 130., 39., 93., 130.,
          44., 93., 132. ]
      - [ 72., 91., 130., 75., 91., 130., 77., 91., 130., 54., 92., 131.,
          62., 91., 131., 68., 91., 131., 24., 93., 135., 32., 93., 134.,
          37., 93., 133. ]
      - [ 74., 92., 129., 65., 93., 129., 51., 93., 129., 70., 92., 131.,
          71., 92., 131., 69., 92., 131., 41., 92., 133., 49., 92., 133.,
          58., 92., 133. ]
      - [ 51., 93., 129., 35., 94., 129., 25., 94., 130., 69., 92., 131.,
          63., 93., 129., 58., 93., 129., 58., 92., 133., 69., 92., 133.,
          78., 91., 133. ]
      - [ 35., 94., 129., 25., 94., 130., 18., 94., 130., 63., 93., 129.,
          58., 93., 129., 46., 92., 129., 69., 92., 133., 78., 91., 133.,
          69., 92., 129. ]
      - [ 18., 94., 130., 18., 94., 130., 27., 94., 130., 46., 92., 129.,
          42., 93., 129., 43., 93., 130., 69., 92., 129., 62., 92., 129.,
          53., 92., 131. ]
      - [ 18., 94., 130., 27., 94., 130., 34., 94., 130., 42., 93., 129.,
          43., 93., 130., 40., 93., 130., 62., 92., 129., 53., 92., 131.,
          38., 93., 132. ]
      - [ 45., 98., 139., 66., 97., 140., 96., 95., 141., 69., 96., 138.,
          85., 94., 137., 79., 92., 138., 105., 93., 136., 110., 92.,
          135., 84., 91., 135. ]
      - [ 66., 97., 140., 96., 95., 141., 105., 90., 135., 85., 94.,
          137., 79., 92., 138., 58., 91., 133., 110., 92., 135., 84.,
          91., 135., 46., 92., 133. ]
      - [ 61., 91., 133., 54., 92., 131., 62., 91., 131., 38., 92., 132.,
          24., 93., 135., 32., 93., 134., 24., 93., 133., 16., 94., 135.,
          22., 94., 135. ]
      - [ 58., 93., 129., 46., 92., 129., 42., 93., 129., 78., 91., 133.,
          69., 92., 129., 62., 92., 129., 72., 91., 133., 71., 92., 131.,
          63., 92., 131. ]
      - [ 42., 93., 129., 43., 93., 130., 40., 93., 130., 62., 92., 129.,
          53., 92., 131., 38., 93., 132., 63., 92., 131., 50., 92., 131.,
          29., 93., 134. ]
      - [ 24., 93., 135., 32., 93., 134., 37., 93., 133., 16., 94., 135.,
          22., 94., 135., 25., 93., 135., 17., 95., 133., 19., 95., 134.,
          24., 94., 133. ]
      - [ 92., 89., 136., 121., 90., 137., 124., 92., 136., 56., 90.,
          136., 63., 90., 138., 87., 91., 135., 27., 94., 136., 21., 94.,
          136., 44., 92., 136. ]
      - [ 121., 90., 137., 124., 92., 136., 105., 93., 136., 63., 90.,
          138., 87., 91., 135., 119., 91., 135., 21., 94., 136., 44.,
          92., 136., 92., 90., 136. ]
      - [ 38., 93., 133., 38., 93., 132., 24., 93., 133., 17., 95., 133.,
          28., 93., 132., 20., 94., 132., 18., 94., 133., 24., 94., 133.,
          18., 94., 132. ]
      - [ 16., 95., 132., 22., 94., 133., 14., 95., 133., 13., 95., 132.,
          26., 94., 134., 17., 94., 134., 19., 94., 131., 17., 94., 134.,
          22., 94., 134. ]
      - [ 13., 95., 133., 16., 95., 131., 12., 95., 131., 13., 95., 133.,
          15., 95., 131., 16., 95., 130., 14., 95., 133., 10., 95., 133.,
          8., 95., 133. ]
      - [ 24., 95., 130., 20., 95., 131., 15., 95., 131., 22., 94., 133.,
          21., 94., 132., 10., 95., 133., 26., 94., 132., 23., 94., 131.,
          12., 95., 132. ]
      - [ 13., 95., 132., 13., 95., 132., 10., 95., 133., 30., 94., 129.,
          27., 94., 129., 16., 95., 130., 52., 93., 129., 39., 93., 129.,
          12., 95., 132. ]
      - [ 8., 95., 133., 12., 95., 132., 11., 95., 133., 19., 94., 133.,
          20., 94., 133., 14., 95., 133., 44., 93., 134., 36., 93., 134.,
          23., 94., 131. ]
      - [ 44., 93., 135., 46., 93., 135., 41., 94., 130., 23., 94., 136.,
          46., 93., 135., 58., 93., 129., 16., 95., 135., 32., 93., 137.,
          53., 93., 134. ]
      - [ 20., 95., 134., 23., 94., 133., 26., 94., 132., 19., 95., 133.,
          30., 94., 133., 29., 94., 133., 38., 94., 133., 45., 94., 132.,
          34., 94., 133. ]
      - [ 52., 93., 135., 35., 94., 135., 17., 95., 135., 36., 94., 135.,
          22., 94., 135., 15., 95., 135., 34., 94., 135., 21., 94., 135.,
          11., 95., 134. ]
      - [ 55., 93., 137., 52., 93., 141., 43., 94., 139., 65., 93., 137.,
          72., 93., 139., 57., 93., 139., 34., 93., 138., 56., 93., 137.,
          50., 94., 137. ]
      - [ 22., 94., 135., 15., 95., 135., 15., 95., 134., 21., 94., 135.,
          11., 95., 134., 11., 95., 134., 26., 94., 135., 14., 95., 134.,
          15., 95., 134. ]
      - [ 15., 95., 133., 27., 94., 133., 36., 94., 134., 14., 95., 133.,
          22., 94., 133., 32., 94., 133., 15., 95., 133., 22., 94., 133.,
          32., 94., 133. ]
      - [ 32., 94., 136., 36., 94., 135., 27., 94., 135., 39., 94., 136.,
          47., 93., 135., 37., 94., 134., 55., 93., 136., 60., 93., 135.,
          45., 93., 134. ]
      - [ 42., 94., 136., 55., 93., 136., 60., 93., 135., 60., 93., 136.,
          69., 93., 136., 69., 93., 136., 62., 93., 137., 68., 93., 138.,
          69., 93., 136. ]
      - [ 45., 93., 134., 22., 94., 133., 15., 95., 133., 40., 94., 135.,
          18., 95., 135., 16., 95., 135., 43., 93., 136., 18., 95., 135.,
          14., 95., 135. ]
      - [ 68., 93., 138., 69., 93., 136., 43., 93., 136., 56., 93., 138.,
          61., 93., 138., 49., 93., 136., 34., 93., 138., 46., 93., 138.,
          51., 93., 136. ]
      - [ 8., 95., 133., 6., 95., 133., 7., 95., 133., 7., 95., 133., 6.,
          95., 133., 6., 95., 133., 6., 95., 133., 7., 95., 133., 9.,
          95., 132. ]
      - [ 21., 94., 132., 15., 95., 133., 17., 95., 132., 22., 94., 131.,
          20., 95., 131., 19., 95., 131., 25., 94., 131., 25., 94., 131.,
          18., 95., 132. ]
      - [ 26., 94., 132., 33., 94., 132., 45., 94., 134., 43., 94., 132.,
          54., 94., 134., 59., 94., 134., 58., 94., 133., 57., 93., 135.,
          47., 93., 135. ]
      - [ 45., 94., 134., 54., 93., 136., 53., 94., 137., 59., 94., 134.,
          54., 93., 136., 41., 94., 137., 47., 93., 135., 37., 94., 136.,
          25., 94., 136. ]
      - [ 12., 95., 134., 15., 95., 133., 17., 95., 132., 19., 95., 134.,
          14., 95., 133., 14., 95., 133., 27., 94., 133., 15., 95., 133.,
          16., 95., 132. ]
